-3.98131013e-02
9.00211856e-02
1.28621638e-01
4.25095819e-02
3.52879241e-02
1.29667148e-01
1.72714274e-02
-1.23993598e-01
1.96073413e-01
9.15669724e-02
-1.34228408e-01
7.49567226e-02
2.50176609e-01
8.85884091e-02
-1.75520778e-02
1.97919950e-01
-3.97968441e-02
-9.21001658e-02
2.40885735e-01
-7.90049583e-02
2.31261402e-02
2.65907198e-02
2.07347870e-01
8.63070488e-02
-1.14973590e-01
1.31030515e-01
2.17833534e-01
3.07477117e-02
-9.19780228e-04
9.29573849e-02
-1.12805001e-01
5.80537133e-02
-7.38532096e-03
-1.21125288e-01
1.02953956e-01
3.88812535e-02
1.99951351e-01
7.28752688e-02
-6.99089244e-02
-1.64076403e-01
-2.08467320e-02
-1.14449203e-01
2.16290623e-01
-9.54020023e-02
-1.08794481e-01
1.05884694e-01
2.40700953e-02
4.60928120e-02
-1.80035960e-02
1.31409168e-01
-4.61054035e-03
-6.42200932e-02
-3.97801474e-02
6.74588904e-02
-1.17241807e-01
-2.19008401e-02
1.78565636e-01
8.45029056e-02
1.41955137e-01
1.26317501e-01
-2.46298872e-02
-6.88844472e-02
-1.25158817e-01
-8.55770111e-02
1.27852798e-01
-4.11159955e-02
-3.44098322e-02
-4.70468923e-02
7.06320703e-02
7.05338046e-02
1.51510343e-01
1.24859475e-01
6.55477643e-02
7.73527548e-02
1.61036253e-01
-5.18816113e-02
3.96665139e-03
9.56534445e-02
-7.56449923e-02
-1.16744272e-01
9.68657658e-02
-7.02355057e-02
-1.02013774e-01
1.57156214e-01
-5.10434993e-02
-1.21247254e-01
-1.58997461e-01
1.35636970e-01
9.05362368e-02
-1.84246630e-03
-4.37555090e-02
-7.03254268e-02
1.17310338e-01
-8.37934241e-02
-1.69936679e-02
1.44518353e-02
7.72587731e-02
1.03911251e-01
-1.44969463e-01
-6.24115840e-02
-8.63945633e-02
-1.16998345e-01
9.61838290e-02
-3.83428745e-02
-4.22573425e-02
1.60689220e-01
-2.51643676e-02
1.06373094e-01
-5.64544313e-02
4.92267758e-02
-4.08998914e-02
-8.79532322e-02
-7.48795494e-02
-4.54809777e-02
-7.93133453e-02
-5.31865768e-02
-4.67301421e-02
4.36495356e-02
7.53589869e-02
1.46606773e-01
-1.17697686e-01
-6.60233870e-02
-1.12475850e-01
-8.14400986e-02
4.77571972e-02
-1.13245361e-01
1.21462956e-01
-2.16450598e-02
-2.21394114e-02
5.48173040e-02
3.62944305e-02
-5.19426912e-02
4.19002809e-02
-1.36271805e-01
-4.33065705e-02
6.06548749e-02
-5.01673389e-03
1.33775575e-02
-1.26441658e-01
3.91801447e-03
-2.12682281e-02
1.19593501e-01
1.70626910e-03
-1.59655120e-02
-8.97119194e-03
-5.03090397e-02
-2.58331876e-02
3.22991349e-02
-1.67670250e-02
9.74242017e-02
-9.47693177e-03
-1.05491333e-01
-7.71030188e-02
-3.75870317e-02
-1.11648776e-01
-5.90754300e-02
5.75056151e-02
7.34166577e-02
2.74247136e-02
-2.13556774e-02
5.04282154e-02
9.02735889e-02
-4.45223674e-02
6.73896968e-02
-2.66116913e-02
1.05271405e-02
-1.02577187e-01
2.98715979e-02
-2.56733298e-02
-2.40436252e-02
-6.74358159e-02
9.99252647e-02
5.09274565e-03
2.55178828e-02
4.90359887e-02
6.59068599e-02
7.08720237e-02
2.07426175e-02
-3.67512107e-02
1.11403484e-02
-1.25283450e-01
-1.74984373e-02
-8.41767266e-02
8.12898502e-02
-7.50830099e-02
-2.73290221e-02
6.67148903e-02
4.08901237e-02
-1.78640783e-02
2.71051358e-02
-1.00335211e-01
5.36651760e-02
-9.39698964e-02
-1.42652497e-01
-7.84550980e-02
-1.17633656e-01
-1.00163266e-01
-8.62025544e-02
-4.38321605e-02
5.09761460e-02
3.83506492e-02
7.41750821e-02
2.05580518e-02
-1.03889771e-01
5.94454110e-02
-3.45374793e-02
1.48566337e-02
-7.88836554e-02
-6.64868429e-02
-4.47251908e-02
4.90991622e-02
-2.43017226e-02
-6.22777566e-02
-1.30210780e-02
-1.42337121e-02
4.72208597e-02
1.00704230e-01
3.80162075e-02
4.60123010e-02
1.01558506e-01
6.52036667e-02
6.67580292e-02
4.67861956e-03
-3.59567106e-02
-5.83634600e-02
4.39626258e-03
-1.08252905e-01
2.52087191e-02
-2.99717486e-02
-1.11046433e-02
-8.87291804e-02
3.37962620e-02
-9.85020250e-02
3.47765312e-02
-3.72167379e-02
9.60675180e-02
-9.46990624e-02
-7.60117844e-02
6.50988892e-02
8.96018520e-02
-5.55147976e-02
-1.27357110e-01
-1.35142818e-01
-1.18847989e-01
1.85880344e-02
-1.24602817e-01
-2.59096846e-02
-1.41384332e-02
8.10070429e-03
-9.60461274e-02
-4.45933342e-02
-7.26828352e-02
-9.97571796e-02
6.18315265e-02
-1.11692019e-01
-5.40659688e-02
-7.38334805e-02
-3.58109159e-04
3.07168160e-02
1.32677913e-01
-4.02142704e-02
-1.14812620e-01
-2.76403092e-02
1.10297881e-01
-5.15246987e-02
-1.13627180e-01
1.86074585e-01
1.91878490e-02
-1.43168122e-01
-7.01796860e-02
1.63274378e-01
-1.54808313e-01
1.86924845e-01
1.78680360e-01
-7.32610598e-02
2.21294854e-02
8.11266005e-02
2.55637965e-03
-4.43898402e-02
7.11886808e-02
-2.54996661e-02
-6.26111776e-02
5.37605360e-02
4.01748829e-02
1.39491752e-01
-7.26500573e-03
1.06034294e-01
5.11652641e-02
-1.34645849e-01
2.56464370e-02
-1.70942560e-01
-1.32347494e-02
-1.75645947e-01
-1.55181140e-01
1.60452910e-02
-6.05610572e-02
-1.06027022e-01
7.15035722e-02
2.39773858e-02
-1.06612436e-01
2.04440847e-01
1.31110027e-01
3.38334665e-02
-1.32319322e-02
1.08840257e-01
5.41445427e-02
-1.27370641e-01
1.42438278e-01
1.22056771e-02
-1.41457886e-01
1.56135753e-01
1.33954048e-01
2.06672642e-02
-1.41542032e-02
-1.46241440e-02
-5.92252389e-02
-7.64284804e-02
-2.14005560e-02
1.40807107e-01
1.06338896e-01
-4.06695381e-02
-2.68001854e-02
3.35483276e-03
4.49274704e-02
-1.09869670e-02
2.06579249e-02
-1.33647040e-01
-1.03217401e-01
-9.04799327e-02
-5.04897423e-02
-1.04445592e-01
3.01598236e-02
-2.93341968e-02
2.81571113e-02
2.32505072e-02
-1.08318649e-01
-6.78284168e-02
-7.25061959e-03
9.62195843e-02
-4.35819291e-03
6.37077121e-03
-5.69713116e-02
-5.54239824e-02
8.80761072e-02
8.19484815e-02
-9.69279706e-02
-1.53402158e-04
2.42162663e-02
1.04355104e-01
5.03802188e-02
-1.22573487e-01
2.01998767e-03
9.43949968e-02
-2.35972423e-02
8.02954063e-02
-5.99396676e-02
-8.33290964e-02
3.10009252e-02
3.21975239e-02
2.88178846e-02
4.35255319e-02
-8.87430385e-02
9.17354897e-02
-7.13335797e-02
-6.79535717e-02
-4.08812687e-02
2.51371041e-02
1.13918133e-01
6.68066069e-02
-9.86410901e-02
-1.29513890e-01
4.69420254e-02
8.80463272e-02
9.55760702e-02
3.33698466e-02
2.66868938e-02
8.24638531e-02
5.37985712e-02
9.85715166e-02
-1.33718792e-02
-2.16209628e-02
2.14661472e-02
1.14582472e-01
-2.98610274e-02
8.80468562e-02
1.26494005e-01
5.81742823e-03
-1.25422925e-01
2.06155092e-01
5.24089821e-02
7.74854347e-02
-1.43185705e-01
-1.35596162e-02
2.46545151e-02
-8.11047330e-02
4.79901247e-02
1.96383134e-01
1.09427003e-02
-1.98005028e-02
1.18319191e-01
-1.48011550e-01
-2.16166079e-02
1.53393224e-01
-1.33902684e-01
1.39429301e-01
9.94120091e-02
-2.22554263e-02
-3.81041272e-03
-7.02596232e-02
1.81756780e-01
1.47432044e-01
7.85175189e-02
-5.15322089e-02
3.75050530e-02
-1.09511741e-01
1.03491195e-01
7.67302066e-02
-1.03212245e-01
2.04660505e-01
-3.81801054e-02
1.58954442e-01
1.86793506e-01
-1.01087049e-01
1.25984102e-01
2.12031952e-03
-4.40809913e-02
1.73520103e-01
-2.39016931e-03
3.47050913e-02
-1.02821067e-01
1.64774045e-01
-4.16223034e-02
-6.20984472e-03
5.83114587e-02
1.60957366e-01
3.68868522e-02
-3.10553834e-02
4.00043558e-03
-1.57899708e-01
-1.44693941e-01
7.94128850e-02
-6.17442802e-02
1.77258328e-02
9.37334448e-02
6.84072450e-02
1.02269463e-02
-4.56041284e-02
-7.02273399e-02
5.56799509e-02
1.55068198e-02
8.07418115e-03
1.30901113e-02
9.23653096e-02
3.93545851e-02
1.33134723e-01
-9.85876694e-02
1.79647148e-01
7.87714720e-02
-1.20946586e-01
5.60657121e-02
1.61377862e-01
1.47081604e-02
-1.54826164e-01
1.50835812e-01
2.79861428e-02
-3.71381976e-02
1.11696243e-01
-7.79830888e-02
1.77690223e-01
3.65647562e-02
1.72448575e-01
-1.55890688e-01
-2.22358592e-02
4.81180549e-02
2.06181750e-01
6.21163007e-03
8.44516903e-02
6.13747276e-02
-1.16374135e-01
-5.23210950e-02
5.85294068e-02
-7.72653744e-02
1.25060678e-01
-6.80947602e-02
7.75774121e-02
3.46536525e-02
-1.47425930e-03
-8.23507309e-02
-1.29275322e-02
9.58651379e-02
1.26889363e-01
7.81667382e-02
-4.79674675e-02
-5.86505122e-02
1.99191242e-01
1.84128489e-02
-6.22132607e-02
-8.89220461e-02
2.01613173e-01
-1.14990480e-01
7.64828622e-02
9.50643942e-02
-6.39758706e-02
4.95340452e-02
1.83208033e-01
-3.19597274e-02
8.75852853e-02
-2.00320277e-02
-2.32593925e-03
-3.97577360e-02
1.02779917e-01
-6.27318472e-02
6.90593719e-02
-9.58580971e-02
5.77093810e-02
7.25166425e-02
-8.91213585e-03
4.99866270e-02
-6.83706328e-02
5.98000828e-03
5.58847450e-02
7.77596235e-02
-6.00533374e-02
6.45269230e-02
-2.04993915e-02
-8.90883803e-03
5.40856533e-02
1.06489390e-01
-4.07946445e-02
-5.35157649e-03
-7.29416311e-02
-2.50694528e-02
-7.28882253e-02
6.87163770e-02
3.18996055e-04
-2.80500669e-03
8.94849226e-02
-1.25384822e-01
7.68718272e-02
-7.34790787e-02
-1.18407659e-01
4.43710200e-02
-5.66750094e-02
-4.96817147e-03
-1.36498392e-01
-1.09407157e-01
6.99544922e-02
-1.21821426e-01
-7.27390870e-02
-2.02650465e-02
-5.67195304e-02
-2.33269185e-02
2.03616768e-02
4.75845262e-02
-5.56659773e-02
7.94467051e-03
-1.15112998e-01
-8.96101445e-03
4.97944131e-02
3.25788036e-02
5.71417809e-03
-1.47766303e-02
4.32951152e-02
-6.52167201e-02
-1.43223122e-01
3.49439234e-02
-6.84965178e-02
-1.00778207e-01
1.13569386e-02
-1.68455429e-02
-4.87956684e-03
-2.11411323e-02
2.48784130e-03
-1.26068011e-01
-1.98039655e-02
7.91699961e-02
8.14759806e-02
3.95090245e-02
9.58957896e-02
9.71876234e-02
-4.34791669e-02
8.34655911e-02
9.32947993e-02
6.40929639e-02
-3.84959276e-04
-9.10121202e-02
-2.26575211e-02
2.20642351e-02
1.10053502e-01
-1.32260993e-01
2.23808680e-02
4.78810333e-02
7.37971738e-02
-1.40469775e-01
-3.60717922e-02
-2.97476426e-02
-6.17610514e-02
-9.54642072e-02
8.30857977e-02
3.37676220e-02
8.04912224e-02
-1.06070563e-01
-1.04226053e-01
8.50196257e-02
5.27374074e-02
7.00672418e-02
-1.46588571e-02
-1.11812860e-01
-1.52173906e-03
4.71740775e-02
8.59977007e-02
-2.53330152e-02
-5.18540889e-02
-7.41197914e-02
1.08163841e-01
-1.02548473e-01
7.38224853e-03
1.99698471e-02
-6.43807724e-02
3.84267978e-02
-1.39566138e-01
-7.93474987e-02
-5.92474453e-02
5.92674091e-02
3.33881564e-02
1.03342816e-01
-8.91543031e-02
6.07254505e-02
4.94199544e-02
-2.10656840e-02
-5.20599484e-02
-7.34695941e-02
7.32387006e-02
-9.07744318e-02
-9.09003168e-02
-9.47373733e-02
-3.88525613e-03
-1.27154619e-01
5.04336543e-02
-8.98048356e-02
-1.21602640e-01
7.93308318e-02
1.39684975e-02
-4.07056510e-02
-8.68746638e-03
9.65014100e-04
9.37146395e-02
8.53478909e-04
5.04145920e-02
-8.82971138e-02
-8.43819827e-02
-9.84981507e-02
5.57264239e-02
-4.63237464e-02
5.99350929e-02
-4.51081842e-02
7.82396197e-02
-8.89545679e-03
1.75133944e-02
-6.41551167e-02
1.04593590e-01
4.49689180e-02
6.88790232e-02
-5.60752153e-02
9.22999531e-02
-8.08504671e-02
-6.51394129e-02
-1.05954215e-01
8.05501640e-02
1.14655659e-01
-3.96368206e-02
1.70421898e-02
9.98966992e-02
6.67905807e-03
-1.93406194e-02
4.92236316e-02
-1.09677464e-01
6.37840182e-02
-7.82888532e-02
1.15827650e-01
4.48899418e-02
-1.13048241e-01
7.15840310e-02
-3.37546766e-02
-8.48232806e-02
6.83505386e-02
4.23967391e-02
-1.10586688e-01
5.44637144e-02
-2.27573514e-03
-5.78758270e-02
1.18993074e-01
9.31688249e-02
-5.65026999e-02
-1.08556226e-01
-8.00704211e-02
8.78051221e-02
3.43648344e-02
5.59859574e-02
-9.74375606e-02
7.69610256e-02
4.62235659e-02
1.15395024e-01
5.20358086e-02
7.57808611e-02
1.08775251e-01
-5.19136675e-02
1.13518111e-01
-4.59267870e-02
-2.08856929e-02
-1.85224731e-02
-1.42034341e-03
8.98212194e-02
7.94529822e-03
-6.69225082e-02
-6.61706701e-02
-1.15957364e-01
-1.27964497e-01
-4.43495959e-02
-1.21035688e-01
-7.95722008e-02
-6.51273951e-02
-5.14600314e-02
-8.30580741e-02
-6.36686906e-02
-1.08118385e-01
7.34855002e-03
4.93561365e-02
5.38744107e-02
1.06663190e-01
-5.36001585e-02
3.73422094e-02
7.91380480e-02
8.86754766e-02
1.18480124e-01
-3.43047306e-02
-2.34160051e-02
-4.82990481e-02
-6.05982840e-02
-9.65621173e-02
-1.06972754e-01
-1.28667027e-01
-1.11750502e-03
-8.55403095e-02
3.64614911e-02
2.40289494e-02
-1.01507999e-01
1.74599644e-02
7.35226721e-02
8.71158242e-02
4.77136821e-02
8.97671953e-02
-7.03620687e-02
-5.13572060e-02
4.88068685e-02
3.50405946e-02
-5.77845722e-02
-6.04727417e-02
-9.19145718e-03
2.74389647e-02
-2.46464219e-02
-1.09864362e-01
-3.92468274e-02
-8.47869217e-02
-8.82267728e-02
-8.27627778e-02
1.06201328e-01
3.69975045e-02
-1.00063860e-01
1.05063304e-01
4.77544665e-02
7.02710524e-02
-9.27082375e-02
-1.16887763e-01
7.01236576e-02
-1.30771473e-01
3.15885767e-02
-9.65008214e-02
5.15835807e-02
-6.93771243e-02
-6.56612664e-02
-5.18001765e-02
-5.68938479e-02
-1.16174653e-01
-3.69654149e-02
-1.64519139e-02
-4.07776758e-02
1.07939601e-01
-1.09225132e-01
1.07843086e-01
9.65581387e-02
4.74041365e-02
9.14486591e-03
8.23936239e-02
-1.23234957e-01
-2.19370946e-02
6.16907782e-04
-9.16856527e-02
-4.65151966e-02
4.58608158e-02
-5.07945530e-02
1.04976222e-01
-7.39782825e-02
2.05057003e-02
-1.22453541e-01
-7.93143436e-02
-1.14687711e-01
9.76945553e-03
5.66727705e-02
-4.56582569e-02
5.37693240e-02
-1.15975052e-01
-1.24762751e-01
-1.07381633e-02
2.17123907e-02
-1.29010037e-01
1.24793105e-01
8.08167532e-02
4.25161049e-02
-1.35008069e-02
-7.37308264e-02
3.20229493e-02
-1.18161067e-01
3.33492868e-02
-1.09514236e-01
-4.29034373e-03
-7.70583451e-02
-8.01308975e-02
4.87819500e-02
-7.93627799e-02
-8.85285735e-02
-7.28993863e-02
-3.86578254e-02
-7.67000541e-02
1.26733463e-02
8.83207023e-02
4.48696539e-02
-6.66771755e-02
-9.88566279e-02
8.94809142e-02
-7.88369477e-02
-9.90167633e-02
-1.20790705e-01
-2.40111053e-02
-9.58795175e-02
-9.58556831e-02
5.10088354e-02
-8.08969438e-02
-6.37845397e-02
5.58345951e-02
1.79288071e-02
6.41860515e-02
-1.06288157e-01
-2.09862683e-02
-8.29509869e-02
-3.67160775e-02
9.82082412e-02
1.03430130e-01
-9.89787281e-02
-1.15127601e-02
-4.32715714e-02
-1.27528235e-01
2.81183645e-02
6.70429021e-02
-1.34312794e-01
-6.66668043e-02
-1.22535989e-01
-5.78328855e-02
-1.09455965e-01
1.60020255e-02
2.05057170e-02
-1.97241157e-02
4.21505235e-02
-1.48410629e-02
9.28942859e-02
5.85779373e-04
7.00718835e-02
6.77925423e-02
-1.90073345e-02
4.79419939e-02
2.43768543e-02
-4.55790721e-02
4.02547568e-02
5.06374054e-02
-8.37663114e-02
-8.40673745e-02
-1.07767411e-01
-1.02372393e-01
-9.08611491e-02
-1.07981004e-01
5.19552641e-02
-1.13586605e-01
-1.01748884e-01
-9.82661247e-02
-3.73451002e-02
1.01095974e-01
1.07659521e-02
-1.84020191e-01
-4.07236554e-02
4.42534834e-02
-8.20471905e-03
-7.13605061e-02
1.76496103e-01
9.93390754e-02
3.15834507e-02
-1.47736058e-01
4.41326834e-02
-4.40829322e-02
5.46541065e-02
-2.48903576e-02
1.06710158e-01
-1.94350079e-01
2.12634578e-02
3.50643955e-02
-1.69593453e-01
8.04880336e-02
1.59059628e-03
4.12996672e-02
-1.02526331e-02
2.85953283e-02
1.24649927e-01
-1.59823462e-01
-9.49485227e-02
7.86577612e-02
1.71506569e-01
2.90857460e-02
1.49610028e-01
-6.48593754e-02
7.54701765e-03
6.06887825e-02
-1.65245175e-01
-2.79742442e-02
-7.44974613e-02
2.66530197e-02
9.38003734e-02
-5.62777780e-02
-3.39238644e-02
-4.79374873e-03
4.29376587e-02
-9.56973881e-02
9.31992009e-02
-2.24170648e-02
-3.86983482e-03
-6.60411641e-02
-2.41372660e-02
-2.76205633e-02
1.89669225e-02
3.61744575e-02
1.68227613e-01
-1.36475697e-01
1.90786704e-01
1.07694194e-01
-1.41615421e-01
2.33008508e-02
5.36396429e-02
-8.39051679e-02
9.50863138e-02
-1.00394852e-01
1.07621208e-01
-1.76322162e-02
-7.94586539e-02
3.31289172e-02
5.29875159e-02
-4.54465449e-02
8.97183269e-02
-5.95610738e-02
-4.07871157e-02
-5.07424772e-02
-4.94059473e-02
-1.04639873e-01
-6.51289225e-02
-5.11637628e-02
-1.17822498e-01
-9.42359716e-02
6.79926872e-02
2.85497606e-02
5.02208620e-02
1.06783956e-02
7.31635839e-02
7.42377341e-03
3.14869732e-02
-4.86596078e-02
-1.70493871e-02
7.37951249e-02
-9.36297476e-02
3.69649231e-02
-1.51300281e-02
-1.11354515e-01
-8.84287208e-02
6.63512498e-02
-3.03364843e-02
1.09600097e-01
-9.71520394e-02
-3.50963920e-02
-1.08936608e-01
-2.39943415e-02
-8.05243999e-02
1.97336376e-02
-6.13168031e-02
1.08676627e-01
-5.55116683e-02
-8.04266036e-02
-2.07311064e-02
9.88704413e-02
1.06623113e-01
-1.13491893e-01
-9.94456857e-02
-3.31081301e-02
-2.71082371e-02
-7.78700858e-02
-2.08525509e-02
7.77152926e-02
1.67138427e-02
6.11069798e-02
2.95422971e-02
-5.23755401e-02
7.91451335e-03
4.27062958e-02
5.96321374e-02
1.13063201e-01
-4.72863764e-02
-2.77810693e-02
1.13727167e-01
6.72107488e-02
-8.88604522e-02
-1.66090220e-01
-3.61489356e-02
9.13363174e-02
-1.35037795e-01
-1.42692953e-01
7.26133212e-02
4.64694314e-02
1.66049115e-02
-7.20870048e-02
1.63348749e-01
-5.11437878e-02
-1.10487826e-01
-1.94264185e-02
1.26560003e-01
-1.64132088e-01
1.60756677e-01
1.09574467e-01
-1.75266668e-01
5.78631181e-03
-1.33749112e-01
-2.44996175e-02
-5.72402105e-02
1.04748130e-01
1.84165120e-01
2.68541891e-02
-6.16857782e-02
-1.09873675e-01
6.76518083e-02
-1.78910214e-02
1.57684028e-01
-9.42413509e-02
-3.77043858e-02
3.38432156e-02
-1.22621641e-01
-3.58626433e-02
-6.37364574e-03
-6.66591674e-02
7.26345628e-02
-1.01176649e-01
-3.82826626e-02
-3.36863697e-02
4.98582199e-02
-7.95780867e-03
1.77256539e-01
-9.07769576e-02
-2.72329189e-02
-8.81923437e-02
-8.48436430e-02
6.61671087e-02
-1.82869494e-01
2.09958456e-03
9.86434445e-02
-1.25325441e-01
-4.74747419e-02
-3.60059440e-02
-4.78901789e-02
1.44720286e-01
-1.03259414e-01
5.29275797e-02
-8.97507295e-02
7.44005814e-02
1.33975029e-01
8.39967355e-02
6.74644485e-02
1.53018653e-01
1.68357175e-02
-8.52270871e-02
6.19049408e-02
9.80850607e-02
6.83275759e-02
-1.75715402e-01
8.81452337e-02
-1.57880243e-02
-4.52882797e-02
8.47393349e-02
1.06550314e-01
1.80203449e-02
1.85084715e-02
5.52301332e-02
-1.50990069e-01
-1.62122279e-01
-1.76536925e-02
-1.20320112e-01
1.58775330e-01
2.11351305e-01
2.62287501e-02
-9.46274102e-02
-1.59319937e-01
9.67780054e-02
1.03022859e-01
6.84698224e-02
4.23741601e-02
-1.02674015e-01
5.62133268e-03
2.93848645e-02
8.83710831e-02
-2.42282785e-02
1.08568333e-01
9.82541442e-02
1.58972040e-01
1.58828110e-01
-8.00801367e-02
-1.06122397e-01
3.05903517e-02
4.92684282e-02
1.43361047e-01
6.27828985e-02
5.62916659e-02
7.97674898e-03
1.84293509e-01
5.91928400e-02
7.03869089e-02
1.49629101e-01
1.81141794e-01
-1.07632071e-01
-4.96586598e-02
2.14372709e-01
-9.82011706e-02
-1.72884628e-01
1.53190210e-01
-4.78197858e-02
1.01825446e-01
1.66909337e-01
1.24924034e-02
8.74905065e-02
-1.43540127e-03
1.31342215e-02
1.12231024e-01
-8.92649442e-02
-8.05009380e-02
-1.00451512e-02
-1.20272636e-01
-1.52559012e-01
1.17444083e-01
1.80503920e-01
-7.81597570e-02
-1.90687999e-01
1.88421726e-01
-3.36875319e-02
-5.63195199e-02
5.94216865e-03
1.21574275e-01
-8.37079734e-02
2.41621933e-03
-3.26778144e-02
-1.34944379e-01
1.67675987e-01
8.51135049e-03
-5.39806820e-02
-5.56824207e-02
1.19367830e-01
1.54180834e-02
-1.68116599e-01
-7.14955330e-02
2.08538845e-02
3.50137688e-02
-3.47888879e-02
1.48118436e-01
1.10304374e-02
-1.42315626e-01
1.18992738e-01
4.20266390e-02
-4.83280644e-02
-1.54559672e-01
-6.88674822e-02
1.68000273e-02
1.20724574e-01
1.09225206e-01
1.55116484e-01
-8.42491090e-02
1.09243944e-01
9.04779136e-02
1.18880384e-02
-9.29596648e-02
-2.06611548e-02
2.71619614e-02
8.84334594e-02
4.13873196e-02
6.05730005e-02
1.61393493e-01
5.31404279e-03
7.39979967e-02
3.31769548e-02
-8.37165341e-02
3.43773700e-02
-2.84359045e-02
-6.99677616e-02
4.61651990e-03
8.12285691e-02
9.14812386e-02
-4.30405475e-02
7.75134414e-02
4.07978147e-02
5.44804335e-03
-6.11346364e-02
-4.97847348e-02
7.19964504e-04
3.33862007e-02
-1.24053195e-01
-4.64393646e-02
2.65399665e-02
6.92518055e-02
-6.99317455e-02
-5.83906621e-02
-3.21350992e-03
6.79674447e-02
9.26754177e-02
-1.22168779e-01
1.18609980e-01
1.32649988e-02
-1.18570536e-01
-3.14336270e-02
3.33945006e-02
-4.54210788e-02
-1.20736301e-01
-8.81158412e-02
6.78698272e-02
-3.56412828e-02
-7.37225264e-02
4.02622372e-02
-2.66939402e-04
5.67591041e-02
9.51150507e-02
-8.87246579e-02
6.68341368e-02
1.21883139e-01
-2.05710381e-02
2.61240005e-02
-1.24447033e-01
1.42358840e-02
2.64847279e-03
4.41142023e-02
7.59230256e-02
-1.13865912e-01
9.67641175e-03
-4.65863794e-02
-1.21498674e-01
-1.01748332e-01
8.58310461e-02
6.57932907e-02
1.03203863e-01
1.06366038e-01
2.12282836e-02
-4.85205799e-02
8.29894692e-02
1.04751289e-01
1.19945109e-02
5.75887114e-02
-7.84461200e-03
8.90574157e-02
-2.62674093e-02
3.02321613e-02
1.05528072e-01
-1.13336533e-01
5.13397157e-03
-4.50024195e-02
-4.11153072e-03
8.96637514e-02
-9.56945568e-02
1.11809075e-01
1.15568787e-01
-2.73766443e-02
-7.12825134e-02
9.24029499e-02
6.94568753e-02
-1.34488091e-01
1.36806339e-01
1.14352226e-01
-1.41146658e-02
-7.55009726e-02
7.30064586e-02
8.12603161e-03
4.00158428e-02
7.34403655e-02
-4.85882536e-02
-3.54558863e-02
8.04649964e-02
1.08215902e-02
-1.57500803e-01
2.63628010e-02
1.83898926e-01
1.34145543e-01
7.08800554e-02
-8.47314745e-02
-1.30749628e-01
-2.32132599e-02
-9.93966311e-02
1.92217186e-01
-4.29765247e-02
4.77434546e-02
1.02400882e-02
2.03688368e-01
1.00659497e-01
-1.06626458e-01
-1.20912634e-01
-2.58045793e-02
-2.78246813e-02
1.42988026e-01
7.39995316e-02
1.87619235e-02
-3.37648056e-02
7.72421360e-02
1.79445490e-01
6.32552104e-03
9.65705290e-02
-2.24679895e-02
-1.66716054e-01
-2.24732887e-03
1.81493893e-01
-3.31292069e-03
-1.88136116e-01
5.63823730e-02
-1.70602113e-01
1.21676482e-01
1.55215874e-01
2.95532960e-02
-6.99692070e-02
-7.79108331e-02
-9.82713327e-02
-9.42046121e-02
-8.79446566e-02
2.46796235e-02
-4.96254340e-02
6.50617629e-02
-7.66881183e-02
6.50162548e-02
-1.20495565e-01
-7.53215179e-02
-4.13004309e-03
8.26276243e-02
-9.43266414e-03
-1.25775099e-01
9.80700701e-02
-4.11377698e-02
1.83305442e-02
-9.34543982e-02
-1.04937673e-01
-9.60862041e-02
-9.72074177e-03
6.05895743e-02
3.99211645e-02
-6.85368925e-02
6.80508614e-02
-3.44902836e-02
-1.20589554e-01
1.16061650e-01
-1.95331946e-02
-7.67163560e-02
-7.75820091e-02
9.65735763e-02
-5.37206754e-02
-6.68666959e-02
7.44368182e-03
-8.57124552e-02
2.15666816e-02
7.97645003e-02
1.07894562e-01
-3.10206600e-02
-1.11160293e-01
-3.00926268e-02
-1.03863731e-01
1.12753265e-01
-1.23350866e-01
9.75607708e-02
-1.32765025e-01
-1.14244871e-01
7.30167106e-02
-1.23725593e-01
1.11925490e-01
-5.67189157e-02
-1.27188206e-01
8.61672759e-02
4.18274887e-02
5.24925180e-02
-9.61106494e-02
1.04899481e-01
-1.28051862e-01
-1.66683346e-02
-1.14525348e-01
6.42986447e-02
2.25596353e-02
-1.30964518e-01
5.44002913e-02
9.96849779e-03
7.40846768e-02
-4.06292602e-02
9.58646312e-02
1.35172866e-02
-9.51599106e-02
2.89342310e-02
8.91065225e-03
3.63552608e-02
-6.99321032e-02
4.03440669e-02
6.68978393e-02
-1.02618553e-01
2.52237655e-02
2.14227196e-02
-1.03573762e-01
-5.18095456e-02
-3.38397063e-02
-1.06683828e-01
-4.60901558e-02
-4.75712605e-02
-4.57235612e-02
4.38276753e-02
-8.98309499e-02
-9.10455827e-03
1.64553747e-02
-8.01488385e-03
-7.76586402e-03
-9.84779671e-02
1.74332410e-02
4.03428040e-02
2.73001567e-02
5.65873571e-02
-6.22913688e-02
-1.97165031e-02
1.97782204e-03
6.26990106e-03
7.71336854e-02
-1.12391457e-01
8.18061158e-02
1.46699762e-02
-7.69042075e-02
-7.96870068e-02
-8.88099447e-02
-7.16949850e-02
1.14754677e-01
4.85664466e-03
-5.38133159e-02
4.02037613e-02
-4.69190404e-02
-1.10908881e-01
-5.00010885e-02
-7.54182180e-03
7.19429627e-02
-1.24081582e-01
-2.49812901e-02
8.13331529e-02
-1.26951680e-01
8.34112912e-02
7.99463317e-02
-3.63193713e-02
-7.59182265e-03
-7.06027821e-02
-4.75030877e-02
1.10051464e-02
-1.72697201e-01
5.31498343e-02
-8.25874060e-02
-1.91872939e-01
6.04527034e-02
-3.89202125e-03
1.78651169e-01
-7.02031031e-02
-1.53504431e-01
-1.41216274e-02
-1.01535488e-03
-6.59851953e-02
-8.47800523e-02
1.82710499e-01
-2.25454420e-02
2.38655298e-03
2.74590645e-02
-4.18990403e-02
9.69146118e-02
-3.06447744e-02
-1.51626050e-01
-1.05257839e-01
7.79661909e-02
1.92759350e-01
-1.61186829e-01
-2.98925396e-03
1.10868961e-01
1.32013991e-01
-1.03772515e-02
1.43630877e-01
-3.69779281e-02
-1.09376937e-01
6.23920038e-02
1.20487865e-02
4.20459136e-02
-4.99893762e-02
-2.16852799e-02
2.77699828e-02
6.28113970e-02
6.57055378e-02
1.23486347e-01
-4.98499125e-02
1.38869770e-02
1.88977763e-01
-3.29818390e-02
2.18515880e-02
-1.60860315e-01
3.34148817e-02
-8.54924992e-02
-9.77993384e-02
1.12287126e-01
1.65784791e-01
2.90415715e-02
1.77386135e-01
1.42933294e-01
-7.59449750e-02
-3.87079641e-02
-1.56869754e-01
-1.22422569e-01
-2.70125493e-02
1.16044544e-02
-1.22499904e-02
-4.15131114e-02
-2.61998530e-02
1.68614872e-02
-2.12610587e-02
-5.05750217e-02
6.85395524e-02
-7.66881183e-02
-1.25270918e-01
-1.34731889e-01
8.05072561e-02
1.65319405e-02
-2.14021727e-02
1.00325145e-01
-7.30011761e-02
-5.99260032e-02
-9.63015705e-02
-8.58468786e-02
3.85614783e-02
-7.03216158e-03
-5.84269799e-02
6.48681372e-02
-2.19691731e-02
3.08236219e-02
7.29724094e-02
-2.10491102e-02
2.14957613e-02
-8.12841430e-02
-6.14906312e-04
7.96354860e-02
-3.35856946e-03
4.56744852e-03
1.97816230e-02
-9.28434134e-02
-6.65256158e-02
5.91400713e-02
1.05051801e-01
-1.20761327e-01
2.35541668e-02
-1.58133823e-02
9.47886929e-02
1.21984139e-01
4.65527922e-02
-7.70568475e-02
-8.25474113e-02
8.38233903e-03
8.74019414e-02
-3.44902091e-02
7.12669864e-02
1.11979842e-01
-8.36379081e-02
-8.78682137e-02
5.68359345e-02
6.08496815e-02
-9.03327614e-02
-2.48701964e-02
6.24183193e-02
-5.87584674e-02
-1.05760515e-01
7.45022716e-03
-2.97855176e-02
-1.00385837e-01
-1.15478307e-01
-1.09949887e-01
-1.36122122e-01
-7.39637464e-02
6.54636174e-02
1.15844876e-01
3.42043638e-02
-5.01523167e-02
-4.12945747e-02
-7.73678422e-02
9.22797173e-02
8.32705200e-03
8.97297412e-02
-3.92838567e-02
-2.44368166e-02
-5.62970340e-03
-1.30663961e-02
-1.96883976e-02
3.42826545e-02
3.11455131e-02
1.10269547e-01
-1.02988347e-01
5.44188619e-02
6.24601543e-02
1.10880882e-01
-9.62996483e-02
-1.16090223e-01
-1.04715079e-01
-1.14137605e-01
3.36238593e-02
-1.08320832e-01
-4.18327749e-03
9.29958820e-02
-9.26180929e-02
-1.05044290e-01
-5.32263070e-02
-1.34754479e-02
-5.16650975e-02
8.02826881e-03
5.74893951e-02
6.52162582e-02
4.00026739e-02
4.16870266e-02
-4.35633957e-03
-1.02121383e-02
-7.65676349e-02
4.34911996e-02
-5.73488325e-02
-8.96084756e-02
7.21080452e-02
4.44421023e-02
-6.67842776e-02
-3.27693969e-02
4.66666222e-02
-1.16795793e-01
5.10049760e-02
1.37996376e-02
-5.60654849e-02
-7.00522214e-02
-1.01777598e-01
-1.10680267e-01
-4.16656435e-02
1.83880627e-02
-6.65174425e-03
8.38211477e-02
-1.06453821e-01
1.01532355e-01
7.15853125e-02
-4.64973040e-02
1.30759165e-01
-5.53791551e-03
4.27110530e-02
2.10006639e-01
1.87561914e-01
1.06497511e-01
-1.59279108e-01
1.45405665e-01
8.88515711e-02
-1.00820571e-01
1.08942591e-01
3.75310406e-02
-6.10134043e-02
-1.75961647e-02
2.05833644e-01
-8.25699046e-02
-7.46739730e-02
-1.52862631e-02
-1.31620020e-01
3.73253115e-02
1.86587408e-01
1.83755010e-01
-1.10501364e-01
-9.50285643e-02
9.49642137e-02
1.50529683e-01
-7.05134571e-02
-1.00231521e-01
-9.10480134e-03
8.27553570e-02
-8.58345926e-02
1.05965078e-01
-9.64646116e-02
1.56818688e-01
-5.51606454e-02
1.54865056e-01
1.16646729e-01
-1.15874279e-02
-5.22989547e-04
3.53606753e-02
-8.96424651e-02
8.51267129e-02
9.70681310e-02
-1.66024297e-01
5.04946634e-02
1.46400645e-01
1.72837839e-01
7.16213733e-02
-7.75187218e-05
1.38020635e-01
-1.36359200e-01
-3.33860666e-02
1.22995377e-01
-3.86871211e-02
-8.86994228e-02
8.20131525e-02
2.51372848e-02
-1.12461671e-02
1.57798201e-01
-6.90310001e-02
9.99090672e-02
-6.20301217e-02
-8.79774243e-02
-1.38270378e-01
-3.43788192e-02
-2.41403747e-02
5.91655970e-02
9.68289375e-02
7.25554451e-02
7.67179132e-02
5.27080633e-02
-9.31470096e-02
8.34085196e-02
5.03570475e-02
-3.78384255e-03
-3.68369408e-02
1.14132226e-01
-1.02025688e-01
6.93580732e-02
-9.23551768e-02
2.26591062e-02
-5.23636453e-02
-1.40099540e-01
9.81073454e-03
7.28919804e-02
-2.89868098e-02
-6.12511672e-02
1.01243347e-01
-1.09575063e-01
-2.31237244e-02
-4.94891331e-02
-1.02665968e-01
-1.24783680e-01
-4.54415269e-02
-1.10570788e-01
-7.19583407e-02
5.01601445e-03
2.69928239e-02
-1.67095400e-02
1.06629869e-02
2.09199544e-02
6.09426945e-02
1.84859093e-02
1.12141922e-01
-7.85540640e-02
5.49486093e-02
6.67102039e-02
-1.15544371e-01
5.40695041e-02
-6.16140440e-02
9.24087837e-02
2.79631130e-02
-2.16863081e-02
1.00700758e-01
-1.19956218e-01
-1.37317613e-01
-7.17037395e-02
-1.04492985e-01
8.91473293e-02
-2.51892265e-02
4.16167341e-02
-8.65366682e-02
7.43307546e-02
3.55332755e-02
-9.56229270e-02
-1.04265079e-01
-8.51201192e-02
6.80141822e-02
9.63174403e-02
-8.67581591e-02
3.00632119e-02
-1.32048219e-01
-6.09440729e-02
1.11149982e-01
-7.28153437e-02
8.48489702e-02
-6.58019334e-02
9.16309953e-02
4.42643128e-02
4.11010981e-02
-1.07829183e-01
1.76635198e-02
-1.34804279e-01
-5.38375452e-02
4.01601680e-02
1.89440940e-02
-9.20103937e-02
1.01219751e-01
-1.95223019e-02
9.82207730e-02
-1.08291395e-01
1.78283621e-02
-6.92370236e-02
-7.33649954e-02
-5.32053933e-02
-4.01851460e-02
7.49589428e-02
1.57480706e-02
-5.93646057e-02
-7.11575225e-02
1.13251656e-01
2.48773117e-02
-1.11597039e-01
-5.68577535e-02
-3.54021825e-02
-5.85220829e-02
-8.26032460e-03
1.24301016e-03
2.78283823e-02
9.32677537e-02
-6.20467216e-02
3.76181267e-02
-1.10303037e-01
-6.43446445e-02
3.27908210e-02
1.99335665e-02
9.01634470e-02
2.81257392e-03
1.02343187e-01
-6.39603361e-02
-1.02071695e-01
8.72725695e-02
-7.39431381e-02
-4.53818925e-02
3.38228531e-02
-5.24316877e-02
-6.13092910e-03
6.43310621e-02
4.11713906e-02
9.84536314e-07
6.78399354e-02
1.75031424e-02
7.58644491e-02
3.30844074e-02
9.36686993e-05
9.15022343e-02
-5.23426235e-02
-9.17350501e-02
3.40910405e-02
-1.23448014e-01
4.84539270e-02
-7.89147615e-03
7.13240057e-02
-7.58450478e-02
8.75018835e-02
-4.38146293e-02
1.98006928e-02
-1.00633651e-02
1.17349371e-01
-5.06771803e-02
-4.88861054e-02
-1.08552620e-01
1.18573889e-01
-5.29277325e-03
-1.40625387e-02
6.32365644e-02
-2.90781260e-03
-8.40353370e-02
-7.21295476e-02
4.73978221e-02
-1.17608190e-01
9.35702026e-03
5.09967506e-02
-1.68874711e-02
1.05801389e-01
-3.09792906e-02
1.09525010e-01
-9.87781584e-02
1.26424283e-02
-3.90144289e-02
9.29510593e-02
-5.62597364e-02
4.46611643e-02
1.32256001e-02
-1.24452561e-01
-9.65268314e-02
4.46840525e-02
-3.43455374e-03
-7.27225393e-02
-1.13000304e-01
6.91796243e-02
-9.49778110e-02
4.61991131e-02
-5.34237176e-02
-5.94231635e-02
-4.81704921e-02
3.56914252e-02
-1.18196070e-01
-4.96221036e-02
3.72247398e-03
1.24810264e-01
-4.64467853e-02
-9.79492962e-02
-1.22929141e-01
-4.56368029e-02
-6.25578836e-02
5.71116693e-02
7.63805062e-02
8.88247695e-03
-5.42416349e-02
6.32961914e-02
1.61379464e-02
4.48084362e-02
-6.61940947e-02
-7.87168834e-03
9.46290269e-02
6.56824633e-02
-1.05809346e-01
-1.07037760e-01
-3.77301760e-02
-1.34582043e-01
-1.25757784e-01
-9.47507694e-02
1.83973275e-03
-1.15158200e-01
5.66202179e-02
6.33060113e-02
-1.19665928e-01
-2.57626958e-02
-9.46749970e-02
-2.86454447e-02
4.83272150e-02
-2.54160520e-02
-1.07521750e-01
1.05748102e-01
1.03892505e-01
-6.09270409e-02
-8.39197263e-03
9.75673720e-02
6.37581348e-02
6.55564591e-02
-1.08889295e-02
-8.16289485e-02
-1.76228508e-02
1.24783695e-01
4.27558571e-02
-5.85263409e-02
8.05471912e-02
4.15673628e-02
-7.41961896e-02
9.56322700e-02
4.07222770e-02
6.73990324e-02
-8.88507068e-02
8.19695462e-03
-2.29755156e-02
5.26095070e-02
5.53875118e-02
-1.15406096e-01
-1.10243171e-01
-1.12713784e-01
-7.10488856e-02
-9.94124822e-03
-5.31059466e-02
-1.32195532e-01
-9.13484618e-02
1.67431938e-03
-1.05897196e-01
8.34082514e-02
3.02240974e-03
-1.23565853e-01
-5.64389601e-02
-5.29380627e-02
-1.14331946e-01
-5.09877689e-02
-2.26901378e-02
1.34917781e-01
-5.43095805e-02
-9.86328572e-02
1.11740537e-01
6.44485950e-02
-6.72097951e-02
-1.07765414e-01
3.56619395e-02
-7.56304190e-02
1.18175559e-01
1.71618372e-01
-2.09136635e-01
-2.03515999e-02
9.30595472e-02
-1.41857758e-01
-5.61217442e-02
4.18571755e-02
9.23791006e-02
4.61818166e-02
-9.33702290e-02
6.72011599e-02
6.48477674e-02
5.91408722e-02
1.43740177e-01
1.28477337e-02
2.20405944e-02
1.72705919e-01
-1.55800387e-01
-1.15311407e-02
-6.13477863e-02
-7.58735016e-02
4.22521159e-02
-5.09318709e-02
-5.34622604e-03
6.31776154e-02
-4.63911258e-02
-6.96805166e-03
-2.82543041e-02
-3.31256650e-02
-1.53476223e-01
-1.62762150e-01
1.08848915e-01
-7.72554129e-02
-1.65084749e-01
4.09295559e-02
4.05290239e-02
-6.41840175e-02
9.56612974e-02
1.10192701e-01
-1.34051353e-01
1.46021411e-01
1.69992074e-02
-1.21937707e-01
-2.68119629e-02
-2.04835404e-02
-4.64173593e-02
1.10582680e-01