-2.92323660e-02
2.64657997e-02
3.43268365e-02
-3.36564705e-02
2.81759780e-02
-4.42401730e-02
-6.44039288e-02
-6.40882226e-03
-3.17012630e-02
-5.43136969e-02
-2.42309589e-02
-8.89465883e-02
1.72251426e-02
-3.63569856e-02
-7.22118765e-02
-5.44378608e-02
3.30263451e-02
9.37388837e-03
-5.42305298e-02
-7.55135119e-02
-7.27296695e-02
-3.32599841e-02
4.64658178e-02
3.36796641e-02
3.86086926e-02
-5.44592924e-02
-5.11674024e-02
5.27603850e-02
1.62261762e-02
-9.44695026e-02
-7.94796348e-02
-3.21438257e-03
7.99831301e-02
-6.06062338e-02
-5.18846847e-02
-5.26626734e-03
-6.77333474e-02
-4.70106937e-02
4.36296687e-02
-7.71545470e-02
-8.36639702e-02
-3.45441885e-02
-1.30793517e-02
-5.66043071e-02
-4.00645733e-02
-8.50638375e-02
2.57997178e-02
-9.18103531e-02
-9.91914198e-02
-1.59244388e-02
-2.47955006e-02
7.92182051e-03
-4.13154960e-02
1.96921173e-02
-6.09844476e-02
6.81984425e-02
-2.27849428e-02
-1.29072824e-02
4.06357236e-02
-2.91597415e-02
3.95975672e-02
4.93300781e-02
9.26680118e-03
-3.75178531e-02
9.48776770e-03
-6.25058711e-02
-2.07703821e-02
-1.11615308e-01
-3.21618468e-02
4.07032482e-02
4.58762608e-02
4.15375121e-02
-9.74718854e-02
-5.02778962e-03
-4.28607836e-02
2.18068901e-02
-6.48744479e-02
-8.92295092e-02
-4.82228957e-02
3.40848207e-03
-5.02209552e-02
1.50593258e-02
5.15836775e-02
1.93355922e-02
-7.07789510e-02
-1.40633788e-02
7.09321396e-03
-7.12204352e-02
-8.31005722e-02
-6.34336919e-02
-7.04978853e-02
-9.55501124e-02
1.99023094e-02
-7.44956806e-02
-2.43386384e-02
-8.65265951e-02
-6.90597817e-02
-2.16735806e-02
3.26772630e-02
-1.52634913e-02
-5.89037761e-02
-2.10767845e-03
-6.63239509e-02
-8.24663341e-02
2.15353779e-02
3.45078530e-03
1.00142537e-02
6.67797253e-02
-4.29274235e-03
3.93487811e-02
-3.00022326e-02
-5.34940772e-02
-8.00586268e-02
-6.68696826e-03
-5.47014065e-02
1.22146104e-02
4.07047309e-02
-9.16122496e-02
-5.43570518e-02
1.35831753e-04
-6.93668276e-02
-4.62662093e-02
1.77085940e-02
-9.93472263e-02
-8.90444964e-02
-8.18606168e-02
-2.41055358e-02
8.25669058e-03
-6.69617653e-02
-3.10549717e-02
-1.90266762e-02
-7.34476224e-02
-4.45684791e-02
5.11052720e-02
-1.00558408e-01
7.15481723e-03
3.73242386e-02
1.11277374e-02
-8.56804624e-02
-2.66714003e-02
-7.34106302e-02
2.32353788e-02
-8.10242295e-02
-6.94281561e-03
3.29805240e-02
-8.53906348e-02
4.41456065e-02
6.81822537e-04
-6.81567267e-02
-8.44443217e-03
-3.23796645e-04
-3.68854478e-02
-3.23348902e-02
1.77151132e-02
-9.69487280e-02
-8.61924812e-02
9.33058038e-02
9.49041396e-02
-5.35472147e-02
-6.87392801e-02
-9.18315575e-02
6.93953112e-02
-9.92043596e-03
-1.46049991e-01
1.30136997e-01
1.16501495e-01
8.27305242e-02
1.13785855e-01
1.73329458e-01
-1.02457635e-01
3.17450687e-02
-1.09873809e-01
9.33500156e-02
-3.97992022e-02
1.60666734e-01
2.84554083e-02
1.15330949e-01
1.24209963e-01
-4.04356830e-02
-4.66605229e-03
-1.11669190e-01
6.42811731e-02
1.42835796e-01
8.39062482e-02
-3.40422802e-02
5.82095049e-03
-2.32251408e-03
3.30024250e-02
9.93856415e-02
4.53127772e-02
1.72499232e-02
3.86622245e-03
-6.28681853e-03
1.80372804e-01
-7.96998739e-02
-2.08609225e-03
-7.22047016e-02
-1.06016183e-02
-4.54283506e-02
4.95536029e-02
7.33174905e-02
-5.13593517e-02
1.79518908e-01
-7.55300745e-02
8.29086676e-02
-3.46248522e-02
-1.70625914e-02
-1.90839320e-02
2.72696745e-02
1.14394076e-01
8.42536017e-02
-6.39225468e-02
-3.95472482e-04
9.53693986e-02
7.19367117e-02
3.76582006e-03
-1.17047451e-01
3.11398581e-02
4.50847782e-02
-6.23485446e-02
8.50486755e-03
1.63909998e-02
3.96470428e-02
-6.73113018e-02
1.35481432e-01
7.79323578e-02
1.23463497e-01
-9.14020017e-02
-1.27652679e-02
-3.39952372e-02
2.48952862e-03
-4.48691063e-02
-5.83520159e-02
-1.38321206e-01
6.51873127e-02
-1.63712855e-02
-5.07976189e-02
1.05803341e-01
-5.36687002e-02
1.08811326e-01
-1.15580782e-01
1.07155591e-01
-5.05981334e-02
2.88878549e-02
-1.10145070e-01
-9.97987613e-02
3.16096880e-02
5.47726750e-02
1.67404056e-01
-1.16157241e-01
4.94005643e-02
1.66672811e-01
-8.30752850e-02
1.02374069e-02
5.82847334e-02
5.64112924e-02
-7.68327564e-02
4.83459309e-02
3.67315933e-02
9.39659774e-02
4.00567576e-02
-5.57861640e-04
9.58624706e-02
4.03496251e-02
-8.83759651e-03
1.13580368e-01
5.04901819e-02
1.05281904e-01
9.86087471e-02
4.01174696e-03
1.01097800e-01
-5.63853718e-02
-6.47414476e-02
1.33467140e-02
3.04647069e-02
1.32034481e-01
-4.73262817e-02
1.60819720e-02
-1.16767026e-01
1.64301559e-01
9.00532305e-02
-3.52023169e-02
1.18853852e-01
6.56581149e-02
-9.18196440e-02
-1.17052153e-01
-7.28459433e-02
6.40938729e-02
-8.22112784e-02
-1.11054769e-02
2.68884990e-02
-1.16680183e-01
-1.16465323e-01
1.06214307e-01
1.66588109e-02
4.30413038e-02
2.82637682e-02
1.14227861e-01
-7.36326119e-03
-1.37469664e-01
-4.51976014e-03
-3.34631391e-02
-8.50708410e-03
2.05686372e-02
3.97530459e-02
5.97028732e-02
4.36973758e-02
-9.38725546e-02
-8.70741457e-02
-9.06922966e-02
6.18584733e-03
-2.23577227e-02
3.38728465e-02
5.93558070e-04
8.20760336e-03
-9.03850868e-02
-1.51312174e-02
4.33372371e-02
-7.13033304e-02
6.27601445e-02
-8.70259702e-02
-6.17889054e-02
-9.34551060e-02
-5.25630713e-02
-4.07523066e-02
1.77671853e-02
-5.61292656e-02
1.96358468e-02
-1.54730165e-02
-5.00137694e-02
6.49078116e-02
-6.47953525e-02
-4.52108048e-02
-7.85559118e-02
-9.66377780e-02
-8.74191374e-02
-1.78467785e-03
-4.26668972e-02
-7.18429014e-02
-6.91204518e-03
-3.66896763e-02
-1.42860357e-02
-8.54990035e-02
7.10318759e-02
3.11151892e-02
-6.67828470e-02
5.28830588e-02
-5.74394763e-02
-6.12214990e-02
7.04128817e-02
-2.41637211e-02
5.28893881e-02
1.49497921e-02
-2.30166386e-03
1.11525136e-04
4.10916097e-03
-5.75919785e-02
-5.93137629e-02
2.90968106e-03
6.53988644e-02
-1.90356188e-02
4.10795212e-02
-5.46144024e-02
-2.28793286e-02
-2.48196628e-03
1.01231979e-02
1.88499279e-02
-6.90695196e-02
-5.80243729e-02
-1.19134188e-01
-7.16611817e-02
-4.78246547e-02
6.81207404e-02
-6.53785020e-02
-5.48908822e-02
3.63257043e-02
-9.40150116e-03
-3.71451117e-02
-7.21638575e-02
9.41893179e-03
-3.58401053e-03
-7.99595192e-02
3.34572122e-02
2.08193492e-02
4.62235697e-02
-8.44646171e-02
-4.05980647e-02
-9.68873277e-02
-2.17496045e-02
-6.11300245e-02
-3.00144907e-02
1.36166811e-02
1.38177164e-02
4.22963053e-02
4.35531177e-02
3.75204049e-02
6.58506155e-02
3.10964454e-02
-6.27077967e-02
3.27396914e-02
-7.22602159e-02
-3.66546102e-02
4.95800525e-02
-1.72627158e-02
-3.46974581e-02
-1.62054617e-02
1.67112164e-02
-1.26062240e-02
-6.23847693e-02
-1.04727577e-02
-7.41711259e-02
6.82914704e-02
-5.11493385e-02
1.70625448e-02
8.15049745e-03
-4.23502401e-02
-1.09931929e-02
-1.82473846e-02
-1.54578881e-02
-5.57196140e-02
-9.44888219e-02
-3.13883685e-02
-8.10909718e-02
-1.01675205e-01
-2.72161216e-02
-8.36483538e-02
-1.16605647e-02
-3.78240906e-02
-5.02048731e-02
4.20919918e-02
2.04170607e-02
1.96769983e-02
-2.95311827e-02
-3.60630341e-02
5.84818572e-02
3.68408412e-02
-6.69379309e-02
2.14124694e-02
-1.29641630e-02
5.52954078e-02
2.84039658e-02
9.75611247e-03
1.17858686e-02
5.98683804e-02
-2.54124310e-02
-7.39099877e-03
4.70974483e-02
2.90016225e-03
6.03407249e-02
-3.28754857e-02
-1.88101977e-02
7.69788325e-02
-8.91839564e-02
1.09190056e-02
-1.63336713e-02
2.05203481e-02
-3.90191786e-02
-7.68023282e-02
-6.90493137e-02
-2.35232692e-02
-7.09440699e-03
-7.93936774e-02
-5.03550842e-03
-7.32307285e-02
-3.57135497e-02
-1.23853661e-01
-7.43535757e-02
4.33248803e-02
4.24928591e-02
6.45267442e-02
5.63006252e-02
6.97585940e-02
5.94597608e-02
-8.32726210e-02
-4.70461808e-02
-4.98333462e-02
-9.54783186e-02
-3.42883132e-02
-1.09603748e-01
-1.00362357e-02
-4.22863029e-02
-1.15069412e-02
-7.87955150e-03
5.94401397e-02
1.86314862e-02
-6.28214628e-02
8.18058029e-02
-5.80747947e-02
-7.98015967e-02
-4.45725508e-02
3.12836766e-02
-4.70645130e-02
2.21148110e-03
-1.04609445e-01
-9.49301124e-02
-7.74905086e-03
1.05877630e-02
5.05793467e-02
-1.00389505e-02
-7.73369893e-02
-9.58787203e-02
-9.68968198e-02
5.67755587e-02
-3.25679146e-02
4.60269153e-02
-6.01828769e-02
-5.70478998e-02
2.72569843e-02
-6.63440675e-02
-7.95671064e-03
5.58572151e-02
-4.96040806e-02
3.30182984e-02
-4.07410711e-02
-5.81669770e-02
-4.01980331e-04
-3.11680231e-02
1.94973983e-02
4.64139096e-02
5.09034880e-02
-4.51347083e-02
8.85840412e-03
5.49509078e-02
-7.95977376e-03
3.59952524e-02
6.24725036e-02
-9.43059027e-02
-1.51591506e-02
-7.42853880e-02
1.20722791e-02
2.68246699e-02
-6.59012347e-02
-4.47803140e-02
5.55334650e-02
-5.50013892e-02
2.86488142e-02
1.46024786e-02
-7.55099505e-02
-6.72884881e-02
-7.13194683e-02
-8.69050343e-03
-8.40583295e-02
-2.80768760e-02
1.27580659e-02
4.95006777e-02
-9.17932671e-03
3.63500193e-02
-2.72385105e-02
5.13131395e-02
-8.92308578e-02
1.80663709e-02
-8.33955873e-03
2.35514361e-02
-9.83034819e-02
-4.93213683e-02
4.85378131e-03
4.37302589e-02
-3.71519066e-02
-1.86853446e-02
-2.54284423e-02
-3.47144864e-02
-8.69549215e-02
4.26902547e-02
-8.37374628e-02
-1.02179892e-01
-9.81448516e-02
-3.40643860e-02
-1.01554103e-01
-9.10649225e-02
4.07178290e-02
-3.56715061e-02
-4.92431372e-02
-6.22279271e-02
3.95808294e-02
-1.15361903e-03
2.43344475e-02
1.52695747e-02
-1.84151437e-02
1.88142397e-02
2.77992338e-02
-1.05500549e-01
-7.31778145e-02
-2.69281585e-02
-3.54903974e-02
-4.75442261e-02
-3.71575840e-02
-1.16745122e-02
6.73122853e-02
2.29139552e-02
-4.68980223e-02
-9.95593891e-03
3.65604237e-02
-1.02125332e-01
-7.07628056e-02
-1.00048721e-01
-5.27846068e-02
-7.32616410e-02
2.34804619e-02
1.08294571e-02
-1.11280028e-02
8.25938061e-02
-1.03939593e-01
-1.41305372e-01
7.80701935e-02
4.44311462e-02
-6.57578036e-02
5.44708781e-02
9.85809788e-02
-7.07389340e-02
1.69439183e-03
-8.05282444e-02
4.26499210e-02
6.33034185e-02
-8.66455957e-02
1.07756063e-01
-2.12418810e-02
1.96748208e-02
7.47189149e-02
4.30013724e-02
-1.13438345e-01
-5.64947687e-02
1.82609353e-02
1.24616854e-01
-7.49324933e-02
8.81028846e-02
3.50312144e-02
-3.72262672e-03
6.71643540e-02
-1.30253077e-01
-6.92119002e-02
-4.28880043e-02
1.03083409e-01
1.37734413e-01
9.90193784e-02
-7.40074739e-02
1.32728070e-01
-7.98954163e-03
6.93592206e-02
8.73569474e-02
2.04258654e-02
5.56190237e-02
-1.31149635e-01
-1.12895861e-01
2.12487489e-01
-5.26743680e-02
9.68071297e-02
-7.75839835e-02
-1.36255890e-01
-1.25614196e-01
1.22064516e-01
1.71640337e-01
3.81205082e-02
1.72197163e-01
-9.34460983e-02
1.78345785e-01
-6.42044917e-02
-9.85967144e-02
-1.26325781e-03
4.88852412e-02
6.34959266e-02
4.21495596e-03
-5.77293485e-02
-1.85967833e-02
5.83418906e-02
5.23690358e-02
4.76749167e-02
-5.92306219e-02
-2.19240319e-02
1.24889039e-01
-1.17745465e-02
-9.47107226e-02
8.06058049e-02
4.12449539e-02
3.34803760e-02
9.93360505e-02
8.61867666e-02
-5.21114655e-03
-9.02429670e-02
3.19443792e-02
-7.40211159e-02
-4.88059642e-03
4.01460491e-02
3.23308334e-02
-4.11653891e-02
-9.80134029e-03
-7.71097168e-02
-5.32870218e-02
7.53427371e-02
-1.34334221e-01
1.08539835e-01
-7.60851204e-02
1.89744741e-01
-7.96578825e-02
2.78436616e-02
-6.29300699e-02
-6.01611175e-02
2.67146863e-02
6.61003441e-02
2.18450621e-01
-1.23845637e-01
3.49595174e-02
1.89671084e-01
-7.50054866e-02
5.67178801e-02
4.10013609e-02
1.13848120e-01
2.96059772e-02
1.12274975e-01
-4.29693945e-02
4.06575315e-02
-3.56333330e-02
2.03685760e-02
3.57533619e-03
8.51187157e-04
-8.76238346e-02
-1.58978663e-02
1.05365425e-01
-4.53566052e-02
5.81238307e-02
-6.26461208e-02
7.09106326e-02
-1.46240056e-01
-1.34951696e-02
6.60386635e-03
-8.62692669e-02
9.07704756e-02
-6.55301064e-02
-1.37050264e-02
-4.86062616e-02
1.59844622e-01
1.60792187e-01
-5.93116134e-02
1.48233354e-01
1.03002647e-02
-1.21240176e-01
-5.73120676e-02
-1.30019173e-01
1.77439034e-01
-1.04562931e-01
1.09469950e-01
1.53633421e-02
6.87304977e-03
-8.52472857e-02
8.54236111e-02
1.68274175e-02
-1.61202997e-02
-6.31404296e-02
1.17937841e-01
2.66929157e-02
-6.41391650e-02
1.06678113e-01
-8.76919776e-02
-1.41264662e-01
2.72385608e-02
-1.04603387e-01
-6.50694370e-02
-2.87113637e-02
9.83531252e-02
-7.77565241e-02
1.76596269e-02
-5.95969427e-03
1.13027908e-01
-1.02385215e-01
-7.97151923e-02
1.16290078e-01
1.36248663e-01
1.02467872e-01
5.96013181e-02
1.47420689e-01
-1.17686138e-01
-9.15283412e-02
-4.11619954e-02
1.50912926e-02
-8.01434591e-02
1.67115793e-01
-3.60673778e-02
6.94755167e-02
1.60728961e-01
-2.06303463e-04
-4.45776843e-02
-1.02054045e-01
1.75271019e-01
7.08017126e-02
1.96773876e-02
-2.56267488e-02
5.33630848e-02
6.26056828e-03
5.94138540e-02
7.37891272e-02
1.40721574e-01
1.04561262e-01
-3.25904191e-02
2.16581188e-02
1.86720297e-01
-3.39551792e-02
1.13480784e-01
1.92154944e-02
-1.05910115e-01
-2.75851935e-02
6.92595029e-03
5.74975498e-02
-5.58324531e-02
1.28495604e-01
-7.18256161e-02
1.07663773e-01
-1.00802161e-01
-1.48025025e-02
-9.04532224e-02
4.31066453e-02
-1.71157240e-04
9.32222828e-02
-1.04399443e-01
5.16376868e-02
1.18088618e-01
2.67342143e-02
-1.76995173e-02
-1.09629884e-01
-9.11271572e-02
1.12090409e-01
-6.34050667e-02
1.30345430e-02
3.89934778e-02
7.64268041e-02
2.53810156e-02
2.13563889e-01
1.17408499e-01
8.51893872e-02
-8.84123668e-02
1.13078371e-01
-5.20831421e-02
2.59280168e-02
3.74832451e-02
7.86316395e-02
-1.30676785e-02
1.22515157e-01
-2.93893907e-02
-1.21626027e-01
2.69433744e-02
4.02905531e-02
1.21367186e-01
-7.14150891e-02
1.83029667e-01
-2.09989604e-02
-1.17995096e-02
-8.45827907e-02
-7.47311721e-03
2.75149327e-02
-2.04188954e-02
3.06605883e-02
-4.95935082e-02
1.39525980e-01
1.21040810e-02
-6.76925331e-02
3.13876346e-02
-1.09804526e-03
-3.17020342e-02
-8.66509080e-02
6.83414936e-02
-6.77841380e-02
6.56095743e-02
-5.75495996e-02
6.45840019e-02
1.34985089e-01
-2.32446007e-02
-1.00647308e-01
-1.89308934e-02
1.52272627e-01
5.66753596e-02
5.38685434e-02
-7.45486990e-02
9.09144133e-02
-3.29553522e-02
1.14950230e-02
-7.19145313e-02
1.33779589e-02
9.72625688e-02
-8.15453231e-02
-1.01945467e-01
2.45359540e-02
1.66352451e-01
1.01574667e-01
2.88606081e-02
1.50113404e-01
1.06140457e-01
-1.10005662e-01
-7.99600407e-02
-4.00193315e-03
4.79627438e-02
-1.94461010e-02
-2.08927598e-02
4.04417105e-02
-1.11218251e-01
-8.97275209e-02
1.09318480e-01
1.48655444e-01
1.06259078e-01
2.76717115e-02
7.70635232e-02
-9.91709679e-02
-1.15945727e-01
-1.75096504e-02
4.68773954e-03
-5.64035540e-03
-5.44781461e-02
-3.47401612e-02
-8.11450630e-02
1.06078107e-03
4.70295642e-03
-8.21726397e-02
-3.67760733e-02
-4.14373539e-02
-2.49972381e-02
-1.39626283e-02
-4.98191118e-02
-5.11089712e-02
-9.87274870e-02
-8.93462077e-02
6.32563904e-02
-9.19708088e-02
-2.99359355e-02
-7.47585595e-02
3.87766771e-02
-2.85903942e-02
-7.05472454e-02
-1.05487682e-01
-6.97790831e-02
6.05627075e-02
-3.89317311e-02
5.67690358e-02
-4.28228714e-02
-1.14106372e-01
-7.97125697e-02
4.56115901e-02
4.64849621e-02
-4.76783514e-02
5.69335511e-03
-5.06953523e-02
1.97445787e-02
-6.33359775e-02
-4.95254546e-02
2.17813347e-02
-7.33059123e-02
-3.75397168e-02
8.19147378e-03
-4.92408276e-02
-1.22060299e-01
6.41220389e-03
1.42615186e-02
-8.41900557e-02
2.03847792e-02
-2.63739862e-02
-3.38952914e-02
4.98457737e-02
1.13127586e-02
3.87868732e-02
1.79736987e-02
-6.66857287e-02
5.95520288e-02
4.44988012e-02
-4.22152355e-02
1.57053489e-02
7.37231632e-04
-1.75239295e-02
-5.18994359e-03
-5.21298759e-02
1.39193051e-02
-5.12508973e-02
-5.29572330e-02
-5.28965741e-02
1.94239467e-02
-9.17586125e-03
-8.03829953e-02
-9.12469700e-02
-4.92062718e-02
-1.95124578e-02
-1.12308145e-01
-5.39830998e-02
-2.79882792e-02
6.60003209e-03
-4.65426818e-02
-6.72822148e-02
-2.36578248e-02
5.54827787e-02
-6.99433312e-02
4.02494930e-02
-2.16447972e-02
-4.86429781e-02
-6.62625805e-02
-1.03948712e-02
3.11931185e-02
-3.14903669e-02
-8.47973116e-03
-6.45808801e-02
6.65793419e-02
-5.44817112e-02
-9.41876322e-02
6.10082736e-03
-4.07120064e-02
5.09370975e-02
6.33456334e-02
2.67485883e-02
-9.11820531e-02
-4.39155512e-02
2.95122173e-02
3.04587856e-02
-3.97813274e-03
-4.63002175e-03
-3.66241112e-02
-3.12430095e-02
-2.17494480e-02
-8.13299511e-03
4.38790657e-02
-9.55110937e-02
-4.41876575e-02
3.87431942e-02
-9.55807790e-02
-4.27199490e-02
-5.10701649e-02
1.60711557e-02
6.54326305e-02
-1.12126864e-01
2.27577519e-02
-2.81093139e-02
2.70948833e-04
-1.57238096e-02
-8.00410956e-02
5.91465533e-02
-4.30089869e-02
-4.82530780e-02
-1.02034807e-01
-1.04988031e-01
-8.45547915e-02
4.97782268e-02
3.36893201e-02
6.86390549e-02
-1.76772773e-02
-1.26999593e-03
-3.27944756e-02
-6.68735430e-02
-8.45828205e-02
-8.50336179e-02
5.21101989e-02
9.28595737e-02
3.99267972e-02
-1.59315038e-02
1.24855954e-02
-4.45697941e-02
2.81131715e-02
-1.38962977e-02
-9.93051007e-02
-1.97669975e-02
1.16657928e-01
1.52663030e-02
5.64855672e-02
7.70984069e-02
1.06129356e-01
-9.08143222e-02
-3.01010571e-02
2.46112365e-02
8.83726031e-02
1.38250843e-01
-6.91954941e-02
-1.28739372e-01
9.80516374e-02
-2.74221823e-02
-6.00144230e-02
1.06527843e-01
-8.79556984e-02
1.59564167e-02
2.96024960e-02
3.21856737e-02
3.64516228e-02
3.58546861e-02
2.22494043e-02
4.67509180e-02
7.83337206e-02
-5.44290543e-02
-2.03383658e-02
1.75634697e-02
1.10043496e-01
6.40769154e-02
-7.94372335e-02
-3.59800495e-02
1.14733502e-02
-3.41291400e-03
-1.26760954e-03
1.66491076e-01
1.06694428e-02
1.13462778e-02
-3.84523091e-03
-8.30516517e-02
3.53511609e-02
2.79235169e-02
-9.35415402e-02
1.41078606e-01
-7.80698881e-02
4.85749096e-02
7.78568760e-02
-8.63799676e-02
-9.14610550e-02
6.52528275e-03
-8.44684616e-02
-3.10466122e-02
-4.17324863e-02
-8.26858170e-03
1.22160308e-01
1.37067765e-01
3.32115591e-02
2.93038487e-02
2.99745630e-02
5.94416521e-02
4.19366099e-02
1.08183794e-01
-7.77847320e-02
-6.24896139e-02
-8.86149704e-03
6.55080080e-02
1.10392317e-01
-1.83259714e-02
3.44026312e-02
6.04392439e-02
4.61395085e-02
1.34721550e-03
1.35307625e-01
-6.89345598e-02
7.61186406e-02
-9.36762244e-02
1.24289416e-01
-8.64582136e-02
7.37618655e-02
5.37817879e-03
-1.75052062e-02
7.99027458e-02
-3.29584330e-02
-5.51838130e-02
1.27613619e-01
4.75760810e-02
5.33944070e-02
1.06492750e-02
-7.70850405e-02
1.46604627e-02
2.64725536e-02
1.30349427e-01
-4.11964655e-02
8.88313726e-03
1.18655182e-01
7.87815899e-02
-1.06436923e-01
3.33115049e-02
6.65557906e-02
2.91521698e-02
5.51430173e-02
-1.12239877e-03
-2.65676044e-02
-8.80594999e-02
1.56204149e-01
1.43977985e-01
-9.23587680e-02
9.91456583e-02
1.30839217e-02
1.39801905e-01
9.30064241e-04
5.46807311e-02
1.27130374e-01
3.35273184e-02
-4.90376875e-02
-1.53406560e-02
-2.42236536e-02
-5.78617714e-02
1.23658761e-01
-1.83089748e-02
1.12409614e-01
1.56169280e-01
8.44152197e-02
1.62293673e-01
1.27494615e-02
3.22816297e-02
1.16826326e-01
5.65638468e-02
-7.19110221e-02
1.18689286e-03
1.69960130e-02
-2.78823562e-02
-1.76001471e-02
1.23752043e-01
-5.96323498e-02
4.44205701e-02
-1.90712605e-02
7.39049241e-02
9.27476063e-02
2.15659160e-02
8.63625109e-02
7.61382207e-02
-5.99660948e-02
-1.73438862e-02
-4.09458913e-02
2.46470664e-02
5.62203415e-02
1.26427010e-01
5.81866130e-02
-2.51705498e-02
-9.77537129e-03
-1.11244954e-01
-7.38754272e-02
-5.42055117e-03
-4.98314276e-02
-4.49863961e-04
1.34730622e-01
-3.86303589e-02
1.13661587e-02
4.05425094e-02
5.92309376e-03
-4.43066433e-02
-4.82090423e-03
7.27003664e-02
4.73202281e-02
5.53902946e-02
-3.47102694e-02
1.61948174e-01
-1.33031234e-01
-7.61672631e-02
-3.21211480e-02
2.76316386e-02
-3.83128226e-02
6.88464567e-02
7.32825920e-02
1.37625903e-01
9.06402543e-02
-7.88383186e-02
-3.77295576e-02
-2.03324426e-02
8.13193992e-02
5.40069118e-02
1.29445925e-01
-5.45727089e-02
-1.00704115e-02
-7.61104897e-02
1.32713273e-01
2.99628801e-03
1.45345300e-01
5.87450713e-02
-2.84156315e-02
-1.03427939e-01
1.75654471e-01
-3.07262726e-02
1.27413422e-01
-4.36215177e-02
-7.01229647e-02
-1.77111814e-03
6.72232211e-02
5.20858020e-02
3.65292169e-02
5.37541434e-02
-8.65928680e-02
3.20131294e-02
-4.42948490e-02
-1.18968852e-01
-3.11114565e-02
1.27609029e-01
5.57287671e-02
-1.74100734e-02
-7.38718808e-02
2.52418336e-03
1.04954667e-01
1.17970528e-02
1.10107459e-01
-3.76974791e-02
-2.34667026e-02
1.12564780e-01
-2.03424022e-02
-8.99656042e-02
9.24775898e-02
1.43676281e-01
-5.96735552e-02
6.90988153e-02
1.24862969e-01
8.07572082e-02
-2.64885556e-02
1.23383373e-01
-4.93019037e-02
8.91616493e-02
2.54914947e-02
7.43587092e-02
-1.21364020e-01
9.43982974e-02
-6.43732622e-02
-1.20033152e-01
1.11925565e-01
-4.26560193e-02
5.58484644e-02
-1.25002980e-01
1.49428383e-01
-3.97043638e-02
-3.71788926e-02
-1.12781703e-01
-1.32331355e-02
2.45710239e-02
-4.36831312e-03
7.40828663e-02
5.58664696e-03
6.91576004e-02
1.55863240e-01
1.24139916e-02
-1.25114713e-02
1.23967953e-01
4.43433598e-02
-2.45795567e-02
1.35788023e-01
-6.79243803e-02
8.92059803e-02
1.24404551e-02
1.75075475e-02
1.13272399e-01
-4.94031087e-02
-5.44039868e-02
3.84540483e-02
1.31465614e-01
-1.05454316e-02
1.32526174e-01
2.38517318e-02
-2.65279301e-02
-1.24755427e-01
-7.85694569e-02
-7.50252753e-02
-1.04789939e-02
5.86468987e-02
-1.69538576e-02
-1.88115332e-02
-1.04695298e-01
1.69648901e-01
8.80734101e-02
-3.59570831e-02
1.99879538e-02
1.11226678e-01
-1.13222368e-01
3.17456461e-02
-1.21286288e-02
7.84847438e-02
-7.70542622e-02
-7.76711013e-03
5.87758943e-02
-2.35259086e-02
2.33838968e-02
2.36718170e-02
1.21366031e-01
6.17321245e-02
1.35773430e-02
1.41372621e-01
-4.53133248e-02
-8.06701705e-02
6.26389906e-02
-6.93390369e-02
-3.82572860e-02
-7.82900006e-02
-1.19303234e-01
4.16120738e-02
1.10999122e-01
9.94854420e-02
1.74653511e-02
-2.22117994e-02
-1.17395908e-01
2.27735527e-02
-2.25618761e-03
-2.03364715e-02
8.30236077e-02
7.49844462e-02
7.59228244e-02
8.97554979e-02
1.12826347e-01
-9.94040594e-02
-7.43907019e-02
-1.54547319e-01
5.16642295e-02
-1.37206599e-01
6.32760525e-02
-1.64538864e-02
8.27757176e-03
5.97953349e-02
-2.83184741e-02
-4.77159657e-02
-9.64798331e-02
1.46628588e-01
4.59811166e-02
4.36851382e-02
-7.86592066e-02
1.56950038e-02
-6.18382134e-02
8.86022300e-02
4.95987162e-02
2.52049603e-02
8.32788348e-02
-9.17619914e-02
-1.11734320e-04
1.71629995e-01
-9.66875255e-02
7.17063248e-02
-1.16099678e-01
-3.98879573e-02
-1.49853779e-02
1.42306527e-02
9.25189480e-02
-4.42191586e-03
4.38083112e-02
-7.86011070e-02
1.59381106e-01
-1.34649336e-01
-5.26644140e-02
-2.32066754e-02
2.46135034e-02
-3.43503256e-04
9.46462154e-02
-4.85255867e-02
-1.09834090e-01
1.16308868e-01
1.72991655e-03
2.54147556e-02
-4.98755090e-02
-9.41529423e-02
9.81367379e-02
-1.26162637e-02
-1.11972243e-02
5.48826493e-02
4.99163084e-02
-2.22385600e-02
1.52203515e-01
3.92946787e-02
9.30671841e-02
2.14753859e-02
-5.35240024e-03
2.77058166e-02
-4.79294881e-02
2.78789457e-03
4.39695548e-03
-1.08669579e-01
-1.58485156e-02
-4.61665653e-02
-1.21378303e-01
-1.29368762e-02
-8.68763682e-03
-3.54373902e-02
-9.24531445e-02
8.76593739e-02
-1.34624168e-02
8.51104558e-02
7.35217356e-04
4.08031158e-02
8.13952386e-02
9.23744142e-02
8.42760354e-02
-3.91089208e-02
1.23957917e-01
1.12448126e-01
-3.74577427e-03
9.48471129e-02
2.68480610e-02
-1.76058915e-02
-9.88079756e-02
1.64958965e-02
-6.80628642e-02
1.35903694e-02
-1.02680467e-01
-2.32184865e-02
1.37506798e-01
8.12773630e-02
-9.72943902e-02
7.24938586e-02
1.56612948e-01
-1.54974191e-02
9.22074988e-02
-1.18202746e-01
-1.27293356e-02
-1.10614777e-01
-5.66621311e-02
5.89329414e-02
-3.90048772e-02
1.15262598e-01
-3.53551004e-03
-1.04466207e-01
2.15865504e-02
6.97339252e-02
1.27535984e-01
-1.03032487e-02
1.30512476e-01
8.05377439e-02
-1.28810592e-02
-1.39179885e-01
-7.95602947e-02
1.31370157e-01
1.41557250e-02
6.47481829e-02
9.77498591e-02
-5.94300516e-02
5.24183214e-02
-3.27808969e-02
3.11425142e-02
6.45633191e-02
-1.84711174e-03
1.44895643e-01
-1.06091008e-01
-1.19922973e-01
4.98685874e-02
1.58744797e-01
4.52417359e-02
1.16143532e-01
1.59884810e-01
6.33524209e-02
-2.20625456e-02
-4.51101847e-02
-1.01420255e-02
1.17093079e-01
5.50032258e-02
-1.02439471e-01
-5.18542482e-03
1.39686465e-01
-4.61784340e-02
-2.39763614e-02
7.19705075e-02
-7.07047805e-02
-9.32106525e-02
1.53148890e-01
8.20828453e-02
1.56539679e-01
4.65467460e-02
1.47220585e-02
-9.39285010e-03
-1.13313515e-02
-9.15619507e-02
-7.98849687e-02
-7.64733702e-02
1.62198916e-01
3.18377744e-04
7.25900382e-03
6.41963631e-02
1.76219351e-03
7.65810832e-02
-7.77646452e-02
1.31661996e-01
1.70783382e-02
-4.84230220e-02
-7.66938105e-02
5.77842444e-02
1.14755653e-01
1.43768117e-01
2.33788136e-03
9.14336070e-02
-6.31982982e-02
1.19994722e-01
9.82496291e-02
-1.34090940e-02
-1.21789817e-02
-2.71118954e-02
-4.11465131e-02
-1.75563630e-03
4.54450771e-02
-2.10276973e-02
1.55773476e-01
6.55631796e-02
2.58751251e-02
-3.48693840e-02
2.01838259e-02
-3.58155034e-02
1.15058966e-01
1.41707867e-01
-4.51356806e-02
-2.51971111e-02
-5.30187674e-02
1.04666673e-01
6.29586801e-02
-7.66222998e-02
1.53057456e-01
-2.04422157e-02
5.81287779e-02
4.83397357e-02
1.00631192e-01
-9.84173492e-02
7.46256933e-02
1.82676483e-02
-1.06174536e-02
-9.21496078e-02
1.34702280e-01
-7.05267712e-02
-6.51238412e-02
7.06213713e-02
-3.97575162e-02
2.36463789e-02
1.18058756e-01
2.34085582e-02
9.35626552e-02
5.47818206e-02
-7.74706751e-02
1.04661345e-01
-1.06419558e-02
4.98671159e-02
-8.31853151e-02
1.19527347e-01
1.16345152e-01
1.06958240e-01
-1.07056074e-01
5.07321283e-02
-1.01800519e-03
-5.91068752e-02
-5.60202748e-02
7.65092149e-02
-5.84465228e-02
-5.59866577e-02
2.77813394e-02
1.35248452e-01
1.07047502e-02
-4.39800173e-02
-4.26611453e-02
1.07450048e-02
7.58516714e-02
-8.21762010e-02
5.50186820e-02
1.62455827e-01
-1.00015007e-01
5.16524166e-02
-6.27343729e-03
7.62087759e-03
6.97963387e-02
6.06636778e-02
1.28649354e-01
1.60204411e-01
1.19812481e-01
1.33339778e-01
-5.16039953e-02
1.44461125e-01
3.07583027e-02
1.36190057e-01
2.71610226e-02
-9.20470133e-02
1.48767903e-01
4.07259213e-03
-1.58321280e-02
4.01846878e-03
2.04286166e-02
-4.64000516e-02
-3.63194384e-02
1.28336266e-01
3.35220732e-02
-6.10562824e-02
-3.11813764e-02
1.12870574e-01
-7.45716169e-02
3.15770656e-02
-2.59899069e-02
9.84099582e-02
-4.71602865e-02
1.37114748e-01
1.37004033e-01
8.58432725e-02
-2.83701234e-02
-4.91064452e-02
4.74174991e-02
-1.30724534e-01
-7.65032172e-02
1.00146204e-01
2.77125579e-03
-4.84393761e-02
-3.19494493e-02
-1.09592393e-01
4.60146135e-03
2.13044938e-02
-8.45395625e-02
1.22059276e-03
1.19278453e-01
6.86728805e-02
1.11631513e-01
4.44955677e-02
-7.67514110e-02
-1.57973040e-02
-1.31221667e-01
7.23910630e-02
-7.37562403e-02
1.18815362e-01
-1.69992354e-02
2.19496936e-02
1.71967134e-01
-5.72844259e-02
-8.23506713e-02
-2.42383708e-03
1.20536461e-01
8.68427381e-02
8.51786509e-02
-8.11581165e-02
-7.09724845e-03
-7.66483843e-02
5.22825420e-02
8.90179873e-02
1.97751354e-02
2.02966724e-02
3.55932824e-02
-8.04684237e-02
1.25149593e-01
-8.05624947e-02
2.85278969e-02
-5.30451871e-02
1.60728139e-03
-1.25498667e-01
7.88620859e-03
6.94713742e-02
-5.26768491e-02
4.49848138e-02
-2.07290016e-02
1.49249002e-01
-7.56839067e-02
-4.53198478e-02
3.17851603e-02
2.49980334e-02
1.26870364e-01
3.44059132e-02
-5.76135032e-02
-9.47427303e-02
-1.10754939e-02
-8.47504288e-03
4.21996042e-02
-6.82990998e-02
6.56247279e-03
8.59727710e-02
-2.27930229e-02
-2.89052948e-02
9.10884440e-02
1.63312058e-03
-3.74255069e-02
1.07469253e-01
8.17237422e-02
4.89380322e-02
2.14746837e-02
9.06078964e-02
2.69764867e-02
5.05431406e-02
-9.10139382e-02
2.18964200e-02
-1.49616316e-01
5.32946475e-02
2.95399074e-02
-3.87068242e-02
-1.63235154e-03
5.31141125e-02
1.73293222e-02
-1.15067298e-02
1.59998864e-01
-1.62011925e-02
7.50034228e-02
-1.22438416e-01
-6.95177391e-02
1.46623561e-02
1.23046882e-01
1.11252986e-01
-8.45034868e-02
5.00758402e-02
7.53893778e-02
1.95455202e-03
-2.12176628e-02
1.49497852e-01
-3.01260408e-02
-1.02267601e-01
9.74910483e-02
-7.50153651e-03
4.22144495e-02
-1.02061450e-01
9.41120759e-02
8.35421383e-02
-1.07669155e-03
-8.58630836e-02
4.59148698e-02
1.32232577e-01
-3.30417529e-02
5.25131524e-02
-4.08747382e-02
1.07290976e-01
-6.47350028e-02
-4.89961682e-03
2.30597071e-02
-9.42524814e-04
-4.28480748e-03
-1.19577408e-01
-3.84328999e-02
-5.82788065e-02
1.68396831e-01
1.24954090e-01
-3.84877212e-02
1.29059076e-01
1.59941867e-01
-7.50151873e-02
3.10589019e-02
-4.42328863e-02
1.83260351e-01
-4.04182151e-02
3.72212231e-02
-5.33528253e-02
7.41833355e-03
-1.36571843e-02
4.70025912e-02
9.02730152e-02
9.06500816e-02
-4.60974947e-02
1.45579547e-01
-3.12535726e-02
-4.04554382e-02
1.32556915e-01
-9.72498208e-02
-1.08095378e-01
4.85992543e-02
-8.06868151e-02
-4.86210473e-02
1.34418070e-01
1.75528854e-01
2.90657151e-02
1.15900449e-02
-1.83694065e-02
1.52361557e-01
6.88006431e-02
-1.04676969e-01
4.01565172e-02
9.17632654e-02
8.56451765e-02
7.28251319e-03
9.04416367e-02
-1.86419729e-02
-8.10258985e-02
-9.28685442e-02
1.12623416e-01
-8.03093985e-02
1.05597280e-01
5.36271418e-03
9.57921147e-02
1.17167547e-01
-1.44513592e-01
-5.11404723e-02
-1.01065576e-01
1.29798934e-01
1.55180112e-01
5.31887487e-02
-1.08963728e-01
5.01251444e-02
-9.01528448e-02
6.47290125e-02
3.93818365e-03
1.70097604e-01
1.54457111e-02
-1.03262067e-02
-9.61588137e-03
1.80417806e-01
-3.32729593e-02
1.10481814e-01
-1.25241444e-01
-1.21170789e-01
-1.53147236e-01
9.95849892e-02
1.37685150e-01
6.47132248e-02
8.59633312e-02
-9.37705263e-02
1.04643539e-01
-2.12730411e-02
-2.50251777e-02
-7.06004426e-02
2.37920955e-02
7.69712031e-04
6.18523657e-02
-1.51224537e-02
-3.90711278e-02
9.82937068e-02
6.22853190e-02
3.38256732e-02
-4.24844623e-02
-1.22932466e-02
1.53541565e-01
-1.11797631e-01
-6.06304556e-02
1.34413943e-01
7.68539086e-02
6.27097115e-02
1.96528241e-01
9.84165445e-02
2.57031284e-02
1.78351477e-02
5.40334545e-02
-1.05072349e-01
8.21167603e-03
9.58303083e-03
5.42746261e-02
-3.25529873e-02
6.91637769e-02
-1.59432441e-02
-7.00948760e-02
5.21627925e-02
-9.24516022e-02
1.52925014e-01
-1.31586447e-01
1.06553584e-01
-6.33530691e-02
3.20350006e-02
-8.07217658e-02
-8.08909833e-02
6.53887689e-02
5.91010367e-03
1.34921670e-01
-8.09824467e-02
1.49578303e-01
1.28304109e-01
-1.82173606e-02
5.01780808e-02
3.45144905e-02
3.11470665e-02
-2.45402455e-02
8.95135701e-02
-8.69181678e-02
8.16900358e-02
-4.48955707e-02
7.42973983e-02
1.52588710e-01
3.44907939e-02
-7.80960321e-02
1.13677815e-01
1.71447024e-01
-3.15619796e-03
1.71007574e-01
-5.86676970e-02
1.33780777e-01
-1.64314006e-02
-1.11800231e-01
3.01794708e-02
-1.14109874e-01
1.40203148e-01
-1.26184776e-01
-6.46176636e-02
-4.77050105e-03
1.93093553e-01
1.43544078e-01
-5.58144040e-02
3.29569764e-02
1.65231809e-01
-2.67042834e-02
-1.75106302e-01
-1.00348376e-01
6.15078397e-02
-2.02666949e-02
-3.87950428e-02
-8.70223157e-03
-1.02970950e-01
-1.98277347e-02
-6.98475633e-03
1.33617371e-01
-1.26536191e-02
-2.92628724e-03
1.06804654e-01
-1.17492989e-01
-6.89408779e-02
6.64073750e-02
-7.11217299e-02
-4.37605903e-02
-1.81101784e-02
-4.29700874e-02
4.61011082e-02
-6.70893118e-02
3.93904187e-02
4.20947588e-04
-1.49287805e-02
-6.80594370e-02
-1.40694585e-02
2.21178811e-02
5.44132814e-02
-7.28019699e-02
2.22230535e-02
-7.73319229e-02
-7.34133944e-02
-1.48282908e-02
-4.80790436e-02
1.15048159e-02
3.73492576e-02
-2.93814894e-02
-1.72633268e-02
-3.46174017e-02
1.00231702e-02
6.18476421e-02
-6.99882135e-02
1.53709119e-02
5.33095300e-02
5.18042967e-02
-6.58918768e-02
-1.77487377e-02
-2.23965421e-02
4.91298959e-02
-6.33134767e-02
-9.56405923e-02
-5.49439751e-02
2.21529417e-02
7.10944906e-02
-6.20145723e-02
-6.88251480e-02
6.26211092e-02
4.40910980e-02
1.70575809e-02
-6.27067545e-03
-1.08264938e-01
1.36765083e-02
-8.48525316e-02
-6.21579029e-02
-8.26051757e-02
2.27360185e-02
6.64812922e-02
2.32549682e-02
4.26093414e-02
3.15879332e-03
2.15623789e-02
-9.58091766e-03
8.33385903e-03
6.00660592e-02
-7.53639266e-03
-5.96240014e-02
-4.42449525e-02
5.90835139e-02
1.94484331e-02
-5.20756766e-02
-7.77117983e-02
1.04500977e-02
-3.60090099e-02
4.23577167e-02
-3.21144089e-02
-1.27024027e-02
4.42674011e-02
-1.06204934e-01
-3.87785472e-02
5.93267195e-02
2.81783752e-03
-5.59909344e-02
-2.99685504e-02
-6.95930943e-02
-7.93581903e-02
-8.73460472e-02
-8.86990130e-03
2.20126510e-02
-7.42601752e-02
2.25034226e-02
-2.42447853e-03
-4.57127541e-02
-3.09965666e-02
-7.33807608e-02
-7.94184208e-02
2.85299588e-02
-1.97940711e-02
5.76864071e-02
-1.39745604e-02
-3.84197757e-02
-9.98646468e-02
-1.02543071e-01
-8.03873911e-02
-4.44716476e-02
5.58278814e-04
-5.88247292e-02
-4.69275676e-02
4.54036370e-02
2.97207031e-02
-3.58268223e-03
5.56568056e-03
4.52209488e-02
-6.59143925e-02
-7.15386197e-02
4.75783087e-02
-1.01388060e-03
4.56808284e-02
-2.11251266e-02
-8.81019533e-02
-5.60571849e-02
1.87177416e-02
-5.13687693e-02
-2.43427921e-02
1.64150801e-02
-6.53429106e-02
-4.14845869e-02
-3.93220410e-03
3.05284131e-02
2.64395513e-02
-4.45212126e-02
-4.97521833e-02
-1.97907127e-02
-4.96850312e-02
-2.49395799e-02
-7.01058507e-02
-3.05308029e-02
-1.13156708e-02
4.25443575e-02
-7.48076364e-02
-8.72371867e-02
-1.02182329e-01
-6.26165941e-02
-8.91070464e-04
-2.54446119e-02
-8.49846303e-02
-8.34129974e-02
-2.79781763e-02
-2.42570993e-02
-6.01578737e-03
-4.49182801e-02
-2.71197055e-02
-1.78629830e-02
-3.49124484e-02
-5.21963835e-03
-8.42144564e-02
1.11171886e-01
1.55687973e-01
7.37618059e-02
6.35916181e-03
1.56665280e-01
-9.57550928e-02
-3.71923111e-02
1.27564788e-01
6.23608604e-02
-6.11676555e-03
-2.87438761e-02
-3.26658227e-02
1.41789779e-01
-1.09891772e-01
-8.19415897e-02
5.53028062e-02
3.45354043e-02
-5.12371249e-02
1.91111285e-02
1.17380537e-01
3.79831195e-02
1.00418106e-01
8.60371664e-02
1.05175152e-01
4.82042730e-02
-1.02887027e-01
-7.18736425e-02
-4.93193083e-02
1.03530020e-01
3.13349813e-02
-7.80113935e-02
6.37186542e-02
-5.26611321e-02
9.57967043e-02
3.30877453e-02
1.64949059e-01
4.61110249e-02
-9.80409905e-02
-6.27461523e-02
-1.16584655e-02
6.96580037e-02
1.01218775e-01
-8.20211396e-02
6.89986870e-02
-2.11479869e-02
8.76384694e-03
7.16711134e-02
-2.05948073e-02
-6.87706321e-02
3.79901603e-02
-4.96479906e-02
-3.61713096e-02
3.28329802e-02
1.91227952e-03
6.54749125e-02
1.03425413e-01
-9.55499802e-03
-5.01325401e-03
-8.68944153e-02
3.94837558e-03
1.09341338e-01
4.79010344e-02
6.42652065e-02
8.01119022e-04
-1.49726728e-03
1.16673045e-01
1.02755807e-01
-7.52469227e-02
1.46624044e-01
1.11112952e-01
-7.16403499e-02
-6.27866667e-03
6.84578642e-02
3.16511765e-02
2.18048366e-03
2.33969279e-02
1.41188592e-01
3.80952619e-02
4.39523812e-03
-4.48415466e-02
-5.05211540e-02
3.17512490e-02
1.25077218e-01
-2.10037269e-02
9.69698429e-02
7.74565339e-02
-2.93714888e-02
2.33956659e-03
-1.74099132e-02
4.49065715e-02
1.37278549e-02
4.09238003e-02
-9.99209657e-02
1.07120290e-01
1.36939839e-01
1.08398639e-01
-2.07754038e-02
3.89173478e-02
1.44133687e-01
-4.26050797e-02
-1.95986349e-02
4.26176637e-02
3.09894085e-02
-9.79039744e-02
1.32060751e-01
9.34195146e-02
-6.29741624e-02
8.68444592e-02
-6.53372798e-03
4.15254273e-02
1.08317994e-01
-4.73776273e-02
9.85721052e-02
2.97427084e-02
-9.83111039e-02
9.51643735e-02
-4.16736826e-02
-7.61417150e-02
1.29204780e-01
3.26397903e-02
1.67930081e-01
1.41587302e-01
1.34217739e-01
1.08226128e-01
-6.41307235e-02
1.35154665e-01
-2.55281455e-04
1.30698740e-01
3.12117953e-02
-7.04807416e-02
6.75174221e-02
-9.28221121e-02
1.66250542e-02
5.55782020e-02
-1.48396948e-02
-6.34283945e-02
-3.84064019e-02
1.60645083e-01
8.17995295e-02
5.24209253e-02
1.15299694e-01
1.27939627e-01
2.66942121e-02
2.87048575e-02
-8.67131650e-02
2.28756536e-02
-4.96881753e-02
6.28906414e-02
6.60372227e-02
1.08257934e-01
-9.12891999e-02
-1.47659108e-01
2.14510094e-02
-7.45621510e-03
-1.31348427e-02
1.40897810e-01
6.67361096e-02
-7.45112225e-02
4.53607179e-02
-3.51670794e-02
9.02372077e-02
-1.97973773e-02
-1.53896809e-01
8.71804431e-02
8.76824781e-02
1.28017947e-01
3.18684205e-02
1.81540728e-01
-2.74468195e-02
-2.31539086e-02
-1.20155260e-01
5.28696515e-02
-3.67317256e-03
7.23458156e-02
2.76986118e-02
1.45605624e-01
2.02585742e-01
-4.88805324e-02
2.64554657e-02
-6.38441008e-04
1.58072427e-01
9.65603441e-02
7.00906590e-02
-5.86738326e-02
2.57118940e-02
-4.74833399e-02
1.16526894e-01
1.50893465e-01
6.40518963e-02
1.34311691e-01
-6.97682127e-02
-7.82445073e-02
1.23658471e-01
-1.61883456e-03
1.00636594e-01
-8.12546685e-02
-1.12861358e-01
-4.81772982e-02
1.29665554e-01
3.89487147e-02
8.91573429e-02
1.96942821e-01
-1.45830601e-01
1.61115184e-01
-1.07849605e-01
1.47773791e-02
-5.28750941e-02
7.16613531e-02
8.39308575e-02
3.03084943e-02
-4.87885550e-02
-9.70433131e-02
9.09762084e-02
6.67161541e-03
6.10498600e-02
-9.40741673e-02
-1.64789129e-02
3.88212018e-02
-7.88984671e-02
-6.25289232e-02
9.94100422e-02
1.89338662e-02
-5.03414944e-02
2.02881858e-01
7.93790966e-02
4.25109342e-02
-9.24686641e-02
4.77344282e-02
9.44892410e-03
2.08504852e-02
-7.03659579e-02
-7.66532198e-02
-1.03795953e-01
7.44479224e-02
-8.43716115e-02
-7.38822445e-02
9.68720689e-02
-1.22001640e-01
1.33652836e-01
-1.25291064e-01
1.69742465e-01
-9.08923224e-02
-1.68804508e-02
-5.96018024e-02
2.93313954e-02
1.76290330e-02
7.34303147e-03
9.90885943e-02
-1.43941998e-01
3.22635062e-02
3.99278067e-02
6.06395602e-02
3.45173734e-03
1.51214421e-01
-7.14453077e-03
9.49192699e-03
7.53720924e-02
-5.84898070e-02
6.19804822e-02
-8.33683386e-02
1.03588000e-01
2.60213669e-02
5.23772463e-02
-1.02268003e-01
1.26934469e-01
8.24599564e-02
8.32240805e-02
8.49075764e-02
-8.90810192e-02
4.90735322e-02
-1.43884823e-01
-1.04994208e-01
-2.19676979e-02
-1.73975136e-02
3.31995338e-02
-1.05140820e-01
1.35185877e-02
-8.14117864e-02
1.69294432e-01
1.79604933e-01
1.87117234e-02
1.90151632e-01
8.47926214e-02
-1.43069908e-01
-5.33598252e-02
-1.01069897e-01
1.41825601e-01
-1.25148490e-01
9.45184603e-02
3.34659480e-02
2.42895614e-02
-7.40132332e-02
1.20713830e-01
1.91988930e-01
-9.65811196e-04
8.32229257e-02
1.05850048e-01
-9.28221121e-02
-7.99584165e-02
1.71494465e-02
1.70844153e-01
6.50227815e-02
3.42729539e-02
1.54051259e-01
8.17399099e-02
-3.60578939e-04
-2.17338204e-02
1.02121316e-01
8.76403153e-02
8.99802819e-02
-1.04072109e-01
-1.15694739e-01
1.30432248e-01
-1.34209514e-01
-7.14386553e-02
9.80627611e-02
-2.94975135e-02
6.83254376e-03
2.50356104e-02
6.78220168e-02
9.08765867e-02
-2.73205936e-02
9.75952595e-02
9.98942852e-02
6.81930035e-02
-5.77237904e-02
2.06987076e-02
8.60589556e-03
1.41121015e-01
1.70965511e-02
1.70578267e-02
6.14936352e-02
-4.81025465e-02
8.90505165e-02
-1.06892861e-01
6.54972941e-02
3.81354541e-02
-6.44640326e-02
-6.24315254e-02
-3.68174314e-02
4.74608690e-02
1.01872869e-01
-2.84216553e-02
8.36460143e-02
-1.12405308e-01
9.11168233e-02
1.39798641e-01
-6.18382841e-02
-1.04902945e-02
3.39435749e-02
9.12868883e-03
4.36849445e-02
6.77853497e-03
-2.35406589e-02
4.31274138e-02
4.67658676e-02
5.86322248e-02
-9.05202702e-02
2.00496241e-02
3.05900667e-02
-2.63663195e-02
5.71013689e-02
-8.51986334e-02
-5.52789271e-02
-7.69918114e-02
7.10715428e-02
7.90747702e-02
-5.75114554e-03
4.15316336e-02
1.02433108e-01
4.78055440e-02
-9.91976485e-02
2.25134995e-02
-5.55931125e-03
6.06831796e-02
-1.02886952e-01
-2.92949728e-04
-2.87858844e-02
1.29497588e-01
-5.07722050e-02
-9.31117311e-02
9.12967920e-02
-6.33398537e-03
4.10376154e-02
2.18643099e-02
2.82095615e-02
6.99653253e-02
-1.56780276e-02
-1.01223346e-02
1.49242833e-01
-9.00493469e-03
2.19346303e-02
-6.25131950e-02
4.89108497e-03
2.44051050e-02
1.37537613e-03
-1.14559442e-01
5.18208407e-02
2.34616641e-02
2.24769153e-02
-2.96770260e-02
1.28603736e-02
-1.83366314e-02
-6.17758334e-02
2.63933241e-02
1.14493504e-01
-3.40801955e-04
6.47205040e-02
2.46176459e-02
2.93876957e-02
5.83105609e-02
-5.64862452e-02
7.18213692e-02
1.71481669e-01
2.71742865e-02
7.61309713e-02
6.19723368e-03
-5.13016656e-02
9.40982550e-02
-6.06000610e-02
9.03097838e-02
4.90381047e-02
1.57019228e-01
6.86208755e-02
-1.13323256e-01
8.28040168e-02
3.93462442e-02
7.88539797e-02
-1.28279235e-02
-5.22312224e-02
8.08785483e-02
-3.71372662e-02
3.43417786e-02
-8.45241081e-03
1.76946744e-02
-8.07452202e-02
-6.54883534e-02
7.06964955e-02
1.04712747e-01
-1.91391185e-02
-8.60315096e-03
-4.54582507e-04
3.46697494e-02
3.40954354e-03
-6.41243905e-03
1.20238259e-01
-9.43209678e-02
6.13569394e-02
6.08970150e-02
2.20456868e-02
1.21391140e-01
9.90710035e-02
2.00594161e-02
-6.84516924e-03
1.62614122e-01
3.33361607e-03
-7.01849610e-02
6.21153861e-02
1.02529280e-01
7.16211647e-02
-5.34780435e-02
-1.33678034e-01
4.06538770e-02
2.93605458e-02
-9.57756862e-02
1.32081434e-01
-1.03003249e-01
-2.10435633e-02
4.72519659e-02
1.60475448e-02
6.46277294e-02
3.85849327e-02
7.28474408e-02
1.40237778e-01
7.54840970e-02
-2.42961142e-02
-4.50278632e-02
2.42498331e-02
6.09075278e-02
6.35877848e-02
1.07504008e-02
-2.74183531e-03
-8.57283399e-02
1.04186265e-02
-9.67355967e-02
4.46404815e-02
2.24257354e-02
-4.91459854e-02
-1.21032922e-02
-9.34958830e-02
9.32512730e-02
2.29050685e-02
-3.99067849e-02
1.18308909e-01
-3.19560291e-03
2.26663966e-02
8.76803845e-02
8.53817153e-04
-5.49817085e-02
6.27915608e-03
-7.96448290e-02
-5.15043177e-02
-2.44099484e-03
7.58153722e-02
9.56252813e-02
1.43610194e-01
-3.30370478e-02
-3.59370597e-02
3.00507080e-02
-5.72184548e-02
-2.40391959e-02
1.26478896e-01
-3.40293199e-02
-3.35999094e-02
7.87467360e-02
5.94437383e-02
7.82325417e-02
-1.25571704e-02
3.77745293e-02
-1.63399410e-02
-5.51950596e-02
-3.82492715e-03
1.09779805e-01
-1.01584315e-01
-7.23785609e-02
-2.25683264e-02
7.48437122e-02
-7.38995075e-02
-1.72539521e-02
2.15794016e-02
-3.65013108e-02
1.17200138e-02
-3.25715542e-03
-7.31931329e-02
1.14308685e-01
9.12648812e-02
5.77371102e-03
6.12113029e-02
-5.22405729e-02
3.64793874e-02
-5.13654388e-02
4.71700542e-02
-2.06762534e-02
-1.52485548e-02
-3.02922949e-02
-4.83347923e-02
-7.69948736e-02
9.95029584e-02
1.33043468e-01
2.82650888e-02
3.23332995e-02
3.41718867e-02
3.24259996e-02
-6.86411932e-02
9.10047069e-02
1.35697007e-01
-7.77199641e-02
3.66326608e-02
6.00944906e-02
1.30614996e-01
6.62198812e-02
2.27248892e-02
1.49610177e-01
1.48528069e-01
4.17867713e-02
-1.32600572e-02
-7.65787289e-02
1.90694742e-02
1.28682941e-01
1.29254032e-02
4.22817729e-02
1.34583697e-01
8.89518261e-02
4.47204560e-02
-9.63285491e-02
1.27704605e-01
-3.55320494e-03
4.27877158e-02
-6.97246492e-02
-6.95104152e-02
1.65281445e-02
-3.14725004e-02
-1.58288274e-02
7.34582022e-02
-1.83732212e-02
-6.55481890e-02
4.92894612e-02
2.49852557e-02
4.03783135e-02
1.60846319e-02
5.44354953e-02
4.32323925e-02
-3.02221421e-02
-5.76240644e-02
-1.10011429e-01
1.10626638e-01
-2.71700080e-02
1.41266519e-02
2.11237445e-02
1.06621929e-01
-1.19239987e-04
-3.06482054e-02
-8.26680213e-02
-8.44356120e-02
-8.52612033e-02
3.01950704e-02
1.36626810e-01
-1.31104022e-01
-4.07183133e-02
-1.23041265e-01
1.47726730e-01
5.85386865e-02
-7.03839213e-02
7.14455694e-02
1.01581000e-01
-3.01340930e-02
1.04441546e-01
-5.90943964e-03
-6.62140176e-02
8.79417360e-03
-5.70952110e-02
8.23627189e-02
-9.93386507e-02
1.71160340e-01
4.21616472e-02
1.89170837e-02
1.14368729e-01
-1.15210861e-01
-4.23963442e-02
-1.14058524e-01
1.69172481e-01
2.99717952e-02
2.41156351e-02
-1.00641549e-01
1.03490889e-01
-1.31809592e-01
1.55732453e-01
1.40000153e-02
2.42792685e-02
-1.49675051e-03
-1.14386819e-01
-5.11040352e-02
1.57715932e-01
-4.85958494e-02
9.26763415e-02
-5.81266657e-02
1.97630636e-02
-1.24477819e-01
9.12584085e-03
1.12282589e-01
1.36184460e-02
1.68767482e-01
-1.79643452e-03
1.37120828e-01
-1.05871014e-01
-6.55435165e-03
-5.79747073e-02
7.42824748e-02
-1.52612235e-02
3.70940082e-02
-8.70320946e-02
-9.34315547e-02
-3.03749717e-03
6.40039146e-02
1.37718022e-01
-1.50783453e-02
1.00780174e-03
1.07525818e-01
-1.21654630e-01
-7.83884618e-03
-1.62155908e-02
1.18024470e-02
1.63454539e-03
8.10994655e-02
-4.15588282e-02
8.84876251e-02
-1.04152076e-01
-9.73874424e-03
-8.44720080e-02
9.12676901e-02
-4.71831411e-02
9.06811038e-05
-6.51664585e-02
5.55500127e-02
-1.05660900e-01
1.98099446e-02
8.33623856e-02
1.12481900e-02
7.97820389e-02
-9.97979343e-02
1.21879868e-01
-2.46202257e-02
1.73072387e-02
1.73334475e-03
-5.66131324e-02
1.58359262e-03
5.23113869e-02
1.04918405e-01
1.76236443e-02
1.26316443e-01
1.32718816e-01
3.48595902e-02
4.62037176e-02
1.71227559e-01
1.33084610e-01
7.31096193e-02
6.01504073e-02
-9.54331830e-02
7.78132230e-02
-4.16304963e-03
1.08279377e-01
2.09448300e-02
2.28618700e-02
-2.13775667e-03
1.11546963e-02
1.38798878e-01
1.32130506e-02
9.98930559e-02
-7.77605250e-02
-1.30886063e-02
-1.05366617e-01
-8.74041319e-02
-5.63817881e-02
-1.20361559e-01
7.66993761e-02
-1.37700781e-01
-1.11455388e-01
-1.17738068e-01
1.18083470e-01
6.78512175e-03
-9.26460177e-02
9.48307514e-02
-2.55856346e-02
-1.21425048e-01
-1.19829729e-01
-8.53325799e-02
7.83922449e-02
-4.73203249e-02
1.57762226e-02
8.09676796e-02
-1.29188776e-01
2.03999318e-02
1.14403190e-02
1.02350228e-01
-1.02852574e-02
-6.73487559e-02
6.28568754e-02
-2.43951194e-02
-4.55811135e-02
-6.17563538e-03
1.32452562e-01
9.27861556e-02
6.70013055e-02
2.78666280e-02
8.41826051e-02
-8.88652951e-02
-9.43903625e-02
1.18753798e-01
6.24449644e-03
3.01599950e-02
3.72572206e-02
-1.30427286e-01
3.42863873e-02
-6.96533993e-02
-7.25784898e-02
4.15513106e-02
-3.45486999e-02
1.32593447e-02
6.81340620e-02
9.36700329e-02
8.33493769e-02
3.51306610e-02
1.32384807e-01
5.14208563e-02
-3.42850722e-02
-1.09033652e-01
-7.84041807e-02
-1.12829842e-02
1.35692909e-01
8.39221925e-02
-3.93737219e-02
5.46448231e-02
-7.24420696e-02
9.75695252e-02
1.89731140e-02
5.22604734e-02
4.35514450e-02
-8.20236877e-02
-8.02146122e-02
2.21534129e-02
3.09352446e-02
8.21020603e-02
-1.06301624e-02
9.52076241e-02
-4.53043543e-02
1.89937875e-02
-1.34673696e-02
8.22192430e-02
-3.04375514e-02
4.04501408e-02
3.68547626e-02
-5.85047640e-02
-3.10018752e-02
9.62419212e-02
1.43363148e-01
1.36498297e-02
2.93302815e-03
-5.13728112e-02
-9.87058207e-02
-7.49022663e-02
5.33518307e-02
3.80348377e-02
-1.40012642e-02
-7.67040402e-02
-3.98002006e-02
1.15669362e-01
5.65310679e-02
1.40485745e-02
1.42150462e-01
4.83039431e-02
1.33368876e-02
3.18671279e-02
1.20105721e-01
2.72562075e-02
1.50188627e-02
-9.08615068e-02
8.02045539e-02
-7.27710947e-02
-4.68293903e-03
-5.59798107e-02
1.47231529e-03
5.88710001e-03
6.61520958e-02
-1.38263628e-02
1.52165501e-03
-2.28568390e-02
6.98824460e-03
-5.19948788e-02
-1.16577642e-02
1.13703825e-01
3.35216485e-02
1.32064611e-01
-1.05828568e-01
-2.07477789e-02
1.30480930e-01
1.08781680e-02
-7.40962774e-02
-1.07102026e-03
9.06213447e-02
-9.01317373e-02
-5.62227778e-02
7.33485669e-02
-3.60463932e-02
-7.73418918e-02
8.04285184e-02
1.55611843e-01
2.56674029e-02
-6.14793366e-03
2.70776600e-02
6.57231435e-02
7.51483515e-02
6.79213256e-02
4.76137772e-02
4.38016653e-02
-4.33597416e-02
2.36402303e-02
-5.34591004e-02
3.50285918e-02
3.80198173e-02
-6.45228401e-02
7.93528371e-03
1.53607652e-01
5.51311374e-02
9.62429568e-02
-1.08473590e-02
7.58598819e-02
1.34715170e-01
4.73752804e-02
3.62193026e-02
-9.14462507e-02
1.24030925e-01
5.09806871e-02
1.85143780e-02
1.16271876e-01
-1.48863960e-02
-4.94590774e-02
8.97150114e-02
1.06627040e-01
-2.65368242e-02
6.88817212e-03
5.86649440e-02
1.10004522e-01
-3.79682928e-02
-5.18620163e-02
4.19629626e-02
1.28400356e-01
-6.46967739e-02
3.15857194e-02
1.25525624e-01
-2.25190409e-02
1.09701119e-02
-4.27871058e-03
-1.45858172e-02
-8.65442678e-02
-1.58860907e-02
7.03305453e-02
1.31136015e-01
4.53624465e-02
4.02757637e-02
7.35720946e-03
9.05766152e-03
3.72073315e-02
1.80234835e-02
-6.69697905e-03
1.30482286e-01
-2.55610421e-02
3.08917952e-03
1.33655041e-01
1.37110604e-02
-6.23067915e-02
7.37278676e-03
-1.88994594e-02
-5.80525994e-02
3.92917320e-02
6.93152249e-02
1.29194990e-01
5.89396842e-02
1.72393001e-03
-1.19715258e-01
-1.05486169e-01
2.67645605e-02
1.16776854e-01
-1.09999580e-02
1.36587983e-02
-1.06334966e-02
-3.93971875e-02
-8.53850227e-03
1.13404572e-01
1.12868041e-01
-2.86886767e-02
-6.39568595e-03
-1.40433326e-01
1.88545495e-01
2.66619655e-03
4.18038890e-02
-2.26598606e-02
1.66676827e-02
-3.74867693e-02
3.30597199e-02
2.22981237e-02
1.03172794e-01
2.85149999e-02
-2.25138124e-02
1.43816918e-01
-1.32339031e-01
-2.24981979e-02
-1.52698541e-02
1.10784531e-01
-2.25272980e-02
2.06280649e-02
-8.76857117e-02
3.38260047e-02
4.69157100e-02
2.39055473e-02
6.88379556e-02
-5.95170297e-02
-5.25383949e-02
1.27245903e-01
-1.88877359e-02
-6.11766567e-03
-2.66149398e-02
1.02713212e-01
3.80068198e-02
1.94995120e-01
1.35162488e-01
4.01137676e-03
-4.24785800e-02
2.77606137e-02
-1.05640382e-01
-1.25847962e-02
3.18873003e-02
6.82981461e-02
-6.97775781e-02
-1.38479713e-02
-7.64265582e-02
-9.55284685e-02
-8.04608315e-03
4.49183844e-02
4.96508293e-02
-1.31279202e-02
6.36729077e-02
-3.08272671e-02
-2.77765039e-02
3.32178585e-02
5.50983241e-03
8.30145255e-02
1.34078816e-01
1.42379999e-01
2.15735310e-03
5.67806438e-02
7.89975822e-02
-8.49499702e-02
6.54112548e-02
1.14963435e-01
-4.33882326e-02
-7.93161541e-02
8.87233466e-02
-7.09224790e-02
1.07554838e-01
-2.15043481e-02
-8.75450112e-03
4.20444878e-03
-2.84426250e-02
-3.01609300e-02
-4.13834117e-02
8.42118189e-02
8.36686939e-02
4.11009155e-02
-7.67415091e-02
-3.48911025e-02
-7.70550668e-02
-9.36911777e-02
-4.85481545e-02
2.13261805e-02
1.25586912e-01
-7.56927207e-02
-9.70806852e-02
-2.25417782e-02
5.53860478e-02
1.66411564e-01
3.60396951e-02
8.66070613e-02
2.72915401e-02
6.85690669e-03
-6.08483218e-02
6.14682259e-03
4.89280298e-02
-5.02105393e-02
-7.18065770e-03
9.19256918e-03
3.81624587e-02
-1.90671291e-02
4.77091037e-02
1.38549179e-01
4.10625786e-02
-8.52981880e-02
1.47020578e-01
-9.40119848e-02
-5.67658395e-02
9.52772275e-02
-4.49716039e-02
-1.59138083e-01
-8.68001953e-02
-6.14564456e-02
-3.41645703e-02
8.97549763e-02
1.10026874e-01
1.06675560e-02
5.38365245e-02
-1.53095424e-01
1.62640825e-01
-6.17553741e-02
-1.29645318e-01
1.73347592e-02
-9.55973752e-03
2.58435141e-02
6.58101141e-02
6.43202364e-02
-4.41346131e-02
-8.52742866e-02
-1.50862411e-01
7.18196705e-02
-1.33397609e-01
8.04773867e-02
-3.76291573e-02
1.75707638e-02
1.97297543e-01
-1.41738176e-01
4.10159640e-02
-1.12606838e-01
5.24879768e-02
2.64246706e-02
2.32897345e-02
-1.12505540e-01
1.15967937e-01
-2.77485652e-03
8.47166702e-02
9.91410613e-02
1.26503661e-01
7.40055591e-02
2.38197204e-02
-8.98860395e-03
6.57767206e-02
2.14618840e-03
1.30774051e-01
9.19430796e-03
-3.70098613e-02
-4.49524783e-02
4.20831293e-02
1.46182865e-01
6.77070245e-02
1.32218078e-01
-1.39211953e-01
7.59030581e-02
-1.52563170e-01
-1.72917638e-03
-4.17665802e-02
1.13670409e-01
1.19379148e-01
1.21006310e-01
-4.27792929e-02
-1.40595818e-02
9.11752731e-02
-6.65614731e-04
6.00517727e-02
-2.86507625e-02
-3.47415246e-02
1.01680987e-01
5.29085845e-03
-4.02967930e-02
2.43705772e-02
5.00415452e-02
5.67924343e-02
1.23111725e-01
6.50343373e-02
2.75750812e-02
-7.00048879e-02
-3.87364835e-03
3.66518870e-02
1.05473109e-01
-2.24529654e-02
-8.96954909e-02
-7.72608817e-02
1.23608314e-01
1.38751939e-02
-6.89579770e-02
8.70514363e-02
-8.10799301e-02
7.53196031e-02
-5.53635657e-02
1.92058846e-01
-8.79807249e-02
1.20753340e-01
-1.38248593e-01
-1.78660993e-02
1.16451114e-01
1.27523601e-01
1.80291206e-01
-1.54136688e-01
1.40798584e-01
4.31321710e-02
-7.73140565e-02
1.29180243e-02
6.47183731e-02
5.46938144e-02
-1.49872317e-03
1.11222744e-01
4.82283160e-02
2.29435172e-02
-4.58997563e-02
1.79967079e-02
4.98364121e-02
6.41995342e-04
-5.62688671e-02
5.32908104e-02
1.63691685e-01
2.62704100e-02
8.92879963e-02
-1.27329946e-01
4.62767072e-02
-1.57052949e-01
4.31375299e-03
4.31757942e-02
-3.61020640e-02
5.34443371e-03
-7.48108979e-03
-4.05174717e-02
-5.52493297e-02
1.74380720e-01
1.45179182e-01
-3.48042250e-02
4.05579358e-02
8.97849649e-02
-1.14640750e-01
-9.25836563e-02
-3.62862125e-02
1.17631346e-01
-9.47992504e-02
5.89419417e-02
1.64685994e-02
-8.83494616e-02
-8.87715287e-05
1.24384299e-01
7.05648735e-02
2.68148463e-02
-1.76217332e-02
1.03592895e-01
-1.20037787e-01
-5.07641435e-02
1.12559997e-01
-1.29095465e-01
-1.55384868e-01
-7.38122240e-02
-1.24682292e-01
-1.37963146e-02
3.25811245e-02
2.49844585e-02
-1.22164346e-01
1.35355454e-03
-1.22398883e-01
1.23165876e-01
-8.85138009e-03
-7.22311661e-02
1.26933530e-01
7.77330576e-03
7.00106919e-02
-2.61942744e-02
5.27890064e-02
-8.86753551e-04
-1.06148742e-01
-7.38515481e-02
9.57164690e-02
-9.75751784e-03
1.58739850e-01
7.73627236e-02
8.35663378e-02
1.77288920e-01
-1.34174794e-01
-8.76066238e-02
-4.34104726e-02
1.21751457e-01
1.35516271e-01
9.98817384e-02
-1.14971086e-01
1.28739938e-01
-3.18542980e-02
5.27171865e-02
1.32738948e-01
2.38743946e-02
-2.17613894e-02
-1.10969193e-01
-1.05183236e-01
9.28946733e-02
-1.40847415e-01
9.84928757e-03
-8.13353993e-03
1.74375270e-02
-9.30549055e-02
7.84226358e-02
1.72547564e-01
7.86032155e-02
8.33984315e-02
-1.54756427e-01
1.07898861e-01
-4.16854583e-02
-1.30400369e-02
1.79671701e-02
-1.30723938e-02
1.06451824e-01
2.61947885e-03
-1.27202109e-01
-3.57807204e-02
2.54440047e-02
7.69231990e-02
1.33313224e-01
-1.17490977e-01
-1.26275271e-01
3.80661339e-02
-6.35014754e-03
-9.61563885e-02
6.36931360e-02
5.80685921e-02
-1.97536349e-02
6.92131594e-02
-2.90820561e-02
5.02951723e-03
2.65485216e-02
8.34848657e-02
-5.05522750e-02
-1.49230883e-02
2.60515846e-02
2.73106247e-02
-6.45243302e-02
9.64968950e-02
1.88747626e-02
-1.21085733e-01
-4.23827721e-03
-5.29267341e-02
1.17340788e-01
-9.81145129e-02
7.86519274e-02
1.15785534e-02
4.24313210e-02
1.24322604e-02
-7.23524466e-02
1.07638225e-01
1.30491167e-01
1.77389026e-01
-3.43631692e-02
1.57412350e-01
1.63002193e-01
-3.93000059e-02
1.84183419e-02
1.38862312e-01
6.83560818e-02
-2.10157391e-02
8.45988765e-02
-9.92114320e-02
1.30036443e-01
8.01802031e-04
-2.38214564e-02
9.59960297e-02
1.47389458e-03
-5.14573939e-02
-3.37727815e-02
1.71984434e-01
1.45850312e-02
1.63699418e-01
-1.19447462e-01
1.23390831e-01
-1.40461475e-01
-4.80647869e-02
-9.89192538e-03
-4.79614711e-04
1.70489289e-02
-7.90859088e-02
1.02896644e-02
-3.52459103e-02
1.69489652e-01
4.21507359e-02
-4.16961089e-02
8.73500034e-02
9.53062624e-02
-7.59832337e-02
-1.24383904e-01
-7.03695193e-02
1.00495890e-01
-1.14048794e-01
-9.54388932e-04
-5.39253326e-03
-3.50662135e-02
-1.15120523e-01
2.11036280e-02
4.43274751e-02
2.39930116e-02
5.67144677e-02
1.34127796e-01
-7.74289593e-02
-8.22469369e-02
-8.68607387e-02
6.89782724e-02
9.86132119e-03
3.22173946e-02
1.35067016e-01
1.81750596e-01
-6.80755302e-02
5.27464598e-02
9.38075259e-02
5.69613613e-02
1.39369860e-01
-1.00167945e-01
-1.15565747e-01
1.01245485e-01
-9.30060148e-02
6.54220421e-05
1.83725525e-02
-1.06563009e-02
-3.84869277e-02
7.81511888e-02
6.30751923e-02
1.64860830e-01
5.56278415e-03
1.17079593e-01
1.16889372e-01
7.89844170e-02
-6.42220080e-02
4.75886948e-02
7.61290342e-02
1.21113032e-01
6.98160082e-02
-4.43499647e-02
-3.01753748e-02
-1.20303119e-02
9.73626450e-02
-4.87207286e-02
1.28770560e-01
2.43465956e-02
4.22614142e-02
-2.68109087e-02
3.66933942e-02
1.22367330e-01
4.22207415e-02
4.47450019e-02
-1.22529063e-02
-6.77755773e-02
1.47374496e-02
1.53938130e-01
-4.46833111e-02
1.06202159e-02
2.14019436e-02
-3.99226658e-02
3.42130810e-02
1.99364666e-02
-2.34679114e-02
8.27886686e-02
1.01308070e-01
-2.96671083e-03
-1.38468510e-02
-5.62552661e-02
1.60005838e-02
6.58237785e-02
2.13207323e-02
3.37212235e-02
-9.43752658e-03
-7.31464922e-02
-1.40279171e-03
9.69921872e-02
-1.13274995e-02
6.07361682e-02
-4.98383641e-02
-5.48730977e-02
-1.28031159e-02
8.81572887e-02
1.54686775e-02
-7.15499818e-02
-1.13975570e-01
1.30069241e-01
5.23622297e-02
7.67225623e-02
1.28017673e-02
-2.89153717e-02
4.82142456e-02
9.20139179e-02
-5.70432320e-02
1.13648281e-01
6.91567436e-02
6.58781752e-02
3.94269563e-02
-2.09100433e-02
1.08825594e-01
-6.85682967e-02
1.32694542e-01
-7.96749219e-02
1.09761752e-01
3.61995511e-02
7.88015425e-02
-3.99499666e-03
3.23472954e-02
4.52128351e-02
-7.46149123e-02
6.10223562e-02
1.13515057e-01
-8.20833743e-02
-2.47887205e-02
4.70348783e-02
6.16515316e-02
1.02440109e-02
6.11442626e-02
-3.78269218e-02
5.19591607e-02
6.07610978e-02
-1.49541115e-03
7.58972019e-02
2.96471566e-02
-1.04510829e-01
-7.36429868e-03
-8.57168064e-03
6.08177716e-03
1.14204220e-01
-6.22252971e-02
8.44510868e-02
1.17541693e-01
1.79573551e-01
1.49557233e-01
-1.04185060e-01
3.68968323e-02
-1.37396287e-02
1.17631622e-01
-6.76080287e-02
-5.98716959e-02
1.44202411e-01
-7.90505670e-03
3.88649441e-02
8.50154683e-02
-9.48976260e-03
-6.17628209e-02
3.69060524e-02
6.47312924e-02
7.81920031e-02
-7.79645070e-02
7.23014921e-02
2.85319649e-02
-4.76596579e-02
-2.40285303e-02
-7.95137137e-02
9.24674943e-02
2.53145751e-02
1.56188071e-01
1.50889933e-01
4.20469604e-03
6.08372167e-02
6.58155838e-03
4.97683249e-02
1.48118794e-01
1.62109748e-01
3.54030766e-02
-5.36967665e-02
8.97673666e-02
1.34779453e-01
1.07137384e-02
-8.99154842e-02
-4.38652821e-02
3.90980169e-02
-5.54022864e-02
-5.66734970e-02
1.23290151e-01
-9.98520851e-02
-1.28936619e-01
-1.44577341e-03
6.72513694e-02
5.60410367e-03
3.64606418e-02
9.73338187e-02
3.17558274e-02
9.62442011e-02
-5.56008704e-02
-5.55101372e-02
-5.81283169e-03
6.71046451e-02
1.45818174e-01
2.69775726e-02
2.17449269e-03
-2.40038708e-02
1.19101904e-01
-3.50489095e-02
1.01976752e-01
6.86582327e-02
-3.34569775e-02
-1.92579217e-02
-3.28248702e-02
8.35436955e-03
3.52188535e-02
-3.13062035e-02
5.07916361e-02
-1.18835062e-01
5.31348363e-02
7.03416765e-02
5.22572063e-02
-8.24883729e-02
-4.69472483e-02
-4.49939966e-02
-6.41437396e-02
9.02264472e-03
4.58360091e-02
1.24228790e-01
1.09853797e-01
7.72067979e-02
-2.42532920e-02
-1.03166588e-01
-7.69984201e-02
1.17830358e-01
6.84239715e-02
2.14283913e-02
4.39072587e-02
-2.80111916e-02
1.58273891e-01
1.07238125e-02
-8.76077414e-02
1.90044828e-02
-3.04217786e-02
2.25705914e-02
-1.44490823e-02
6.17934279e-02
-4.77636643e-02
7.37837031e-02
-2.77112108e-02
1.08172111e-01
-8.51219893e-02
2.17181519e-02
-1.26520274e-02
-1.06943898e-01
-1.10309338e-02
-1.66381430e-02
-4.41964269e-02
4.49849740e-02
1.53097752e-02
8.22213143e-02
-1.10384251e-03
-5.22469282e-02
1.29161969e-01
-6.82763234e-02
1.55827012e-02
-3.74619551e-02
-2.49002241e-02
1.11234579e-02
2.10947990e-02
-1.38919307e-02
1.00454450e-01
1.24971248e-01
-4.71345857e-02
-1.76215488e-02
4.98275124e-02
-5.34761101e-02
1.25232302e-02
3.66823040e-02
1.21961541e-01
-2.82887202e-02
3.27096507e-02
-1.07870530e-02
5.25041446e-02
3.89398597e-02
6.52100146e-03
1.73275337e-01
9.54600498e-02
-1.52680576e-02
1.32669113e-04
-8.00617971e-03
-9.20860767e-02
1.28085360e-01
1.19608063e-02
7.60238394e-02
1.04256526e-01
1.85287103e-01
8.97188764e-03
-1.75834056e-02
2.33551618e-02
6.68631569e-02
1.26463711e-01
-4.90355678e-02
5.46135604e-02
1.44022346e-01
2.76378561e-02
-1.16503974e-02
1.49339838e-02
6.76048035e-03
-1.04195122e-02
-2.46229414e-02
1.32019311e-01
7.45339319e-02
-5.45845553e-03
1.49066839e-02
8.63246918e-02
-1.05202660e-01
-8.17251275e-04
-1.15895808e-01
9.07048732e-02
1.28254397e-02
3.80229391e-02
2.47882418e-02
1.17351469e-02
-6.52808622e-02
-1.42012551e-01
5.06205894e-02
1.05582795e-03
-6.69949427e-02
5.03651612e-02
4.34179865e-02
-9.66320112e-02
-7.55156502e-02
-2.87928283e-02
1.11059643e-01
-8.05842807e-04
-9.69724879e-02
2.87561528e-02
8.74557048e-02
5.03634103e-02
1.16395615e-01
1.09633043e-01
-1.40200723e-02
-5.09920344e-02
-5.19030616e-02
1.43463656e-01
-1.13074891e-01
1.16971150e-01
7.81446770e-02
8.56063068e-02
6.77539334e-02
-8.81508067e-02
2.28224136e-02
-8.71040300e-02
7.22435489e-02
6.45778924e-02
1.04440697e-01
1.57026779e-02
1.22779742e-01
-4.54595387e-02
9.96360406e-02
1.36840641e-01
9.37241595e-03
1.15649417e-01
-4.38853651e-02
-1.09477468e-01
1.00551620e-01
1.78418066e-02
1.29631951e-01
2.38342788e-02
-1.19380049e-01
-4.54622284e-02
8.52718279e-02
1.56026542e-01
-9.65804700e-03
8.70085731e-02
-4.22811396e-02
6.93365410e-02
-6.46052659e-02
-8.20469037e-02
-3.82631756e-02
1.66366063e-02
1.34446904e-01
3.39710563e-02
-7.68188164e-02
-1.00196883e-01
1.98729858e-02
1.09125659e-01
1.21799819e-01
-5.99536486e-02
-9.80829298e-02
-2.04480952e-03
-7.94283524e-02
-7.76412860e-02
2.99568530e-02
4.42016795e-02
-3.43683735e-02
9.79595482e-02
6.44146949e-02
-2.66349013e-03
-8.58476385e-02
6.03185855e-02
-3.07174679e-02
1.25225052e-01
-2.46041305e-02
4.20295559e-02
-9.18372273e-02
1.04059927e-01
-4.46112864e-02
-2.13724915e-02
9.16453078e-02
-9.65070128e-02
6.45684525e-02
-5.62099963e-02
1.44552007e-01
-1.11229017e-01
-3.17624807e-02
-1.10714950e-01
-4.87621911e-02
1.00100450e-01
2.53838785e-02
8.93345326e-02
-8.35805163e-02
1.22768387e-01
1.52495921e-01
-1.88855641e-02
1.08501680e-01
1.62529245e-01
3.65880206e-02
-6.15768023e-02
1.93257742e-02
3.65096256e-02
1.11131802e-01
-8.03596452e-02
7.42533505e-02
1.11394420e-01
5.35102524e-02
-5.10549620e-02
3.69118489e-02
1.43256426e-01
3.06140189e-03
8.69574621e-02
-9.64984391e-03
8.45206901e-02
-1.00181140e-01
-1.19699910e-01
6.64771907e-03
-6.82156458e-02
1.20663337e-01
-1.45603672e-01
-1.04708284e-01
4.12527025e-02
1.96822524e-01
8.67811218e-02
9.89707280e-03
1.46741346e-01
6.09758236e-02
2.81541459e-02
3.29406746e-02
6.00883923e-02
1.01242505e-01
-1.29234374e-01
-1.50237866e-02
2.13548541e-02
-7.68485144e-02
3.45235988e-02
1.25620753e-01
1.61817864e-01
8.38506073e-02
-4.25528437e-02
3.45394015e-02
-6.67853132e-02
-1.28196836e-01
1.06929205e-01
-8.39562416e-02
-1.57830164e-01
-4.63496074e-02
-1.10583901e-01
-9.76771414e-02
8.43045712e-02
5.33061065e-02
-8.82342607e-02
5.03181852e-02
-6.48798123e-02
1.59710124e-01
5.26386350e-02
5.01761818e-03
9.29191522e-03
1.22544199e-01
-6.02021534e-03
7.31376335e-02
5.79714738e-02
3.13261487e-02
5.18311523e-02
-1.04005292e-01
9.93166938e-02
-1.04475968e-01
8.59926045e-02
1.05559036e-01
1.35895327e-01
5.22933602e-02
2.07058433e-02
-7.77848437e-02
-9.20075700e-02
1.70508578e-01
4.12405953e-02
8.70742649e-02
-1.13240846e-01
5.29085146e-03
-1.36113957e-01
1.20493159e-01
-5.65306889e-03
1.35062635e-01
6.81038126e-02
-7.08247572e-02
1.18521536e-02
1.49136335e-01
-5.31498566e-02
1.08018629e-01
-7.53400624e-02
-8.26771259e-02
-7.18321651e-02
5.26219979e-02
1.51319697e-01
3.05091068e-02
6.77699149e-02
-8.82233605e-02
7.66754895e-02
-3.47124971e-02
-1.22590385e-01
1.17450254e-02
7.93577880e-02
3.25969793e-02
8.94618705e-02
-6.41536713e-02
-6.46305531e-02
2.90284827e-02
8.55532438e-02
1.35809407e-01
-5.58094122e-02
2.73919757e-03
1.19345911e-01
-1.12657412e-03
-1.07657671e-01
2.69427467e-02
9.94495004e-02
8.66322815e-02
7.65433684e-02
-2.07575746e-02
3.80295739e-02
4.49906196e-03
7.35148042e-02
-3.22045088e-02
1.12134233e-01
-6.31047115e-02
-4.11952697e-02
-9.02267024e-02
1.15796447e-01
-8.19593444e-02
-2.40590721e-02
1.19946964e-01
-6.51537329e-02
1.10687442e-01
-1.31619379e-01
1.98297173e-01
-5.09262234e-02
1.04496844e-01
1.43732745e-02
-3.05633768e-02
1.07449926e-01
1.18626811e-01
9.85954627e-02
-4.74938415e-02
4.22700271e-02
7.27614760e-02
-2.39182822e-03
6.55681863e-02
9.78956074e-02
6.11991473e-02
4.57277223e-02
1.36527345e-01
2.19425522e-02
1.34637728e-01
-9.22079980e-02
7.34316856e-02
3.20057273e-02
-4.18349802e-02
-6.09105229e-02
5.15481904e-02
1.15155898e-01
9.34438482e-02
1.45827144e-01
-4.74424176e-02
8.74109194e-02
-6.57154843e-02
-5.85041307e-02
-9.17550251e-02
-2.62417682e-02
8.86469334e-02
-6.01756722e-02
-7.63398036e-02
1.12863919e-02
1.11068644e-01
1.67340636e-01
-1.08366534e-01
1.60827450e-02
5.18316105e-02
-4.16951701e-02
-9.59010608e-03
-7.83163458e-02
7.64068663e-02
-3.29410173e-02
8.87955651e-02
7.16977641e-02
-1.11546405e-01
-1.15625141e-02
1.03102438e-02
1.69084921e-01
9.30354837e-03
1.75256934e-02
1.38818204e-01
-1.27893900e-02
-1.60949286e-02
5.08001037e-02
2.73574926e-02
7.52837807e-02
3.98374759e-02
-7.92700239e-03
-8.86890814e-02
6.00876063e-02
-4.85346578e-02
-7.60921836e-02
3.97325158e-02
-8.03766474e-02
2.61526406e-02
2.40149200e-02
-6.24608733e-02
3.42727527e-02
-3.07034589e-02
-8.45425725e-02
-4.49340343e-02
-5.68140186e-02
-4.14250419e-02
-5.10342196e-02
-5.67946136e-02
-8.71264711e-02
2.88232584e-02
-8.35812762e-02
-3.89149673e-02
-1.70485973e-02
5.60790487e-02
2.53035594e-02
-4.95651066e-02
1.79363247e-02
-4.52880301e-02
-1.12920171e-02
-4.48385514e-02
3.43955980e-05
1.19440220e-02
-1.12020951e-02
3.48472893e-02
-2.90858541e-02
-6.53353855e-02
3.59990001e-02
3.86677571e-02
4.43476066e-03
4.55142446e-02
-7.35393241e-02
-7.58110881e-02
3.47535647e-02
-6.48965016e-02
-1.64343864e-02
4.74715754e-02
1.28174992e-03
-3.06464378e-02
-1.13339452e-02
-5.18045202e-02
-2.06480082e-02
-8.90994817e-02
6.44658655e-02
-6.06794953e-02
-8.76710808e-04
-7.39548728e-02
9.13429540e-03
-1.91276465e-02
-4.91304621e-02
-1.53708691e-02
-3.61787453e-02
-7.37444758e-02
3.19743343e-02
-1.03731602e-01
-5.67841809e-03
1.00898920e-02
-2.48090196e-02
1.54944044e-02
-3.74278687e-02
-4.84299101e-03
-2.88733300e-02
-5.13100661e-02
-8.37138668e-02
-7.99780041e-02
-2.78943311e-02
-6.22007288e-02
-2.46679783e-03
-1.27390986e-02
-6.29597753e-02
-5.92348054e-02
-2.07922217e-02
-5.17009795e-02
-4.17686366e-02
5.64276008e-03
-2.30753589e-02
-4.23684567e-02
-9.09512341e-02
2.88710836e-02
-2.09870562e-02
4.72067669e-02
-1.64444826e-03
2.26617381e-02
4.98296097e-02
-9.15844738e-02
5.75312525e-02
-4.88083065e-02
-4.83971126e-02
-6.25815615e-02
-7.70421838e-03
-5.05839568e-03
-4.02163789e-02
7.23859593e-02
3.65805216e-02
-2.01822892e-02
-5.76964393e-02
4.04406451e-02
-7.38163963e-02
-5.76337092e-02
-1.23689733e-02
-3.66416760e-02
8.22270662e-02
-6.95157051e-02
5.96684068e-02
5.40709980e-02
4.94364835e-02
4.75658104e-02
-2.17186194e-02
-2.91232653e-02
2.16658358e-02
-4.12147976e-02
-2.59782076e-02
4.41130809e-02
4.80451062e-02
5.40078022e-02
1.01499567e-02
1.24752056e-02
-7.65070692e-03
-1.72168873e-02
-1.00733437e-01
-6.65944293e-02
-7.07020937e-03
-2.01738086e-02
-6.93229958e-02
-6.02885969e-02
-5.34178279e-02
9.63762682e-03
-1.86954308e-02
-1.32682305e-02
1.09386696e-02
3.03473063e-02
2.64655128e-02
-2.48939004e-02
-3.01780012e-02
1.21208327e-02
2.35825218e-02
-6.22624857e-03
-1.06902821e-02
1.16555937e-01
-4.68459725e-03
1.18414506e-01
1.26124769e-01
1.88405722e-01
-1.02123313e-01
5.12652891e-03
1.07656255e-01
2.82488223e-02
4.80946824e-02
-6.64405245e-03
2.30113436e-02
1.09652877e-01
-8.68990943e-02
-1.18378825e-01
5.79638593e-02
3.83542292e-02
1.34707466e-02
1.48599520e-01
2.96627674e-02
4.21351613e-03
6.66010901e-02
1.41902324e-02
9.07183066e-02
7.68747777e-02
-6.28102273e-02
-2.07752343e-02
8.55545849e-02
1.01863258e-01
7.28985891e-02
4.60695650e-04
6.03231378e-02
6.69871941e-02
6.37105256e-02
2.20885333e-02
1.47732541e-01
1.26757696e-02
-7.56993443e-02
2.52937861e-02
-4.71443823e-03
1.07849343e-02
1.57966867e-01
-9.35634971e-02
1.11825973e-01
-5.41954488e-02
3.29868197e-02
5.54843210e-02
5.44197708e-02
5.12431599e-02
-4.13287291e-03
-4.28963378e-02
3.57356854e-02
7.56635070e-02
5.72408400e-02
9.40159857e-02
6.44441769e-02
2.56675705e-02
-2.78403107e-02
5.54328691e-03
6.38751611e-02
4.01810836e-03
-1.20194657e-02
-3.08422861e-03
-3.53633538e-02
-5.10449745e-02
9.16149989e-02
1.28955126e-01
1.97279938e-02
4.33419533e-02
9.24557820e-02
-2.77348682e-02
-1.09055296e-01
3.43316197e-02
-9.85877216e-02
1.96071770e-02
1.19256051e-02
7.16925487e-02
-2.62274202e-02
7.67292455e-02
-2.26607341e-02
-1.00494891e-01
1.26244947e-01
6.71862140e-02
-8.39964896e-02
5.00212982e-02
1.13554485e-01
3.36626619e-02
3.81804965e-02
-5.68503439e-02
3.27815115e-02
-7.37088025e-02
8.31905007e-02
-1.06148914e-01
-4.16001165e-03
1.19966842e-01
4.56946343e-02
-6.27038628e-02
3.26108299e-02
4.44538072e-02
-1.76060293e-02
-8.78477693e-02
1.28758609e-01
-7.18514249e-02
3.31978872e-02
1.09719383e-02
9.72566679e-02
-8.57220739e-02
1.79484561e-02
2.95808502e-02
-2.77495328e-02
4.77171852e-04
-7.06433430e-02
4.71899956e-02
1.37790561e-01
3.29221748e-02
-3.95137109e-02
2.60759071e-02
-2.69418806e-02
-7.80589040e-03
-6.35750145e-02
6.62296712e-02
5.60605451e-02
7.57595524e-02
5.22867292e-02
-9.24885720e-02
1.31760687e-01
-1.22532621e-02
7.36415759e-02
-6.91434145e-02
-8.35591275e-03
1.22772694e-01
-1.87081995e-03
9.45596676e-03
1.07929073e-01
-1.64247788e-02
-7.39651686e-03
4.82755527e-02
1.19466193e-01
2.44152322e-02
-7.63535574e-02
1.10871024e-01
5.63095696e-02
6.30732719e-03
-5.48140444e-02
4.82872054e-02
2.27936842e-02
-2.96640694e-02
1.06676579e-01
1.42194389e-03
-3.71206589e-02
2.58371122e-02
3.72225344e-02
-3.53011675e-02
9.74358618e-03
-5.86587861e-02
-8.10624287e-02
-3.86212133e-02
-8.71805996e-02
6.64189458e-02
-5.99427186e-02
2.16154978e-02
-3.33639905e-02
-4.16357592e-02
3.98028037e-03
1.15635274e-02
9.75850783e-03
5.33513352e-02
-1.58499945e-02
5.94988503e-02
1.39416968e-02
-6.08535260e-02
-8.37213024e-02
-8.54616910e-02
4.26916033e-02
6.25008866e-02
5.52392416e-02
-3.56449299e-02
3.89138982e-02
2.36852467e-02
4.50189561e-02
-5.56122437e-02
3.68610732e-02
-6.96186200e-02
3.20906453e-02
-2.03779130e-03
-6.87610656e-02
6.35134876e-02
-8.43965039e-02
-2.51653083e-02
3.20308888e-03
-6.34508207e-02
1.32831745e-02
-1.60211083e-02
-9.22039673e-02
-2.35796422e-02
-1.91946211e-03
-6.62841462e-03
-3.14538702e-02
-4.27410640e-02
2.29941923e-02
-6.34327084e-02
-1.18716722e-02
-3.12417001e-03
7.16827661e-02
-9.60127860e-02
-4.91205379e-02
4.90588546e-02
3.40651534e-02
-7.04989210e-02
-4.52725738e-02
-6.52848259e-02
2.36684773e-02
5.17168194e-02
-1.69450603e-02
-1.86599623e-02
-7.90604651e-02
1.05693303e-02
4.31433357e-02
-6.49177209e-02
1.40933124e-02
1.99073367e-02
-5.45558557e-02
-4.11529094e-02
-4.44357060e-02
-5.23633175e-02
-7.65158907e-02
-5.28976060e-02
1.06799994e-02
2.03314740e-02
-2.96009369e-02
3.34440614e-03
6.96163103e-02
2.52779499e-02
-4.24773507e-02
7.22353831e-02
-2.71397717e-02
2.02446766e-02
-1.85503364e-02
4.48905900e-02
-1.93250123e-02
-9.51924641e-03
2.31784377e-02
3.40349339e-02
4.23863977e-02
5.19062765e-02
-1.72818676e-02
2.92852838e-02
-6.58279881e-02
6.27533952e-03
-9.04837102e-02
-1.34504279e-02
-4.13682647e-02
4.28458564e-02
5.42052537e-02
-7.88608119e-02
4.81364243e-02
5.24973720e-02
-3.92471673e-03
1.64878946e-02
-1.59429945e-02
-6.40441254e-02
7.40436241e-02
6.37774169e-02
-4.21549715e-02
2.16003601e-02
4.33314778e-02
2.06916463e-02
4.82812002e-02
3.43373679e-02
-3.50614265e-02
-4.21856567e-02
-3.05329747e-02
-1.40445437e-02
-4.01247256e-02
-6.68092519e-02
6.66856468e-02
2.81823725e-02
-2.15180647e-02
-4.22047265e-02
-3.61757906e-04
-7.09735379e-02
-3.91461477e-02
-3.46456319e-02
4.96611036e-02
-6.79498911e-03
3.24816816e-02
6.76414580e-04
-1.23282988e-02
7.29119182e-02
2.72242632e-03
1.58650440e-03
-3.58287580e-02
-5.31818606e-02
-8.65784064e-02
1.94663659e-03
-3.78159322e-02
-4.36447673e-02
-7.76785985e-02
-3.13172229e-02
3.02149858e-02
2.07180325e-02
6.28911257e-02
1.37985826e-01
5.88273071e-02
6.45695850e-02
-8.92467201e-02
-6.32426515e-02
1.30290359e-01
2.28008870e-02
2.28741504e-02
-7.47834146e-02
-4.33279127e-02
1.26367763e-01
1.19145019e-02
1.35201472e-03
9.80585739e-02
-9.10930037e-02
-4.92140502e-02
9.22286324e-03
9.28850099e-02
1.06120676e-01
1.14137875e-02
1.47272691e-01
-1.82620604e-02
2.54624654e-02
-2.22693682e-02
-2.10811989e-03
2.21122038e-02
1.40044853e-01
1.30820408e-01
5.59643516e-03
7.03387335e-02
-5.80459125e-02
8.75513181e-02
4.86528017e-02
2.79475451e-02
9.69806015e-02
-4.46963124e-02
-2.87704878e-02
-2.72016302e-02
1.26659647e-01
1.11691959e-01
-1.17424801e-01
1.50809512e-01
-4.73969765e-02
1.16609946e-01
3.87224145e-02
-7.46043846e-02
-9.29684564e-02
5.44084907e-02
7.59855807e-02
1.03874123e-02
1.07166633e-01
5.80683537e-02
3.22447754e-02
1.04853749e-01
8.64191875e-02
5.53282723e-02
5.29737808e-02
-2.59005092e-02
1.36506781e-01
1.00327767e-01
3.88740562e-03
-6.42575249e-02
4.70234873e-03
1.16421312e-01
1.27974540e-01
-4.51136231e-02
1.03683896e-01
4.66204435e-02
-8.27385187e-02
-9.65003297e-02
8.33011344e-02
1.19667798e-02
2.56515238e-02
-1.01049319e-01
2.62117125e-02
-8.10174048e-02
3.20315314e-03
-7.32425079e-02
-6.44199178e-02
1.06606945e-01
1.95957664e-02
1.81512460e-02
7.47027919e-02
7.76925609e-02
4.74050865e-02
1.57613363e-02
5.69945201e-02
1.41455755e-01
1.88565291e-02
7.12432563e-02
5.55585176e-02
1.21795498e-01
7.85073489e-02
1.00767322e-01
-2.74210777e-02
4.38599437e-02
1.29211033e-02
-8.00511092e-02
1.05933351e-02
1.00200856e-02
-8.89517739e-02
2.72179581e-02
9.51795876e-02
1.71036705e-01
-8.26730952e-03
4.02034558e-02
-2.30130949e-03
4.97857444e-02
8.00364539e-02
-2.22342759e-02
1.81892619e-01
3.78243886e-02
-8.04746225e-02
-1.74244717e-02
-7.46164322e-02
-3.90420146e-02
4.97356281e-02
-4.32521850e-02
3.28676589e-02
1.33250445e-01
9.66951922e-02
2.29025632e-02
-7.94685557e-02
1.56275913e-01
1.32718697e-01
7.13222399e-02
-5.85647561e-02
-7.97258988e-02
6.06025346e-02
1.37193976e-02
-4.81450632e-02
1.37309626e-01
1.53564988e-02
-4.75605391e-02
2.67936243e-03
1.07607499e-01
4.32908610e-02
2.27701440e-02
1.11896418e-01
9.13318768e-02
-2.21453384e-02
-9.23733115e-02
-3.98923047e-02
5.60636334e-02
-6.02557398e-02
1.29349887e-01
8.03447366e-02
-3.64187174e-02
-8.38004798e-02
4.93919924e-02
1.66677088e-02
4.95401882e-02
-1.69805884e-02
6.50368351e-03
-9.43206176e-02
-7.28527643e-03
-5.44296503e-02
5.47489412e-02
7.14887902e-02
-7.59476796e-02
-1.80874718e-04
-1.11016087e-01
-2.21937019e-02
3.88983488e-02
1.69493575e-02
-1.03365993e-02
-7.05115125e-02
-1.84279773e-02
-1.53257989e-03
-3.63808195e-03
-6.14991300e-02
1.36630831e-03
4.47974773e-03
-2.65298821e-02
-2.12482009e-02
4.01398633e-03
-4.39988673e-02
-8.07295728e-04
-2.94388663e-02
-7.00988993e-02
1.39469504e-02
-7.27412105e-02
-2.22465787e-02
-6.70748297e-03
-3.39716580e-03
-6.55079782e-02
3.90595980e-02
6.74815997e-02
-5.80193661e-02
3.47687304e-02
-1.05733916e-01
3.82027067e-02
1.84896355e-03
-7.00469613e-02
-3.39531414e-02
4.08424400e-02
7.60620786e-03
3.39783393e-02
5.10175638e-02
-8.37133899e-02
-1.00860046e-02
5.76675497e-02
-1.86694283e-02
-8.09499174e-02
6.41782433e-02
-2.84851901e-02
-4.02676575e-02
-1.20635855e-03
-7.41321221e-02
-4.28150734e-03
2.39917375e-02
-4.88959625e-02
-6.13850430e-02
-6.60456866e-02
-6.98276088e-02
9.08199046e-03
-5.23405783e-02
-7.63675347e-02
-9.01151299e-02
-1.87274860e-03
5.44042960e-02
-7.93767869e-02
6.76339194e-02
-1.10821798e-03
9.47263930e-03
4.59553711e-02
-2.57165786e-02
-1.37710664e-03
-8.35112929e-02
-5.26352897e-02
-4.77548093e-02
-1.40034156e-02
-3.82231139e-02
1.84539538e-02
7.54705071e-02
-1.30493026e-02
2.97776666e-02
-2.81605087e-02
1.43173169e-02
4.18901108e-02
-4.94035333e-02
-4.59396429e-02
-6.61106259e-02
-4.15925495e-02
9.96612106e-03
-7.24270893e-03
1.74702592e-02
-3.34225558e-02
4.77855094e-02
3.33393514e-02
-3.59903947e-02
-2.58028526e-02
1.99077036e-02
-2.49776691e-02
-1.77520625e-02
2.14298274e-02
-6.92915395e-02
-9.42438655e-03
-1.46893226e-02
5.74455857e-02
-6.43413067e-02
-1.53989415e-03
3.34243663e-02
-3.97055820e-02
-1.43936472e-02
1.95033364e-02
5.29366173e-03
-4.81885439e-03
-1.16158677e-02
1.54889198e-02
-9.65680778e-02
-7.07056075e-02
1.03702089e-02
2.98456997e-02
-6.69692680e-02
-3.30333561e-02
-7.50303790e-02
3.99739072e-02
6.68237172e-03
-3.36973853e-02
1.15290061e-02
-2.23182216e-02
4.19865884e-02
-4.07380015e-02
4.11129035e-02
4.22752984e-02
6.97972700e-02
7.22460300e-02
1.27249807e-02
2.49704607e-02
4.15477194e-02
-6.96061477e-02
-3.66458185e-02
-1.69175342e-02
-7.60080218e-02
-6.43824041e-02
5.55014051e-02
-2.87074111e-02
-2.64571179e-02
-6.81852773e-02
5.71177490e-02
-1.18956760e-01
-8.04850310e-02
6.29789084e-02
-1.12483895e-03
-5.37813921e-03
-3.40589732e-02
-1.28718406e-01
3.08029857e-02
-2.62185931e-02
-1.30456343e-01
1.09922238e-01
3.06614675e-02
6.05519526e-02
5.92059940e-02
1.27958179e-01
-1.17239863e-01
-2.91503314e-02
-7.63854235e-02
2.96595339e-02
-4.06594910e-02
1.35077938e-01
-2.99995467e-02
1.35804757e-01
1.18604913e-01
-3.87556516e-02
2.37503890e-02
-6.81838021e-02
1.19956248e-01
-9.19956248e-03
1.25324160e-01
-6.05756938e-02
4.87566926e-02
-5.73956072e-02
9.07002315e-02
3.45994867e-02
8.01206380e-02
9.23805237e-02
8.92298482e-03
-1.27299190e-01
6.12792373e-02
-7.28753209e-02
-2.14567669e-02
-1.06614463e-01
-9.05474275e-02
-2.93108374e-02
3.33179720e-02
1.07386425e-01
-1.01172156e-03
1.12281047e-01
-4.66952920e-02
9.85717848e-02
-5.29373549e-02
-7.63819516e-02
2.99990159e-02
9.11289379e-02
8.17362666e-02
-4.04661288e-03
-9.30408016e-02
-9.17031337e-03
1.24684505e-01
7.55580887e-02
1.01691358e-01
-6.97547719e-02
2.86258720e-02
7.81396311e-03
2.80056503e-02
-1.82185359e-02
6.06182544e-03
1.40117109e-01
2.01463252e-02
1.75382748e-01
1.20271891e-01
2.88048154e-03
-9.09317732e-02
1.06828570e-01
-4.79646176e-02
-1.76792834e-02
-2.92953639e-03
-7.89246112e-02
-1.24171516e-02
1.93809085e-02
-8.01663175e-02
-1.20944008e-02
1.09550893e-01
-2.21117865e-02
1.18678652e-01
-7.42284507e-02
5.60611449e-02
-1.77633762e-02
1.55196469e-02
-6.48407042e-02
-1.13282129e-01
4.03851606e-02
1.86249781e-02
9.18735862e-02
-5.13564833e-02
1.13848308e-02
1.30027294e-01
5.62457591e-02
3.28747034e-02
7.87830539e-03
5.38916439e-02
-2.82696038e-02
-1.40048936e-02
-1.32226304e-03
9.67735127e-02
-1.36677977e-02
5.05854599e-02
1.04236677e-01
6.83319271e-02
-8.53071809e-02
7.94483125e-02
1.95709951e-02
8.61580744e-02
1.08279407e-01
-1.07964613e-01
6.13731183e-02
-1.25380188e-01
1.60563942e-02
-9.86185968e-02
-4.73415032e-02
1.24557048e-01
-7.46769756e-02
-3.72031108e-02
-3.18130739e-02
1.35429919e-01
1.31089330e-01
-3.55420858e-02
1.60958439e-01
1.00867085e-01
1.36304013e-02
-3.67080308e-02
-4.65290919e-02
1.25711456e-01
-6.71736896e-02
3.24425176e-02
1.00743622e-01
-1.01906992e-02
-1.11777417e-01
8.17949101e-02
1.03890680e-01
7.88160414e-02
-4.69310507e-02
1.17543593e-01
-1.09611832e-01
-1.39510393e-01
-6.36943877e-02
7.92080536e-02
8.54987651e-02
7.08190799e-02
1.28230780e-01
1.36517942e-01
-9.05938745e-02
-3.55876163e-02
1.21242724e-01
1.40112519e-01
-1.01193031e-02
4.89919372e-02
-6.00897260e-02
1.05626807e-01
-1.21603347e-02
-2.28626728e-02
2.75202887e-03
-7.44229257e-02
2.33192630e-02
1.07218221e-01
-8.75216257e-03
7.11925179e-02
1.05005167e-01
5.67575172e-03
1.09422207e-01
6.25543594e-02
4.20174599e-02
-6.15667216e-02
7.83316270e-02
1.29827946e-01
3.14794406e-02
-9.96235758e-03
-1.17921215e-02
1.49834566e-02
-1.41308140e-02
-4.65290435e-02
2.50293873e-02
1.19461805e-01
-8.47838819e-02
-7.75517002e-02
5.53439781e-02
9.77327898e-02
8.83200094e-02
-1.73228793e-02
6.20237959e-04
-2.06381325e-02
1.08250268e-01
1.39613524e-01
6.88494220e-02
-5.09744920e-02
-9.54617187e-03
-5.46794087e-02
-3.82739231e-02
9.94188339e-02
-2.69569140e-02
1.07933119e-01
1.53958321e-01
8.09575468e-02
-7.65585750e-02
-4.76071425e-02
-6.27571866e-02
-2.17795167e-02
1.38321519e-01
-1.22499494e-02
-9.18083861e-02
4.67798375e-02
2.39095856e-02
-2.18857490e-02
-6.62310049e-02
5.08972481e-02
2.61388868e-02
-6.56695385e-03
-8.10432285e-02
1.27670407e-01
-4.13551070e-02
3.82679626e-02
-1.42305642e-02
-2.93359701e-02
-8.30414705e-03
1.33092776e-01
6.10501766e-02
-1.57900322e-02
9.53680053e-02
2.88974075e-03
-8.78937915e-02
-2.04172358e-02
9.18383338e-03
-2.50059571e-02
7.81238005e-02
-1.71787087e-02
4.58294190e-02
-6.72337785e-02
7.59846792e-02
-7.29763731e-02
8.90136696e-03
4.13969792e-02
-3.21250260e-02
-5.27711846e-02
9.55261067e-02
1.12905107e-01
-1.61554720e-02
-6.81774616e-02
6.88689873e-02
-6.25601113e-02
-1.05566695e-01
2.63318289e-02
2.88129561e-02
1.39034567e-02
-4.29947264e-02
-2.67500840e-02
5.57393357e-02
8.14138912e-03
-4.35023345e-02
1.37924388e-01
2.24017315e-02
1.74725540e-02
-6.15744200e-03
-9.21720192e-02
-1.82237234e-02
5.00843786e-02
-1.22245855e-03
4.62710597e-02
9.00511593e-02
1.42731518e-01
1.20001011e-01
-7.31431320e-02
1.10124834e-01
1.17218599e-01
4.92124930e-02
-2.08835211e-02
2.71998346e-02
-5.39041916e-03
-7.35871941e-02
8.08761492e-02
6.01232275e-02
1.85286812e-02
-9.38377082e-02
-4.39266078e-02
7.65392035e-02
2.53610052e-02
1.88934859e-02
-1.98283307e-02
8.58716816e-02
-5.87685294e-02
-4.67066877e-02
3.76304500e-02
8.05081651e-02
-7.93508962e-02
1.12740815e-01
9.84664038e-02
2.20943205e-02
-1.58932239e-01
-5.70644215e-02
2.82660369e-02
-2.22928375e-02
-2.38968488e-02
6.31704628e-02
4.09818068e-02
-1.01044208e-01
-2.60051023e-02
-5.60447909e-02
7.87543431e-02
-2.64238212e-02
-4.07547988e-02
9.93222222e-02
7.41812075e-03
1.02445409e-01
9.02780741e-02
1.74194559e-01
-8.41847807e-02
-2.02981569e-02
-4.97460514e-02
1.35914341e-01
-1.78766642e-02
1.19071424e-01
9.62383822e-02
4.95005958e-02
1.03609443e-01
-8.71167034e-02
4.68328875e-03
-1.59712024e-02
1.66306943e-01
1.53122365e-01
1.13751218e-01
-1.57070737e-02
-2.12268694e-03
-1.11521110e-01
1.29508376e-01
1.23025194e-01
9.25659537e-02
7.05254823e-02
-2.19006892e-02
-1.09094121e-01
1.39752448e-01
-1.20040126e-01
2.57956125e-02
-9.01348218e-02
-8.86141136e-02
-8.93441141e-02
-3.96219781e-03
1.41537264e-01
-2.42903419e-02
9.77973416e-02
-9.14094597e-02
2.16727182e-02
-1.08809680e-01
7.01457215e-03
-1.24101430e-01
1.25223294e-01
1.37683302e-02
-8.72561149e-03
-3.94752473e-02
-7.18851434e-03
1.12714455e-01
9.43889767e-02
1.26672551e-01
-5.93660884e-02
-6.69830889e-02
1.30268320e-01
-1.09139554e-01
-1.13391183e-01
3.41102295e-02
1.48318550e-02
5.24887182e-02
2.03472301e-01
1.52338728e-01
2.34270673e-02
1.90933384e-02
-3.17871594e-03
-8.73847753e-02
1.30146474e-01
-1.22511405e-02
-2.05956139e-02
-1.28740072e-01
9.15140882e-02
-5.22522554e-02
8.08727182e-03
9.72353145e-02
-7.72842020e-02
3.34218033e-02
-1.17534786e-01
1.51873752e-01
-4.72194552e-02
-1.25300186e-02
-8.18600506e-02
-3.18066031e-02
1.06774025e-01
1.78149194e-02
1.16335489e-01
-1.58560336e-01
1.46260306e-01
6.96214810e-02
-4.49986346e-02
1.16525441e-01
1.59284920e-01
9.01429281e-02
4.77847308e-02
6.19407883e-03
-5.82490675e-02
1.39715686e-01
2.39320062e-02
1.10420406e-01
2.75868699e-02
6.63722903e-02
1.62728447e-02
9.48265269e-02
1.16719238e-01
1.10932864e-01
1.59622371e-01
-6.61912095e-03
8.60893950e-02
-1.38302073e-01
-1.28562212e-01
-1.31304646e-02
-1.11912079e-01
7.30981976e-02
-9.98458713e-02
-6.71618953e-02
-7.19227046e-02
1.72585517e-01
1.79960489e-01
-1.08645894e-01
1.55461192e-01
2.45122910e-02
-1.38687298e-01
-8.49045590e-02
-8.67976025e-02
6.65706396e-02
-1.01291336e-01
1.06309287e-01
-4.53526666e-03
-9.08232480e-02
-1.16798818e-01
9.16496068e-02
1.41514719e-01
2.30674241e-02
4.29901807e-03
8.60832855e-02
-1.15724742e-01
-5.76557778e-02
1.49863735e-02
3.64467762e-02
4.14559133e-02
-4.92631868e-02
-3.87081094e-02
-4.27500159e-02
-6.09943941e-02
4.05287407e-02
3.07927933e-03
-3.67250778e-02
3.71954553e-02
-1.08015118e-02
-3.30377556e-02
1.07701523e-02
-9.58985910e-02
-2.07241643e-02
3.67846228e-02
-3.48473638e-02
-1.94691513e-02
2.59345341e-02
-2.55479552e-02
-8.97655636e-02
2.66499817e-02
5.09914337e-03
-9.55791969e-04
-6.53979033e-02
-6.58581108e-02
-2.02707890e-02
-9.99525283e-03
1.92816816e-02
-1.65535305e-02
-8.03070888e-03
1.76477637e-02
-8.22639838e-02
-2.09411886e-02
2.81982068e-02
-4.94951271e-02
9.97679308e-03
-2.93662678e-02
-8.41660053e-02
-7.45701790e-02
-2.31760312e-02
-9.18789133e-02
5.02156019e-02
2.26960052e-02
7.03517497e-02
-3.90754901e-02
2.07284857e-02
-8.12030137e-02
1.91004816e-02
2.29715016e-02
9.17014768e-05
-4.21241969e-02
-5.58230206e-02
-4.08020057e-02
3.28207463e-02
-2.83594267e-03
-4.21882719e-02
-3.14822011e-02
-4.80525568e-03
1.86839402e-02
5.57945557e-02
3.03651262e-02
6.70906752e-02
-3.47921923e-02
-2.69210176e-03
3.43797579e-02
4.68807295e-02
2.94791971e-04
1.59632936e-02
-7.65334144e-02
-8.35944265e-02
1.20771034e-02
3.64778675e-02
3.50701362e-02
-8.14524889e-02
6.35991991e-02
-8.61729234e-02
5.37135154e-02
-4.41032872e-02
6.31475970e-02
2.46330467e-03
4.35242318e-02
-1.75910275e-02
-8.48196670e-02
-8.05975571e-02
-9.27803069e-02
-3.56424823e-02
-3.27900648e-02
1.34589747e-02
-1.03822477e-01
-6.54307306e-02
-2.81462707e-02
-4.27317470e-02
-4.59104255e-02
-1.05800867e-01
-9.76715460e-02
-8.84021372e-02
-4.30028327e-02
-1.76998284e-02
-6.68620840e-02
-8.02207291e-02
-2.63477676e-02
7.35220611e-02
3.81070226e-02
-1.97707079e-02
-8.19959268e-02
1.38017591e-02
-8.24859366e-02
-6.12103567e-02
7.82215066e-05
1.30134989e-02
-4.62530032e-02
-2.15647295e-02
-2.44603977e-02
-2.75551509e-02
2.00799871e-02
2.43467335e-02
-5.00289537e-02
-3.75586748e-02
-7.68582746e-02
-7.26062208e-02
-9.12221447e-02
-8.32111314e-02
-7.51444027e-02
-7.52084889e-03
-2.47441232e-02
-7.07834354e-03
3.56546305e-02
1.80401292e-03
-2.02382505e-02
6.27567200e-03
-4.43495661e-02
-1.96476225e-02
5.50209358e-03
5.92336431e-02
5.64781800e-02
-8.56457949e-02
-3.08795273e-02
6.20517582e-02
3.83288367e-03
-9.68291163e-02
4.56575230e-02
-6.40815571e-02
-6.30004779e-02
-6.92795515e-02
6.40491918e-02
7.08472729e-02
-4.51926477e-02
-1.59899183e-02
6.51131868e-02
-1.10344604e-01
-1.43128484e-01
-3.53370309e-02
-5.91617152e-02
-7.74397105e-02
1.14261903e-01
3.33548449e-02
-8.15358683e-02
-2.07619672e-03
-4.52577062e-02
7.13459030e-02
-6.25546947e-02
-1.71187110e-02
1.28854975e-01
8.06867108e-02
3.68640162e-02
1.23132147e-01
1.13559283e-01
-6.99085593e-02
-7.91055262e-02
-1.09648621e-02
1.70993228e-02
-4.22445387e-02
7.57200271e-02
6.44338131e-02
1.05673686e-01
1.75567329e-01
-2.79983096e-02
-6.45113289e-02
-5.74154407e-02
7.63656050e-02
1.06340110e-01
5.58123142e-02
-4.70938943e-02
1.45020366e-01
-1.19755350e-01
1.52911186e-01
8.91180560e-02
2.16031447e-02
1.14217043e-01
-5.33547178e-02
-1.30022481e-01
1.22365169e-01
-2.99906526e-02
-1.46776978e-02
-2.58148648e-02
2.15789652e-03
-1.07581772e-01
1.05265245e-01
1.15004025e-01
1.06473252e-01
1.92232147e-01
-3.75808477e-02
4.94731590e-02
-1.42608061e-01
-8.62973109e-02
1.60534331e-03
1.17250636e-01
1.21030621e-01
8.76316652e-02
-4.30644229e-02
-1.19274305e-02
1.05803341e-01
1.18353032e-01
1.19595215e-01
-1.06670581e-01
-6.54683560e-02
6.04992881e-02
-4.94029000e-02
-1.23338096e-01
1.18532985e-01
1.21725440e-01
7.87679479e-02
1.73216432e-01
1.35822639e-01
5.60239032e-02
-4.42495607e-02
6.51371628e-02
-5.67972800e-03
7.36497864e-02
-1.57189462e-02
-6.85381563e-03
-1.33649692e-01
5.89464866e-02
1.95493549e-02
-6.17766306e-02
-3.01569086e-02
-2.48621926e-02
3.44104841e-02
-5.53000544e-04
1.74358487e-01
-8.96671787e-02
8.00488815e-02
-1.80410687e-02
-9.05543789e-02
1.21954419e-02
7.52088130e-02
1.46090403e-01
-6.10563122e-02
9.81310010e-02
1.12697847e-01
-7.92201310e-02
4.17979844e-02
1.07258402e-01
7.96097964e-02
-1.39669599e-02
2.98284963e-02
-4.14721966e-02
9.34198722e-02
1.09435646e-02
1.42145697e-02
1.49014801e-01
3.43012214e-02
-1.29661098e-01
4.84277233e-02
8.73433948e-02
3.35877128e-02
9.20577496e-02
-6.41130209e-02
1.20392544e-02
-7.92323332e-03
-3.68489954e-03
-7.02770576e-02
-2.48366017e-02
1.03735760e-01
-6.79452717e-02
-3.19919251e-02
-4.66215014e-02
1.12351820e-01
4.35281806e-02
4.90032732e-02
1.68010220e-01
1.23095863e-01
-6.64616972e-02
-4.64331843e-02
9.47135035e-03
1.46207333e-01
-7.27944374e-02
8.97876639e-03
-3.91971692e-02
-1.10764980e-01
-1.01716761e-02
5.08114696e-02
8.35844800e-02
1.31920442e-01
2.55771801e-02
2.08502393e-02
-1.14968963e-01
-4.78030518e-02
9.27490816e-02
-1.00944713e-01
-6.88737184e-02
-3.72451171e-02
-2.82342788e-02
-9.13962573e-02
1.22423835e-01
1.66429728e-01
-9.10259709e-02
-7.47419670e-02
-1.71803124e-02
1.53241813e-01
8.31783656e-03
-1.05169103e-01
1.51915252e-01
-3.22636822e-03
1.18073888e-01
1.96162798e-02
1.05590321e-01
-4.98879291e-02
-5.18209077e-02
-6.25957251e-02
8.95369500e-02
-6.01584874e-02
1.16069190e-01
1.19376548e-01
6.08568899e-02
8.33363160e-02
-9.07613784e-02
3.76795493e-02
-1.12224989e-01
1.55761883e-01
3.16789597e-02
1.01807211e-02
-3.56018320e-02
1.28125936e-01
-1.36214435e-01
1.48843601e-01
-2.11947653e-02
5.62005565e-02
2.81500369e-02
-7.71171004e-02
-1.17738388e-01
1.16627723e-01
-9.52820480e-02
5.68395630e-02
-8.02159831e-02
-6.19586036e-02
-8.00995007e-02
9.03077573e-02
7.31665567e-02
7.99180865e-02
1.66696057e-01
-8.40567797e-02
7.22211897e-02
-1.44688591e-01
-8.47777911e-03
-3.63855958e-02
8.78333226e-02
8.68790075e-02
1.25620499e-01
-4.19234261e-02
-4.54729684e-02
1.40165970e-01
5.13228662e-02
8.41134563e-02
-5.66242747e-02
-6.84780329e-02
1.18779466e-01
-1.11344673e-01
-8.21710378e-03
9.86618698e-02
1.24978207e-01
-4.62327413e-02
2.11723134e-01
1.40395969e-01
5.90896644e-02
-1.05593115e-01
5.88433482e-02
-2.46163197e-02
-1.86979007e-02
-1.46666747e-02
-3.30641009e-02
-1.58612296e-01
1.15832418e-01
-8.84856936e-03
-8.81726593e-02
1.21284604e-01
-8.52452684e-03
6.72990158e-02
-4.79665846e-02
5.03047258e-02
-6.25567958e-02
5.82171343e-02
-7.08556324e-02
1.03123244e-02
4.79459912e-02
8.71351734e-02
1.91889942e-01
-6.36349842e-02
6.73238859e-02
4.58756573e-02
-9.20517892e-02
8.17072093e-02
1.47715703e-01
7.33131245e-02
-8.13489184e-02
1.14878923e-01
-9.05386508e-02
4.93692560e-03
5.64928912e-02
3.37862177e-03
3.15370522e-02
5.88193722e-03
-9.63913798e-02
7.11224079e-02
6.77677020e-02
-3.19036990e-02
6.89723492e-02
-1.82869509e-02
5.82515076e-02
-5.47687449e-02
-1.12232804e-01
-4.33311425e-02
-6.50998130e-02
5.85289747e-02
-1.17592983e-01
-3.43609937e-02
-3.81620862e-02
5.22769466e-02
1.49289981e-01
-5.17052645e-03
1.13415234e-01
1.17595203e-01
-3.74687985e-02
-1.11158537e-02
-1.36452824e-01
1.70520201e-01
8.93859658e-03
-1.19479082e-03
1.03612676e-01
-7.07809478e-02
1.29020493e-02
2.43644509e-02
4.96232733e-02
2.04507411e-02
5.74770086e-02
6.27673045e-02
-1.21460885e-01
-6.01082295e-02
-6.97593018e-02
2.69952733e-02
1.05768433e-02
4.98057762e-03
2.51964456e-03
1.35166362e-01
-7.93954507e-02
-1.04984539e-02
9.39821154e-02
6.48012757e-02
1.18705392e-01
2.30950657e-02
-5.93437254e-02
9.76394564e-02
1.67111233e-02
-1.09774143e-01
-1.61528289e-02
2.06813309e-02
-1.94527078e-02
8.52191746e-02
3.77060175e-02
8.45461711e-03
5.75190745e-02
3.76600213e-02
6.57748431e-02
1.08851835e-01
1.67557818e-03
-2.43465882e-02
-3.66020352e-02
5.23810983e-02
7.01384991e-02
5.59975058e-02
-5.59450537e-02
-8.98288339e-02
1.00313760e-01
-1.17118932e-01
1.39610618e-01
5.24383597e-02
2.96032280e-02
-3.60403806e-02
-8.97459127e-03
-6.00017272e-02
6.69982582e-02
3.40427738e-03
-4.51455824e-03
1.21599967e-02
1.49920722e-02
6.23654225e-04
-6.27526566e-02
-9.08189639e-02
1.43385434e-03
-8.34321454e-02
7.08733965e-03
-1.91522241e-02
5.87042794e-02
1.51895344e-01
-5.65098482e-04
-4.71957549e-02
-6.98428659e-04
-6.16871379e-02
-8.68218020e-02
-2.45259628e-02
-2.95184106e-02
-8.42867494e-02
-3.63899432e-02
4.15741690e-02
6.34816960e-02
4.13351990e-02
-4.90365587e-02
-8.77500884e-03
4.95494641e-02
3.43652479e-02
-2.73834374e-02
1.30225882e-01
2.66946405e-02
-3.67483310e-03
-1.00115478e-01
8.93065482e-02
-2.61535794e-02
2.19339933e-02
-4.59178649e-02
-2.60063112e-02
-3.96906026e-03
6.92596510e-02
-8.86213332e-02
3.36135663e-02
-6.68491125e-02
6.77073374e-02
-3.52911800e-02
-4.99968603e-02
1.13297425e-01
-2.81077940e-02
4.65636477e-02
-1.63796488e-02
2.41180100e-02
9.58283767e-02
2.43708994e-02
-2.24937778e-02
6.48210794e-02
1.85620971e-02
2.39248164e-02
-2.00681901e-03
9.13072675e-02
-1.06803097e-01
-1.31118014e-01
8.82070363e-02
1.04925640e-01
-7.72296563e-02
-1.44118648e-02
-8.28212779e-03
1.03848293e-01
6.29030839e-02
4.91280258e-02
1.64404094e-01
1.01482846e-01
-3.27025503e-02
1.47573277e-03
-1.10891730e-01
1.65567640e-02
5.54172806e-02
-6.49121106e-02
2.44329721e-02
6.86210673e-03
1.07055396e-01
9.31301042e-02
8.05885473e-04
2.13915892e-02
5.28534427e-02
-6.32487610e-03
-1.25811964e-01
-2.61373725e-03
1.21417917e-01
2.83968281e-02
5.26064038e-02
2.14788248e-03
1.63334273e-02
-2.22181045e-02
-3.69675830e-02
1.26084909e-01
-3.11723482e-02
-1.96572915e-02
-9.40220337e-03
8.05057213e-02
3.13377567e-02
-3.63599434e-02
-8.37545022e-02
1.02307230e-01
-1.03145316e-01
4.15335856e-02
-2.43443865e-02
1.75789017e-02
4.18797284e-02
6.74962923e-02
-3.58028300e-02
-4.32876833e-02
6.93945773e-03
-6.81229085e-02
-7.63584301e-02
5.57780303e-02
4.67336960e-02
-8.57597366e-02
-7.25089014e-02
1.67050064e-02
-4.76271063e-02
-4.46873382e-02
2.92010345e-02
1.52291358e-02
6.63383305e-02
-1.80057678e-02
-1.65822562e-02
-7.47442991e-02
1.95692535e-02
-6.73147961e-02
-1.92531571e-02
-2.29319483e-02
6.95189163e-02
-3.13418685e-03
-1.39492482e-01
2.15991568e-02
1.94970481e-02
-1.53867034e-02
4.79746461e-02
-4.46933694e-02
-5.78210726e-02
4.56500985e-02
-5.16232438e-02
5.03826812e-02
-4.97535756e-03
-7.67744929e-02
-5.56552261e-02
-3.68511863e-02
-4.12407592e-02
5.30139320e-02
1.90988462e-02
7.62165561e-02
-4.27788533e-02
2.16378681e-02
-5.20417392e-02
-5.25031239e-02
-9.98097658e-02
9.63500142e-03
-3.43446508e-02
6.14363439e-02
1.16516380e-02
1.31836962e-02
-5.29253576e-03
-1.05579376e-01
-6.89422861e-02
-4.64701168e-02
-3.54158580e-02
2.10726485e-02
-5.35290875e-02
-8.75126570e-02
-3.12626809e-02
-9.00049061e-02
-1.50113609e-02
-1.06513128e-01
-3.03128473e-02
-5.26003651e-02
-1.22732103e-01
4.51588370e-02
5.57831600e-02
-8.91552493e-02
4.68879379e-03
-8.98809135e-02
-9.54880044e-02
-9.85821262e-02
-8.24051872e-02
7.18934685e-02
4.09026601e-04
2.27397326e-02
-2.82409992e-02
2.42457297e-02
1.16703648e-03
1.49794985e-02
-8.43124650e-03
-2.63734758e-02
-3.38553073e-05
5.20673282e-02
-1.92290507e-02
6.77495152e-02
-2.18974538e-02
3.18402573e-02
5.64383008e-02
-6.88006543e-03
-2.67984811e-03
-5.12490310e-02
-8.19320902e-02
-4.66941111e-03
4.59137466e-03
1.28701972e-02
-3.02550546e-03
-2.39181984e-02
5.86114973e-02
-5.37930205e-02
-3.50849293e-02
-3.04606073e-02
1.40406424e-02
-2.63899174e-02
2.32000579e-03
-7.64828473e-02
8.67120363e-03
-4.63574529e-02
4.72899117e-02
9.85309035e-02
4.64604720e-02
-8.88167843e-02
1.88043118e-02
-7.81696290e-02
-1.71249695e-02
1.21359415e-02
-1.19916037e-01
-1.06266499e-01
-1.19691633e-03
-2.68334989e-02
-2.74019334e-02
1.08463034e-01
5.45506515e-02
-2.26810016e-02
-7.65054971e-02
1.55928340e-02
-6.03395887e-02
3.49698123e-03
-6.47542104e-02
2.81445589e-02
-5.37689263e-03
-8.71983469e-02
-1.03445932e-01
-3.93292382e-02
-1.18678235e-01
-1.78461429e-02
-5.43993488e-02
-2.69053522e-02
-1.27844453e-01
2.85508465e-02
-2.83442158e-02
-4.24231142e-02
5.14520146e-02
-1.15557201e-02
-6.71821693e-03
3.01646776e-02
-3.86861973e-02
4.65031192e-02
2.20366940e-02
3.91818024e-02
-5.04497159e-03
-4.41845022e-02
-4.53607775e-02
-2.21236832e-02
-3.88372168e-02
1.44943744e-02
2.65209172e-02
-1.56973172e-02
-7.04677701e-02
-1.00976797e-02
4.78771850e-02
-1.74568165e-02
4.78678271e-02
2.70761251e-02
-2.14871019e-02
-7.54733086e-02
-2.20873300e-02
-5.08839302e-02
-6.58179149e-02
1.97342280e-02
-6.14610948e-02
-5.47650121e-02
5.72309010e-02
-1.88135002e-02
-8.92933458e-02
-6.07136004e-02
-1.47754019e-02
-8.13816637e-02
-7.57127106e-02
-6.98155537e-02
1.18879331e-02
-2.04447098e-02
-9.31916758e-02
-5.64273894e-02
1.67193706e-03
-8.80629793e-02
-8.21534991e-02
-5.90938441e-02
-8.60603601e-02
-4.08554375e-02
-2.14259550e-02
-6.25409791e-03
-1.55045297e-02
1.36761563e-02
-4.04947475e-02
-4.80885766e-02
-6.08846098e-02
4.94496152e-02
-8.20192993e-02
-2.88938116e-02
-4.85587753e-02
-2.84505659e-03
-7.59779140e-02
-7.47010410e-02
3.21294926e-02
-9.01065320e-02
-1.39200911e-02
1.04784714e-02
-9.53006372e-02
1.87064465e-02
-6.08835742e-02
-1.68538876e-02
-1.05826147e-01
3.89439315e-02
5.92330992e-02
8.17622021e-02
-5.93885966e-02
-3.24757881e-02
5.84017001e-02
-3.11446493e-03
4.18706797e-02
5.27252592e-02
-9.19377580e-02
-6.16864003e-02
5.05889878e-02
-3.07876114e-02
-7.13536292e-02
1.23155294e-02
4.07496933e-03
-4.13573459e-02
-6.02187552e-02
-1.73106715e-02
-2.38643847e-02
-7.06397146e-02
-1.77242327e-02
-3.49859931e-02
-9.57059041e-02
2.56771259e-02
-9.70255062e-02
-1.23025039e-02
-1.03103016e-02
-2.15107314e-02
-7.56393299e-02
-3.25999223e-02
-1.53311845e-02
-6.57472387e-03
-2.10388117e-02
1.03509147e-02
9.57405195e-03
-8.37401524e-02
-6.09555133e-02
-7.06661493e-02
-5.52440016e-03
-6.47823066e-02
5.17167747e-02
1.48534207e-02
3.19232270e-02
8.39067530e-03
-2.05678702e-03
-4.03362932e-03
-3.73578407e-02
-6.53564883e-03
-2.79083047e-02
5.61141856e-02
1.31088980e-02
-2.24412698e-02
3.33357640e-02
-8.14225972e-02
-5.86938746e-02
-5.36125414e-02
1.37241408e-02
-1.04150726e-02
-4.32928167e-02
4.26153876e-02
-1.33095132e-02
2.25827773e-03
-1.52963158e-02
-3.85902673e-02
-3.66687775e-02
-8.69736448e-02
3.86939272e-02
-5.09329140e-02
3.27653997e-02
-7.73246735e-02
-8.47342461e-02
-5.98066486e-02
8.87456816e-03
5.09543315e-05
-5.61301075e-02
3.16862911e-02
3.72833461e-02
-2.34626979e-02
6.13205284e-02
-4.82298620e-02
7.21685439e-02
-8.46178308e-02
1.56282917e-01
1.38991088e-01
8.68835598e-02
1.13724977e-01
6.98226765e-02
2.68108621e-02
2.82475003e-03
7.81633630e-02
1.25305757e-01
-2.66195014e-02
-3.90238082e-03
-3.38680819e-02
1.16552524e-01
-3.71122211e-02
-5.12860343e-02
9.36502740e-02
2.46040169e-02
-3.16643938e-02
2.51894984e-02
9.90419760e-02
3.68662179e-02
1.53398141e-02
1.41479179e-01
6.15373962e-02
5.04223257e-02
4.86074686e-02
-4.84210029e-02
5.37337735e-02
6.69771507e-02
1.06914356e-01
1.43794026e-02
-3.48773003e-02
-9.68635231e-02
1.13147378e-01
-1.20733462e-01
7.53878653e-02
9.94060840e-03
-1.00003645e-01
-1.40768895e-02
-8.26670453e-02
2.54808343e-03
1.53712854e-01
-4.29843925e-02
7.43676051e-02
-8.88603255e-02
7.73192719e-02
1.26883015e-01
1.29223811e-02
-5.63992187e-02
9.74899251e-03
1.18126236e-02
-1.05574183e-01
-2.06186753e-02
-1.56435147e-02
4.03747149e-02
-1.72082130e-02
1.91233810e-02
-6.34025857e-02
-1.42379329e-02
-4.55084071e-02
9.95593742e-02
4.50825281e-02
-2.05409690e-03
-8.72721151e-02
-2.32587252e-02
6.86545670e-02
2.06189416e-02
3.12115587e-02
1.15345277e-01
2.22429521e-02
-6.65519387e-02
8.31027329e-03
7.57744943e-04
2.45639291e-02
3.34822088e-02
-1.22525550e-01
6.03758805e-02
-7.04545574e-03
-2.97238827e-02
-9.71409008e-02
-9.08529386e-02
4.82314155e-02
-2.03819908e-02
5.88351153e-02
8.46959949e-02
1.05445668e-01
6.29562289e-02
4.11599092e-02
-3.21420506e-02
6.18728176e-02
-9.35712680e-02
1.03028849e-01
4.18535294e-03
1.12885889e-03
9.89010185e-02
4.63010296e-02
3.79458419e-03
-3.51695791e-02
-2.05664174e-03
1.54604111e-02
-1.47125330e-02
-2.62743384e-02
-1.34836761e-02
-5.06352484e-02
4.75591309e-02
5.29239699e-02
-9.77111161e-02
-2.38213670e-02
-5.48733845e-02
5.70029803e-02
5.15537802e-03
2.16773879e-02
3.07486951e-02
4.50921133e-02
-1.24062477e-02
5.44472337e-02
-7.89691284e-02
2.93023791e-02
1.33735776e-01
1.24817174e-02
9.85246077e-02
3.96466069e-02
1.06467731e-01
1.23971075e-01
-4.86218743e-02
6.48617372e-02
1.01944372e-01
4.60248962e-02
-3.10888272e-02
2.18780749e-02
1.91714559e-02
5.51914424e-03
3.45233455e-02
4.73747924e-02
2.08948962e-02
8.07018671e-03
2.65292246e-02
7.30503425e-02
4.84840907e-02
3.34988832e-02
9.05105025e-02
2.31265929e-02
-8.08699522e-03
3.39022540e-02
1.44958030e-02
-7.90373515e-03
2.67539266e-02
-4.67597134e-03
3.06077357e-02
5.94646931e-02
-6.40843287e-02
-7.31526241e-02
-4.34061652e-03
8.79986025e-03
-8.31704065e-02
1.24404661e-01
1.04622707e-01
-1.12095118e-01
2.96338480e-02
3.00682876e-02
1.45641509e-02
-1.33401658e-02
-9.62474272e-02
1.38036072e-01
1.10263012e-01
8.42616484e-02
1.22975826e-01
1.83559254e-01
-9.63846147e-02
2.84808427e-02
-7.97757804e-02
1.40703142e-01
-1.29534960e-01
9.73560810e-02
-1.82969719e-02
-3.62317497e-03
5.33461273e-02
-7.57259578e-02
-5.97794466e-02
-2.46665590e-02
3.70127037e-02
1.26416102e-01
1.16477087e-01
-8.10375288e-02
7.49285147e-02
-1.00897275e-01
7.33043998e-02
3.19428407e-02
1.26354784e-01
6.27445010e-03
3.60386148e-02
-4.11471985e-02
2.19156578e-01
-2.61000749e-02
1.21071123e-01
-9.41766202e-02
-5.54035269e-02
-5.89836575e-02
2.95861103e-02
4.12104018e-02
1.07598789e-01
1.29243165e-01
1.47594297e-02
1.03650019e-01
-3.60917225e-02
-1.21383242e-01
-1.94512103e-02
1.15312614e-01
6.44970462e-02
2.56268233e-02
-2.59430837e-02
-1.04005665e-01
9.93837491e-02
7.68171698e-02
1.26868086e-02
-2.23446451e-02
-9.60280746e-02
1.22247472e-01
-1.09185837e-01
-1.30118012e-01
7.74758086e-02
6.42562136e-02
7.28895813e-02
1.11927584e-01
1.40750259e-01
8.25376138e-02
-2.43577398e-02
8.27044919e-02
-8.83496180e-03
1.00488454e-01
-1.21359080e-02
6.69772625e-02
-1.61908612e-01
3.39251719e-02
-5.72644956e-02
-1.19454630e-01
-1.47326356e-02
-6.00097850e-02
8.01939890e-02
-8.75552669e-02
5.63589521e-02
-2.62804027e-03
1.24316089e-01
-1.73981488e-02
-1.00994997e-01
1.24475129e-01
7.76067451e-02
1.15093522e-01
-3.41359191e-02
1.56128809e-01
5.20872027e-02
-7.46802166e-02
9.56414193e-02
2.87480596e-02
1.51677532e-02
-3.87176871e-02
1.34137407e-01
-5.13289012e-02
6.14091456e-02
-1.03976414e-01
6.97986707e-02
1.01667326e-02
9.72085074e-03
-5.22827171e-02
2.70328112e-02
1.25701785e-01
6.34356663e-02
4.85860258e-02
-1.10009946e-01
1.30820975e-01
-1.28248841e-01
-8.95678401e-02
5.76382445e-04
-4.78562936e-02
6.50479421e-02
-6.64220527e-02
-4.81396094e-02
3.71481874e-03
8.81508589e-02
1.34592444e-01
-1.18118159e-01
8.24957415e-02
1.51180163e-01
5.26468735e-03
-1.31270196e-02
-8.80203489e-03
1.85877934e-01
-8.19023177e-02
7.52112493e-02
1.01273522e-01
-7.14460835e-02
3.43378671e-02
8.62429067e-02
6.66482151e-02
8.80921725e-03
-1.90479085e-02
1.55835688e-01
-2.04816144e-02
-1.01168901e-02
-6.37450814e-02
-8.09683055e-02
-2.65444033e-02
-9.55172479e-02
1.67360045e-02
-4.15579230e-02
-6.08684346e-02
-1.16235949e-02
-4.16411869e-02
-1.03891753e-02
1.80051699e-02
