4.34061736e-02
3.74278948e-02
-4.66345847e-02
-3.86199239e-03
-7.29464786e-03
-6.76962826e-03
4.18773256e-02
1.72336493e-02
-6.82796119e-03
-2.92623490e-02
7.20860362e-02
2.96587236e-02
-3.00822258e-02
-2.30116677e-02
-2.70893276e-02
-1.03442753e-02
-3.44993779e-03
3.65411565e-02
-3.43737267e-02
-1.11051938e-02
4.34093997e-02
1.27856182e-02
-1.41414730e-02
-3.52309123e-02
-6.06742734e-03
-5.61524415e-03
1.93496570e-02
-1.35364290e-02
3.40989046e-02
-2.34972686e-03
-2.61306223e-02
-1.08752083e-02
3.02531458e-02
2.44632903e-02
-2.94678621e-02
-4.87354808e-02
-5.14796935e-03
-1.35270273e-02
1.95998512e-02
2.86958423e-02
2.27840655e-02
5.89735694e-02
-2.22828449e-03
-3.09519488e-02
6.02590628e-02
-9.33250505e-03
5.86286485e-02
8.56694020e-03
-5.71472920e-05
1.63441636e-02
6.38501626e-03
2.15025656e-02
2.58115605e-02
4.17046323e-02
-3.00216265e-02
-7.61798257e-03
-5.26236231e-03
2.34082732e-02
2.38885805e-02
4.79699336e-02
-4.23655473e-03
5.39508089e-02
-8.09061434e-03
4.28389423e-02
3.78536209e-02
-2.09777132e-02
-3.93879600e-03
3.30577418e-02
-1.11583276e-02
-2.03075353e-02
-5.52958390e-03
2.08404902e-02
-1.76908765e-02
2.91427169e-02
-1.01563418e-02
-7.95364473e-03
-1.26313269e-02
-2.19169364e-04
2.07719393e-02
-9.52641666e-03
2.11253762e-02
-7.98010454e-02
4.02431898e-02
-4.43667499e-03
1.47482548e-02
-2.77640931e-02
-2.61650495e-02
-1.49014285e-02
5.05238585e-02
8.94221384e-03
1.29884752e-02
1.10582924e-02
2.63721775e-02
1.26845390e-02
-7.54376035e-03
-1.70261525e-02
-1.91577878e-02
-9.26129892e-03
1.72393676e-02
4.27132212e-02
2.71807052e-02
-1.08258016e-02
-9.55070741e-03
3.58343907e-02
-2.75725722e-02
-8.99337698e-03
-8.96624662e-03
4.52709422e-02
-1.70596819e-02
4.26481850e-02
1.00165857e-02
-4.01699776e-03
-3.34874392e-02
-6.10359991e-03
-1.15703605e-02
-4.58914740e-03
-1.88933257e-02
3.92626934e-02
7.77920289e-03
5.60565619e-04
-8.73360876e-03
1.68364253e-02
-6.62968308e-03
-3.67398672e-02
2.10277922e-02
-3.67846340e-02
-1.46797178e-02
2.23015733e-02
8.89614038e-03
-1.05536925e-02
-1.91230588e-02
-1.57150663e-02
2.52651926e-02
-1.17759258e-02
5.42507358e-02
6.22243248e-02
-5.55878803e-02
-2.50458475e-02
-2.50400398e-02
-1.16130877e-02
-4.34648618e-02
1.25739379e-02
4.62621674e-02
3.75113338e-02
3.97828259e-02
4.26680073e-02
-2.78488966e-03
-3.16759944e-02
-1.03570418e-02
-9.45891254e-03