6.71417192e-02
5.52471019e-02
-1.06898218e-01
1.51818350e-01
-1.69699208e-03
2.83257719e-02
8.69976357e-02
1.13115795e-01
1.02808058e-01
-3.30060907e-02
-1.18227548e-03
1.57688156e-01
-3.32306251e-02
-1.25923017e-02
1.05186671e-01
-7.18681216e-02
1.31444067e-01
2.31706612e-02
-6.27806932e-02
-6.90848529e-02
-4.75388467e-02
-3.09892353e-02
-3.03053297e-02
-2.71980893e-02
-6.45672232e-02
-1.24594271e-02
1.96248349e-02
-8.28014314e-02
1.74681351e-01
-6.16732687e-02
3.81416045e-02
-6.12444915e-02
9.61839035e-02
-7.33020306e-02
-3.45129822e-03
1.43341646e-02
8.40914156e-03
5.73401153e-02
1.55655921e-01
6.02014996e-02
-4.41319384e-02
1.20878993e-02
1.67863052e-02
-7.45966211e-02
2.07020668e-03
-3.34917270e-02
-7.43655562e-02
1.48582524e-02
4.72258553e-02
-5.94461104e-03
1.50400363e-02
1.73704466e-03
-4.67754565e-02
3.16474144e-03
1.76473372e-02
1.06937978e-02
1.40722990e-02
1.40669560e-02
4.47674692e-02
7.08356649e-02
-2.52949093e-02
-1.07308343e-01
-1.99080482e-02
2.68535550e-05
-3.98236923e-02
-1.88935571e-03
1.05621107e-01
-1.66295424e-01
-2.74615847e-02
9.13438648e-02
1.57659560e-01
3.05121858e-02
1.16008319e-01
-6.21261559e-02
-6.88359188e-03
-4.74143066e-02
-5.23251593e-02
8.97647962e-02
3.60372178e-02
1.51390344e-01
4.67313174e-03
-3.63496952e-02
3.87002677e-02
1.75869346e-01
6.58181012e-02
-1.54190101e-02
4.76574712e-02
-4.67798077e-02
-7.18695074e-02
-3.87481111e-03
-1.46612292e-02
7.60927983e-03
3.77723686e-02
3.69391702e-02
1.00248158e-01
7.79676512e-02
5.85382320e-02
1.12625368e-01
-8.14795028e-03
-2.46680211e-02
-2.21327003e-02
7.61054307e-02
3.16181108e-02
-6.85936259e-03
-3.95499952e-02
-1.12659648e-01
-1.43083885e-01
-8.03030357e-02
-4.40074243e-02
-4.29869220e-02
-7.18964636e-02
1.70203410e-02
-4.37498018e-02
-4.76309732e-02
-3.62301730e-02
-2.66865790e-02
1.08564928e-01
-1.44247770e-01
2.20187567e-02
-1.85557809e-02
5.50180934e-02
-5.50765023e-02
-1.64284129e-02
2.24225828e-03
2.79927608e-02
5.64572029e-03
-6.71447068e-02
-4.08559479e-02
1.10510863e-01
-2.75501702e-02
3.50178666e-02
-8.89582653e-03
-7.21451966e-03
1.02698356e-01
-2.07381714e-02
1.93648815e-01
-4.02519777e-02
1.88631583e-02
-4.42904755e-02
-3.63078527e-02
2.06458122e-02
-2.62551121e-02
6.14414141e-02
-4.18972373e-02
-2.16097720e-02
2.84600109e-02
1.90981522e-01
9.66129154e-02
1.51472837e-01
-2.00859115e-01
-6.45538196e-02
-9.28205475e-02
-1.11258209e-01
-9.86131057e-02
-4.84221149e-03
4.57865112e-02
1.06320538e-01
-6.93334937e-02
3.39528695e-02
1.12024345e-01
2.81604622e-02
4.99230111e-03
1.55392475e-02
-2.62091663e-02
1.13707729e-01
-1.76449225e-03
-1.02207012e-01
4.34904955e-02
1.47729646e-02
-2.12886125e-01
6.68406533e-03
1.19643910e-02
4.82349768e-02
-1.52473673e-01
-1.85340017e-01
-2.01077759e-02
-1.00233052e-02
7.88702965e-02
1.49823293e-01
-9.02888998e-02
4.55356464e-02
5.63651286e-02
-3.35254567e-03
1.42968185e-02
-6.74711466e-02
-7.61980489e-02
9.73086953e-02
-1.01192184e-01
2.86080707e-02
-7.17049241e-02
4.71341833e-02
-8.96595269e-02
1.08888015e-01
-2.01833472e-02
1.82230622e-01
-3.15459408e-02
-3.45787704e-02
5.07428451e-03
2.55028475e-02
1.50705467e-03
-7.30608925e-02
-4.63911854e-02
4.58675250e-02
-3.94545905e-02
-1.55314486e-02
-1.53958246e-01
1.04692005e-01
-1.80937320e-01
6.00617640e-02
1.62931830e-02
-2.49634553e-02
8.01746920e-02
-7.59834796e-02
2.73874104e-02
-7.73631558e-02
-6.28722459e-02
1.10164195e-01
-3.69768217e-02
1.19315565e-01
-2.59655956e-02
-1.15478814e-01
1.47478264e-02
2.54824553e-02
-3.59275751e-02
1.65529049e-03
-1.22284954e-02
6.24347106e-02
-9.82871652e-02
4.10688994e-03
-1.06332459e-01
2.98953187e-02
2.34120823e-02
-7.48499557e-02
2.74063293e-02
4.79389131e-02
-4.57811076e-03
3.77152152e-02
4.24234346e-02
2.28361618e-02
-5.23193553e-02
7.03234598e-02
-3.22247110e-02
-1.55914146e-02
-7.80789927e-02
-1.14804162e-02
2.62490287e-02
5.80234751e-02
9.99763384e-02
-1.77895017e-02
-6.97712302e-02
-5.58967749e-03
-1.76323019e-02
4.37835138e-03
2.56627630e-02
-2.46374495e-02
-4.78570163e-02
-2.10576922e-01
5.45284757e-03
5.88976629e-02
-7.40925744e-02
8.09902996e-02
-6.24433951e-03
-1.54727966e-01
-4.12062481e-02
1.62524059e-02
1.70340538e-01
1.21410824e-01
-3.76530960e-02
-2.21913550e-02
-2.88357493e-02
7.97580928e-02
-1.09189218e-02
-1.31082535e-02
4.38717008e-02
-4.54147980e-02
1.00480970e-02
-4.12515141e-02
5.67107089e-02
2.87788939e-02
-3.16057354e-02
3.11988275e-02
-5.43819293e-02
1.20460317e-02
-5.46806268e-02
-1.49310268e-02
-3.40071460e-03
8.43369216e-02
2.65484359e-02
1.14698252e-02
-1.23790242e-02
6.31955862e-02
-2.24691350e-02
6.91992491e-02
-3.25136110e-02
6.28820574e-03
-1.25260621e-01
-5.18388338e-02
-4.81951460e-02
-5.35546765e-02
1.27326734e-02
7.43022934e-02
-1.11585902e-02
1.23679578e-01
-6.34678751e-02
1.96845569e-02
8.64515677e-02
-3.32781672e-02
6.40088459e-03
-7.27225840e-02
1.17674505e-03
9.68236923e-02
-6.34019524e-02
-7.43703917e-02
7.87154734e-02
-8.30763653e-02
-2.83984877e-02
-1.17741394e-04
1.69049259e-02
6.22790493e-02
5.30791692e-02
2.73767877e-02
2.86913663e-02
-1.29046496e-02
6.26979247e-02
4.29926552e-02
-4.95871808e-03
-4.90374379e-02
6.02516113e-03
-1.20001383e-01
2.09816322e-02
-4.00160626e-03
1.32647101e-02
-1.01703852e-01
-4.62525487e-02
1.53634008e-02
1.75199583e-02
9.88999680e-02
1.07174031e-01
-1.01283371e-01
-6.98836446e-02
4.86760680e-03
-2.20068879e-02
5.68764992e-02
-4.80310172e-02
-1.74394790e-02
5.13505489e-02
1.16108850e-01
-5.43250553e-02
3.31979580e-02
-4.25958633e-02
-7.92959891e-03
3.03171668e-02
1.12783946e-01
-2.13185209e-03
-9.19703990e-02
3.09837107e-02
3.40830274e-02
-9.33458805e-02
-2.87767835e-02
-2.00277288e-02
6.01879656e-02
-1.15832843e-01
-4.00576256e-02
-9.19416770e-02
-3.49217020e-02
5.44429533e-02
5.84288500e-02
3.43750007e-02
-1.09223291e-01
-4.07726690e-03
-4.34353650e-02
1.30340317e-03
-6.86772689e-02
-1.44533934e-02
-8.70211199e-02
-9.39343031e-03
3.30765918e-02
-5.08823544e-02
9.74349082e-02
-4.10766788e-02
3.41371745e-02
3.52772244e-04
3.24247368e-02
-5.05461209e-02
7.95870870e-02
3.87531258e-02
-7.04155341e-02
-1.05170071e-01
4.25508954e-02
1.82129676e-03
1.99141447e-02
-4.61956747e-02
6.38650432e-02
3.51078645e-03
-1.52914990e-02
-1.14981338e-01
1.71123464e-02
-9.34832990e-02
6.19037859e-02
-3.08646765e-02
1.11988885e-02
-1.69733670e-02
1.76439025e-02
3.39095518e-02
1.17382698e-01
1.02461122e-01
-1.09013706e-01
5.69358990e-02
-4.05600807e-03
-3.99210043e-02
1.96850091e-01
-6.46993220e-02
1.41424313e-01
1.23188766e-02
3.04211639e-02
-6.33233339e-02
-3.76126654e-02
6.37459755e-02
-9.43560228e-02
-3.53539400e-02
-1.20530408e-02
4.10143007e-03
-7.38882646e-02
-1.79127567e-02
2.10670736e-02
2.53627151e-02
-7.84976333e-02
2.12096125e-02
-1.77102789e-01
1.02736488e-01
-5.52856140e-02
8.84592533e-02
-1.44344613e-01
-3.17750238e-02
-1.43970460e-01
-1.55350670e-01
-6.55670017e-02
-1.39679268e-01
5.80261089e-02
7.15258811e-03
-1.48520488e-02
-6.83462387e-03
-1.10924412e-02
1.39263561e-02
1.38858199e-01
5.66628249e-03
-1.51075929e-01
-2.83238594e-03
-1.16386838e-01
1.05035499e-01
-5.30541688e-02
-2.18137708e-02
-2.65013240e-02
8.41034725e-02
5.67061603e-02
-1.21855050e-01
5.38829155e-03
1.14919625e-01
7.44062709e-03
-1.51194200e-01
2.32227668e-02
2.68459730e-02
-5.46318525e-03
-5.46447821e-02
-7.05316812e-02
-7.79502019e-02
-8.12086612e-02
-1.17019057e-01
6.83555901e-02
7.44769201e-02
7.45862424e-02
1.58141311e-02
1.31869568e-02
8.45850334e-02
5.70705580e-03
6.06021285e-02
8.28592479e-03
-1.31268159e-01
-3.52530628e-02
3.69807668e-02
-2.20242050e-02
-7.34670088e-02
-2.48103775e-02
-5.75494692e-02
5.32898381e-02
1.27076894e-01
5.11199348e-02
2.96673067e-02
-5.59849702e-02
1.77437425e-01
-9.33513939e-02
-2.48049255e-02
-3.16330045e-02
8.65117833e-02
-5.89826889e-02
6.57655881e-04
1.05284890e-02
1.59902275e-02
-1.07910810e-02
1.53782917e-03
-6.99352194e-03
2.98418514e-02
4.40212432e-03
8.54592472e-02
5.35036959e-02
1.51419044e-01
-3.58995646e-02
5.26644103e-02
-1.34312749e-01
-2.37673931e-02
2.30575576e-02
-1.22796670e-01
2.65380573e-02
-1.24686152e-01
2.44835988e-02
-9.62500796e-02
-3.49337235e-03
-1.23796150e-01
5.07249199e-02
1.11527871e-02
1.52223874e-02
1.63345456e-01
-5.41996025e-02
3.94134037e-02
-6.97300807e-02
-6.22386336e-02
-1.20059755e-02
-1.10148834e-02
2.44784821e-02
9.32334960e-02
-1.68272495e-01
3.66372317e-02
6.49522990e-02
7.82216787e-02
-6.15583919e-02
2.86340341e-02
-1.48951352e-01
-1.15587898e-01
-8.92731920e-02
6.99553266e-02
-6.80938065e-02
2.63243038e-02
-3.74110267e-02
8.57087374e-02
5.86445853e-02
-3.53607796e-02
-1.43345281e-01
1.37950718e-01
1.96736515e-01
-1.57286134e-02
1.78607665e-02
-5.24463169e-02
-5.82571514e-02
7.03648850e-02
-4.42206711e-02
-7.59578645e-02
1.38707384e-01
-4.78251539e-02
-1.58836931e-01
1.26462549e-01
-7.30843991e-02
1.52880615e-02
-6.46387972e-03
-5.95244020e-02
-1.19394630e-01
-8.08256026e-03
-1.18930370e-01
-5.16464226e-02
-3.84249985e-02
-1.20962560e-01
-1.60591360e-02
-7.05730841e-02
2.48910841e-02
-2.86372527e-02
1.38858825e-01
-8.05860758e-03
-6.98662223e-03
5.99938408e-02
-2.27987412e-02
-9.02528241e-02
2.88810041e-02
1.12527058e-01
9.59827006e-02
1.97592348e-01
9.36713740e-02
-1.02836303e-01
-6.47792518e-02
-1.96325080e-03
8.25432241e-02
-5.61876222e-02
-5.56187965e-02
1.94371343e-01
-1.00488417e-01
5.28783463e-02
4.44046073e-02
-7.24488869e-02
-4.82342718e-03
-2.26003882e-02
7.48772770e-02
-8.05783793e-02
2.39776187e-02
5.00620976e-02
5.75251617e-02
3.31568457e-02
3.44262794e-02
4.38150279e-02
4.92744632e-02
-2.41653007e-02
3.36851478e-02
6.48181364e-02
9.32577625e-02
-4.15558890e-02
-5.79363666e-02
1.02927491e-01
-3.25027853e-02
-5.79270311e-02
7.04149753e-02
-1.21563241e-01
-5.71437143e-02
2.61895061e-02
9.38456282e-02
2.14210879e-02
-3.95505019e-02
-7.27712810e-02
-9.12406668e-03
-7.88938031e-02
3.02161388e-02
1.47653282e-01
-8.40911418e-02
5.56702763e-02
-6.69356957e-02
-2.93323398e-03
2.22901884e-03
4.98562343e-02
5.72087895e-03
-2.84340680e-02
-1.34002879e-01
4.84101735e-02
-1.58471912e-01
2.98319720e-02
9.88799427e-03
-1.31839380e-01
9.33466181e-02
-1.70792732e-02
-9.89325251e-03
-9.21738297e-02
7.87838846e-02
7.71168200e-03
-5.57858385e-02
-6.79131821e-02
8.31105784e-02
-5.47692738e-02
3.03058699e-02
2.05518100e-02
1.55691549e-01
5.03935069e-02
-1.16283409e-01
-5.50965592e-02
-6.87881336e-02
-1.61595549e-02
-2.84812078e-02
2.52467003e-02
-9.41668972e-02
4.66383586e-04
1.29204420e-02
5.05575016e-02
-5.73576689e-02
3.82311158e-02
6.42383173e-02
-1.05117649e-01
-5.30057512e-02
6.87970296e-02
6.93407059e-02
-3.02857030e-02
-7.09357411e-02
1.32954627e-01
-8.98631811e-02
-1.56342179e-01
-1.45248314e-02
1.59164034e-02
9.50034261e-02
3.02913524e-02
-7.27315843e-02
-2.75241258e-03
-5.57242446e-02
-4.88662533e-02
-1.29394889e-01
-1.46618932e-02
-1.13546930e-01
6.64290041e-02
-3.35161425e-02
-3.60980369e-02
4.95811030e-02
7.95140341e-02
-1.89295951e-02
6.95496500e-02
4.53321859e-02
1.30439341e-01
7.03550726e-02
6.39786422e-02
1.23098269e-01
-9.26522911e-02
-7.91166425e-02
-9.70466882e-02
6.44759163e-02
-2.81661265e-02
1.63776521e-02
1.82431713e-02
-7.90985897e-02
8.53100233e-03
5.94752729e-02
5.71721643e-02
1.52405025e-03
-7.83609822e-02
5.30545376e-02
8.70652497e-02
1.10063525e-02
-1.48451058e-02
-6.79377243e-02
-2.89448649e-02
-4.74552177e-02
1.75327901e-03
-5.97972833e-02
4.95101511e-02
-1.57919154e-02
6.92792535e-02
4.85334918e-03
-8.99041444e-02
-4.94048335e-02
-3.69665883e-02
7.63550624e-02
-7.07481131e-02
-7.00917765e-02
8.66451785e-02
-2.71543339e-02
4.96829627e-03
3.98955941e-02
-5.98239377e-02
5.99697838e-03
-1.64647531e-02
5.81087843e-02
-3.18615250e-02
-1.95797272e-02
1.22735761e-01
5.46232425e-02
2.72827093e-02
-2.22077742e-02
-9.28738117e-02
-1.67303890e-01
9.12625995e-03
3.88179459e-02
9.59890336e-02
1.19749650e-01
1.45762429e-01
7.83713460e-02
-1.17973022e-01
-1.01696318e-02
1.07895516e-01
-7.93176442e-02
9.68831629e-02
2.57585775e-02
2.06585210e-02
-1.01684465e-03
-7.29004443e-02
-4.04825173e-02
-4.53489199e-02
7.03234524e-02
-1.44736603e-01
6.84250332e-03
-3.00971810e-02
9.79478955e-02
-5.29390387e-02
-2.24741772e-02
-5.64157329e-02
-8.41339454e-02
-8.27387944e-02
4.45872433e-02
-3.61842029e-02
5.66668473e-02
5.96331656e-02
-6.33372087e-03
-5.59292287e-02
-8.55474845e-02
-2.07655262e-02
-7.92941526e-02
6.85748532e-02
8.59952420e-02
-6.16310835e-02
2.13065594e-02
1.64887741e-01
-1.00019157e-01
3.50731760e-02
-1.12857139e-02
-2.97154188e-02
9.09511894e-02
1.95250232e-02
-2.93061156e-02
-5.88683076e-02
-3.09714582e-02
2.11283773e-01
-2.89961975e-02
7.90687129e-02
8.25352501e-03
8.61357898e-02
-4.26778272e-02
6.57981867e-03
8.44055042e-03
-3.95679474e-02
-2.70570666e-02
-1.09758135e-02
-9.17087309e-03
2.45121401e-02
-4.96378392e-02
4.90782261e-02
1.18161276e-01
6.10354245e-02
3.38523015e-02
1.18700668e-01
-1.57113671e-02
9.44671705e-02
8.14418192e-04
6.28656298e-02
-2.69735623e-02
2.42365198e-03
-5.67374332e-03
-5.98678365e-02
-1.32225538e-02
2.96268370e-02
3.17042954e-02
5.29172644e-02
2.32032295e-02
-3.31195705e-02
2.10557785e-02
4.34789062e-02
-9.29761454e-02
-1.27588417e-02
-5.51713482e-02
-8.49570055e-03
2.08054166e-02
-4.67499681e-02
1.71040837e-02
1.50209432e-03
-2.06546225e-02
-4.28705505e-04
1.66273508e-02
-1.04957022e-01
-2.19054222e-02
8.95214453e-03
1.19002350e-01
3.64580303e-02
6.99926242e-02
-8.48712921e-02
-4.83353660e-02
-3.54047678e-02
-6.07179776e-02
7.15918690e-02
1.35320216e-01
3.00064217e-03
-4.27247807e-02
4.62176315e-02
5.86226732e-02
-3.31923589e-02
1.17638774e-01
-1.19052306e-01
-2.11960115e-02
1.03189394e-01
3.87400687e-02
7.75851086e-02
-6.41911328e-02
-5.22041321e-02
2.34113764e-02
1.09754421e-01
2.99003981e-02
6.46646181e-03
-9.21516120e-02
1.56258252e-02
5.28482236e-02
2.59630438e-02
-1.58478934e-02
9.82065685e-03
9.15607288e-02
1.28621664e-02
2.16336246e-03
1.27326787e-01
6.87119290e-02
-1.56168267e-02
-5.21735102e-02
-6.16786070e-03
-6.06474206e-02
-3.06770131e-02
2.45562196e-02
-4.47357656e-04
-5.87854609e-02
-9.36158895e-02
1.43471928e-02
3.77839059e-02
-2.04899833e-02
-1.94158051e-02
-8.60238075e-03
-5.69444820e-02
2.00230598e-01
1.33411974e-01
1.98987171e-01
1.52447382e-02
6.93392530e-02
7.73824900e-02
-6.73083663e-02
-4.72671054e-02
-8.75270441e-02
-1.61800329e-02
-3.84144746e-02
1.81823112e-02
2.42061764e-02
8.29846188e-02
3.03692687e-02
-5.61638884e-02
-3.66670862e-02
-6.16508210e-03
1.10768601e-01
-5.80939017e-02
1.67422015e-02
2.62655355e-02
-2.83199698e-02
8.63579474e-03
1.47212163e-01
-6.05265552e-04
-4.64237966e-02
7.64593408e-02
3.64774205e-02
-5.05344979e-02
2.86740363e-02
-1.81999803e-02
-2.62059346e-02
-5.30853011e-02
-3.02666016e-02
1.27369116e-04
-1.33566568e-02
8.87205228e-02
-8.07978511e-02
-3.99648398e-02
-1.78494304e-02
-3.60062197e-02
2.54223794e-02
2.98626330e-02
-5.33519872e-02
4.91871014e-02
-3.40839382e-04
-8.58789533e-02
-2.22962536e-02
1.14943469e-02
-1.23965479e-01
-4.70154360e-03
9.77358893e-02
-1.82479322e-02
-2.32100282e-02
-5.89003563e-02
-1.11284062e-01
-1.45495310e-01
1.60873681e-02
-5.98771535e-02
-1.02436550e-01
-1.02899440e-01
-4.34798375e-02
-4.86588888e-02
-6.49402384e-04
6.06558248e-02
5.57542071e-02
6.17326275e-02
-2.94420961e-02
-3.96678969e-02
-6.97673932e-02
6.81048483e-02
-5.03432117e-02
-1.10626951e-01
9.74386372e-03
3.74490879e-02
-6.77988380e-02
-6.66109771e-02
9.67462733e-02
6.06117547e-02
-2.75956187e-02
-6.36761114e-02
5.49323522e-02
3.71879339e-02
1.75604578e-02
-3.83703001e-02
-6.22061342e-02
-9.60375294e-02
1.16249276e-02
1.72473378e-02
1.05327517e-01
-7.52765965e-03
3.80787663e-02
-6.09606653e-02
4.67743501e-02
-1.21450576e-03
1.62780732e-02
-4.67586555e-02
8.58286470e-02
-5.67043871e-02
1.11614548e-01
-3.51797640e-02
7.21158534e-02
4.49907221e-03
1.41886532e-01
3.57453316e-03
-5.20292893e-02
1.05650704e-02
-3.76994982e-02
-4.67684008e-02
2.60654688e-02
-5.48535287e-02
4.34436612e-02
-6.34183511e-02
-2.97949500e-02
-1.10227801e-02
-3.11553422e-02
2.14419849e-02
-4.02720533e-02
5.44186332e-05
-1.43294096e-01
-2.76081134e-02
-1.34971580e-02
-4.61742543e-02
-4.34933193e-02
1.93938576e-02
-4.09474112e-02
-3.20064160e-03
-8.25495422e-02
2.98467334e-02
-2.30568387e-02
1.00733172e-02
-8.24203938e-02
2.60671228e-02
-9.08484831e-02
-2.26271469e-02
1.14822965e-02
-1.33082632e-03
-5.61928144e-03
-4.43743978e-04
-1.09722048e-01
4.72505689e-02
6.93349838e-02
-2.88403314e-03
5.64221740e-02
-1.83572853e-03
-4.52576019e-03
-2.84517650e-03
-4.33023870e-02
9.71414223e-02
5.43788187e-02
6.56839386e-02
-2.72773318e-02
5.75982928e-02
6.55250698e-02
-8.10096040e-02
2.60507269e-03
5.39399758e-02
-4.57376204e-02
-5.78970872e-02
-5.97776808e-02
3.36985700e-02
2.63644364e-02
8.87848884e-02
9.56977252e-03
3.22603658e-02
4.69462341e-03
-3.69020589e-02
1.02828138e-01
3.44841853e-02
4.08960730e-02
1.42540494e-02
-1.39371594e-02
3.98813710e-02
5.78112304e-02
6.85235485e-02
3.08239982e-02
1.00484870e-01
-1.02412850e-02
-1.71713810e-02
-3.08533497e-02
-5.95573336e-02
-7.89488293e-03
-9.74135473e-02
7.69923106e-02
1.45985827e-01
1.51291117e-01
-4.81723584e-02
-1.08065218e-01
2.13634614e-02
-7.53416261e-03
4.00029682e-02
-1.46474928e-01
6.07868619e-02
1.36376536e-02
2.61784047e-02
-6.11253828e-02
1.09678939e-01
2.15715691e-02
6.52114972e-02
-5.19005954e-02
1.04237407e-01
-1.65810306e-02
8.31090286e-02
-9.77450516e-03
1.43570736e-01
1.69323031e-02
7.18905255e-02
-1.15482181e-01
5.46358675e-02
-3.89613807e-02
-1.12534568e-01
-8.58705491e-02
4.10017781e-02
2.64410372e-03
-6.63611442e-02
-9.10470411e-02
4.55690920e-02
7.75792301e-02
6.56002462e-02
-2.51330342e-02
-6.21189885e-02
-3.24179977e-02
-3.56155448e-02
6.74176514e-02
1.60338935e-02
5.95378876e-02
-3.01399175e-03
7.55912885e-02
1.13716662e-01
-1.86937511e-01
-2.68210452e-02
5.82945570e-02
-6.36444315e-02
7.38333911e-02
-3.25399861e-02
-2.02013664e-02
-6.87303487e-03
-4.77777272e-02
-6.12196773e-02
-2.81444285e-02
-1.20981224e-02
-7.74615956e-03
-1.81539003e-02
2.39213966e-02
-1.10144034e-01
-7.71694556e-02
-3.35181355e-02
1.54350147e-01
4.48515043e-02
3.45305749e-03
-1.02943117e-02
-1.00653144e-02
5.90920635e-02
-7.02785552e-02
-1.68851577e-03
1.17648087e-01
-2.99051241e-03
-2.19066814e-01
9.24433917e-02
-1.28913641e-01
1.83648299e-02
3.37687731e-02
-2.52336380e-03
-2.91400366e-02
7.77930161e-03
-5.63611090e-02
3.38164344e-03
-4.26820703e-02
-8.02918673e-02
9.65873804e-03
9.30123776e-03
1.30403915e-03
-5.89723550e-02
1.06206767e-01
-5.17455395e-03
4.43149693e-02
9.97077748e-02
3.15815397e-03
4.67591248e-02
-5.48462057e-03
9.66954753e-02
4.64364365e-02
7.49155357e-02
-1.28672309e-02
-1.48339435e-01
-2.04064045e-02
-1.98979583e-02
1.12517945e-01
3.35154049e-02
-3.47325020e-02
1.59584433e-01
-4.47092280e-02
-1.34272324e-02
-4.48387451e-02
-9.93547738e-02
-8.33376870e-03
2.27651224e-02
2.53061298e-02
-1.76213652e-01
-6.41770149e-03
2.22882144e-02
1.59676105e-01
1.73183959e-02
7.23090246e-02
3.19801271e-02
-1.16685256e-02
-2.58896202e-02
-8.05117935e-02
2.65113041e-02
1.02881022e-01
-1.31208912e-01
-1.94183476e-02
8.54467303e-02
-1.28674135e-01
1.98979839e-03
1.07116923e-02
-5.41149862e-02
1.04146302e-01
4.33038175e-02
4.20138948e-02
5.42425588e-02
-4.14094403e-02
2.55498802e-04
1.03998989e-01
-2.91778371e-02
3.73839401e-03
1.08051270e-01
1.63484868e-02
-8.64964537e-03
-1.18855145e-02
2.54528224e-02
-2.36326661e-02
2.19274294e-02
2.73460839e-02
3.37991081e-02
4.24531661e-02
5.90718873e-02
-1.13301657e-01
-3.77513580e-02
-8.71255063e-03
-1.86514743e-02
5.25178425e-02
-4.57164012e-02
7.26919994e-02
9.18432996e-02
1.20008234e-02
3.65942083e-02
1.36707374e-03
1.50175812e-02
-5.40034622e-02
-6.98839054e-02
9.84235629e-02
-9.71578881e-02
-4.27806377e-02
7.18227774e-02
-1.23529825e-02
-1.53395627e-02
3.24540250e-02
-6.52182773e-02
6.72056302e-02
2.78906655e-02
-4.06777970e-02
-7.17146397e-02
4.66086082e-02
7.86572173e-02
6.13076438e-04
1.22759856e-01
-2.53161546e-02
-1.11439437e-01
-1.13474846e-01
-4.49127182e-02
-5.58961742e-02
1.63149983e-02
-5.95438853e-02
2.69336905e-02
5.92511296e-02
-1.36626046e-02
2.89737079e-02
1.25958845e-02
-6.25056773e-02
5.15046827e-02
2.69540828e-02
-9.15889516e-02
-1.60207767e-02
6.48259595e-02
9.51164439e-02
-1.49930209e-01
2.22454146e-02
7.33569562e-02
1.13789558e-01
1.38935791e-02
8.94625932e-02
1.13792587e-02
1.20003736e-02
5.79810701e-03
1.95221025e-02
-1.20434657e-01
1.07506052e-01
2.66114026e-02
3.89268883e-02
-2.59915385e-02
5.47430515e-02
6.50712997e-02
7.09525123e-02
1.42399624e-01
-2.07524467e-03
9.67549812e-03
3.77341993e-02
-8.97631422e-02
2.60530025e-01
3.53257097e-02
1.27469301e-01
-4.93767904e-03
5.48231304e-02
-5.19571751e-02
-2.07532588e-02
8.04491490e-02
-1.20010532e-01
-9.40450560e-03
-7.00419769e-02
8.24992284e-02
-1.41625572e-02
-5.07158712e-02
-8.67723525e-02
-1.67933442e-02
-6.56333268e-02
1.02982491e-01
-1.67455658e-01
1.44437522e-01
-1.10183179e-01
5.57714589e-02
8.82199779e-03
-1.96334440e-02
-1.58440813e-01
-1.12395465e-01
5.05595058e-02
-8.60933438e-02
8.72919932e-02
-6.68848341e-04
3.22925113e-02
-3.09428852e-02
2.09143516e-02
5.22694970e-03
7.23838732e-02
-4.40334715e-02
-1.62186176e-02
-5.07610850e-02
-1.44778311e-01
1.50405392e-01
-2.11089179e-02
4.13043797e-02
-7.77201504e-02
8.06487054e-02
8.90552625e-02
-1.10653087e-01
-4.32924181e-02
1.94740906e-01
3.93057615e-02
-1.17887855e-01
-1.58187596e-03
1.15159852e-02
-1.27787860e-02
1.57088805e-02
-7.35251009e-02
-5.46373352e-02
-3.67796458e-02
-8.44141394e-02
5.10586053e-02
6.77439645e-02
2.75392309e-02
1.75954029e-02
-5.52452281e-02
4.45682220e-02
3.01497020e-02
1.82487983e-02
1.07640624e-01
-8.17892551e-02
-2.13682055e-02
5.67147806e-02
3.37479748e-02
-9.32022110e-02
6.81285858e-02
-5.26914299e-02
8.33975375e-02
1.47689939e-01
-1.94356367e-02
1.85906161e-02
-1.60267606e-01
2.84763016e-02
-1.10314682e-01
-8.55321437e-02
-2.35186778e-02
3.21779922e-02
-6.43016398e-02
3.94666456e-02
-3.59322131e-02
-7.86488410e-03
-4.62303497e-02
-2.94919293e-02
-3.23369051e-04
9.76200495e-03
4.30053063e-02
5.54825552e-02
-1.43347643e-02
4.97004353e-02
8.28229263e-03
6.67204335e-02
-1.28820032e-01
8.11035931e-03
2.66065300e-02
-5.84119558e-02
-3.53400633e-02
-1.23374373e-01
7.07984641e-02
9.07238759e-03
-1.43225640e-01
-8.32870454e-02
8.46280307e-02
1.23125784e-01
1.67496763e-02
8.13697651e-02
-4.37054932e-02
-8.02987739e-02
-9.40552354e-02
-2.78305802e-02
-6.86885929e-03
-3.07104867e-02
-4.66047712e-02
6.03102148e-02
-1.17264412e-01
-2.00217627e-02
8.69791508e-02
5.40041924e-02
-1.27938300e-01
5.04888445e-02
-1.43701620e-02
-7.65791312e-02
-1.18226081e-01
4.48293313e-02
-8.27848837e-02
2.62091588e-02
-4.63451296e-02
3.14892009e-02
-5.10731898e-02
-8.45025927e-02
-1.31916255e-01
1.49276033e-01
1.20394714e-02
3.66524048e-03
4.27725650e-02
-1.13228098e-01
5.47221415e-02
7.41301700e-02
1.97684150e-02
-3.47332507e-02
1.19052999e-01
-2.43053976e-02
-2.02000607e-02
6.01775087e-02
-1.13962814e-01
-3.10815796e-02
5.30391075e-02
6.75643678e-04
-1.12824857e-01
1.67106930e-02
-7.20138475e-02
-7.04890266e-02
7.58880302e-02
1.37469303e-02
3.58965732e-02
2.55178381e-02
4.32775393e-02
2.71598622e-02
4.51483354e-02
-2.34490279e-02
-9.74413194e-03
2.91574262e-02
-6.51191454e-04
-8.40510279e-02
-1.53331012e-02
1.22478239e-01
3.41736600e-02
1.56685799e-01
6.47992939e-02
-5.04265688e-02
-2.62199491e-02
6.30718768e-02
1.04983613e-01
3.85946259e-02
-1.35512203e-01
1.20954230e-01
-1.38894707e-01
-6.87661171e-02
-1.28085250e-02
-7.84184560e-02
-2.17288118e-02
5.55208065e-02
6.98109120e-02
-3.87297720e-02
9.96844992e-02
2.71349940e-02
1.72920659e-01
-7.62425065e-02
6.35186657e-02
-1.14102326e-02
5.42543903e-02
6.19944185e-02
-9.48771089e-02
1.74083095e-02
1.37732807e-03
-3.37994359e-02
-1.38982320e-02
9.58833620e-02
-8.16367567e-02
-3.35502671e-03
-4.85154008e-03
3.05202324e-02
7.63946399e-02
4.53832075e-02
9.71470773e-02
4.87246253e-02
-9.76832770e-03
9.92107689e-02
6.54580668e-02
-1.64281018e-02
-6.44344836e-02
8.59240144e-02
-7.89172482e-03
5.75907761e-03
-2.21101716e-02
5.21009602e-02
-9.69772339e-02
-5.33643505e-03
-1.27930390e-02
1.29490169e-02
6.38670772e-02
4.36818860e-02
-1.20541595e-01
-8.71917903e-02
-4.23623715e-03
6.70678765e-02
9.13984701e-02
1.58713520e-01
4.21204232e-02
8.47890452e-02
1.32635012e-01
-9.37939249e-03
7.74462894e-02
-2.55916473e-02
-1.32037938e-01
5.93035854e-03
9.14298147e-02
-4.54810411e-02
-5.09578327e-04
2.00925618e-02
3.61253601e-03
-1.35512307e-01
-4.77080718e-02
-4.12105843e-02
6.90524206e-02
3.22178081e-02
7.24313185e-02
-1.24993213e-01
-5.13107479e-02
3.42522860e-02
1.06883757e-02
1.22069962e-01
-2.81510931e-02
-3.40676159e-02
-7.15628192e-02
1.75627358e-02
-6.05106577e-02
-5.47571480e-02
-3.40630896e-02
-6.32035807e-02
1.69101991e-02
-1.90077201e-02
1.25947073e-02
3.35429907e-02
-3.78716476e-02
1.43020656e-02
-4.56213132e-02
-1.73327282e-01
8.78767222e-02
3.10901161e-02
4.11919728e-02
-9.12592784e-02
4.75599477e-03
9.94801149e-02
4.95706946e-02
3.80630116e-03
6.91201761e-02
-4.33145426e-02
1.15424484e-01
-7.72659630e-02
6.26746193e-02
-1.29280806e-01
5.74583327e-03
5.05832545e-02
-4.59301732e-02
-1.04975291e-02
-7.60275349e-02
-5.93764447e-02
8.10844675e-02
1.40430689e-01
-4.18247320e-02
1.28913224e-01
-8.23379843e-04
-6.37805536e-02
1.97410911e-01
3.20032164e-02
1.46835282e-01
-8.03288352e-03
6.72955215e-02
-4.49615382e-02
6.06141100e-03
1.18639931e-01
6.45736232e-02
-2.75086216e-03
-4.03866768e-02
-4.03880887e-02
1.28660530e-01
5.96115179e-03
-3.90363038e-02
3.65606695e-02
2.95751728e-02
4.74579772e-03
-1.68075234e-01
2.30551556e-01
3.29311602e-02
6.40384182e-02
-1.56290635e-01
-7.00319558e-02
-1.32412821e-01
-1.50996253e-01
-6.08481206e-02
-7.47965798e-02
1.44900158e-01
4.70151044e-02
-1.06065506e-02
1.04875758e-03
-3.80382389e-02
-5.50266095e-02
3.51495035e-02
1.35239111e-02
-4.54609543e-02
-1.41879112e-01
-9.08536017e-02
7.15621188e-02
-7.51828849e-02
-6.60910979e-02
1.02226660e-02
-6.07617237e-02
7.94451833e-02
-1.99156567e-01
-3.88214625e-02
1.64226200e-02
4.79814820e-02
-1.00799002e-01
6.33785594e-03
2.33747791e-02
2.82955132e-02
9.22098383e-03
-1.22287974e-01
-5.95168918e-02
-3.33226211e-02
-1.13796443e-02
3.31253782e-02
2.22121030e-02
-2.21866928e-02
-3.89939733e-02
-6.26560003e-02
1.28017753e-01
6.86844364e-02
4.07030880e-02
3.64356115e-02
-1.25636727e-01
9.22861919e-02
-1.69059448e-02
-3.14346738e-02
-1.44707397e-01
4.85548154e-02
8.67897645e-03
1.20130666e-01
1.12588130e-01
-1.41476439e-02
-2.34952513e-02
-2.12524995e-01
1.14093110e-01
-1.11214645e-01
-6.07847683e-02
-3.06875501e-02
1.75991356e-01
-1.05538338e-01
-3.35084125e-02
-2.62456816e-02
2.09547076e-02
-6.48730993e-02
4.54229601e-02
-2.99439095e-02
6.31127581e-02
5.27868569e-02
-3.58155146e-02
4.76546846e-02
-1.60517842e-02
8.84020608e-03
8.71420652e-02
-9.22915787e-02
5.47541976e-02
3.84752974e-02
1.87562238e-02
-2.52745114e-02
-1.00034617e-01
1.37286186e-01
-1.01290531e-01
-1.53347611e-01
-1.73500791e-01
5.53656444e-02
7.03340471e-02
5.50342463e-02
1.42982170e-01
-6.95212260e-02
-6.54818267e-02
-1.47067815e-01
-3.16092744e-02
2.05228459e-02
-8.29748586e-02
1.45943258e-02
1.34884834e-01
-2.44481727e-01
6.75077215e-02
2.13385373e-01
1.55466690e-03
1.86487287e-02
4.88743782e-02
-1.27274305e-01
-1.39070362e-01
-9.66736674e-02
6.75651729e-02
3.13028432e-02
3.85602303e-02
-4.52280790e-02
1.20318599e-01
4.05585840e-02
-3.69570553e-02
-1.44286439e-01
1.95174530e-01
9.76210609e-02
4.95084673e-02
8.70818868e-02
-1.62642840e-02
-1.41940834e-02
6.44454211e-02
-8.80503748e-03
9.46658943e-03
1.27132460e-01
-6.23258427e-02
-4.45371047e-02
1.23484224e-01
-1.13341711e-01
-8.02292526e-02
-1.07914926e-02
3.39436741e-03
-9.07983258e-02
5.77339604e-02
-5.15392423e-02
1.43857850e-02
7.31318966e-02
-3.23878191e-02
3.14565934e-02
-7.79051036e-02
3.43225035e-03
-1.31204635e-01
1.54304057e-01
-1.94352008e-02
1.35269866e-03
1.15710184e-01
-4.49078307e-02
-9.16403979e-02
6.87752813e-02
1.94405377e-01
-5.76639771e-02
1.60406783e-01
1.08504981e-01
-1.76613182e-01
-1.87839661e-02
8.85466207e-03
6.37015030e-02
-5.33481799e-02
-5.09498604e-02
6.99484721e-02
-1.43601045e-01
1.16190210e-01
4.04245332e-02
-3.97134013e-02
-7.08205299e-03
-1.94911193e-02
1.08586349e-01
-9.83659625e-02
-1.19356615e-02
-1.96434110e-02
-1.09921955e-01
1.02752268e-01
-3.14187184e-02
-6.11512177e-03
9.71262231e-02
1.25304163e-01
1.01544127e-01
-3.20092738e-02
-4.04793508e-02
1.09417289e-01
-1.00702219e-01
3.91385481e-02
7.62469396e-02
-3.45482118e-02
6.09448589e-02
-1.68946870e-02
-6.70780987e-02
-6.49433210e-02
-9.41392481e-02
8.07549804e-03
2.36681476e-02
-5.53940311e-02
1.11870375e-02
9.48169385e-04
8.10158402e-02
-1.04928620e-01
1.48022234e-01
5.64671271e-02
2.79708579e-03
-5.80748450e-03
2.57292036e-02
-1.06489345e-01
4.14214469e-02
-2.74174847e-02
-2.17176117e-02
3.39015424e-02
2.24697918e-01
7.97472447e-02
-1.20527230e-01
6.02315068e-02
-5.11468621e-03
-9.76902619e-02
-1.20081455e-01
-1.78745104e-04
-6.69185519e-02
-2.92752795e-02
4.35388461e-02
-2.83043478e-02
1.09360464e-01
-2.09768787e-02
2.45026704e-02
1.07880710e-02
1.67489294e-02
3.24930027e-02
-7.74025694e-02
-3.60367820e-02
-5.77180907e-02
1.60579517e-01
-1.87015161e-02
-8.03159326e-02
1.03445658e-02
6.35229051e-02
-8.99898335e-02
4.84727658e-02
8.30291957e-02
-7.18380138e-02
5.85500300e-02
1.72294036e-01
1.42739713e-01
1.15423426e-01
1.07230827e-01
-5.90136880e-03
1.47186639e-02
3.47524844e-02
-4.41879071e-02
8.82282034e-02
1.93184800e-02
7.61823952e-02
-1.87662989e-02
-6.25869930e-02
4.89605702e-02
2.18876615e-01
6.49425760e-02
-5.69984084e-03
2.66114455e-02
-1.27424020e-02
4.27223779e-02
-3.09172701e-02
1.13167185e-02
6.90729469e-02
-5.60432486e-02
-9.19475965e-03
1.61244988e-01
9.22777280e-02
3.28767784e-02
1.06200553e-01
4.64464389e-02
-1.95772890e-02
4.71755154e-02
2.49710102e-02
1.17159802e-02
4.11313549e-02
-4.78753587e-03
-3.10048014e-02
-1.43346146e-01
-2.00070161e-02
-4.19880040e-02
-1.28756370e-02
-1.71408772e-01
-1.29639904e-03
-1.54869976e-02
-4.64021973e-02
-4.70395871e-02
5.80290798e-04
9.23970565e-02
-8.71376097e-02
5.01292907e-02
-3.15307006e-02
5.91642670e-02
-7.85382837e-02
1.06751462e-02
3.56392562e-02
1.17619306e-01
5.76550066e-02
-4.02909741e-02
-1.57610998e-02
7.78917298e-02
-2.29560900e-02
-7.08325431e-02
-1.46771339e-03
-3.25258374e-02
1.16384603e-01
-5.02873361e-02
1.38634875e-01
8.82673636e-02
8.10534786e-03
-1.78892352e-02
-7.57240783e-03
8.79847328e-04
1.31035754e-02
6.99489191e-02
8.53720587e-03
-1.13630239e-02
5.88249005e-02
1.21704660e-01
2.91880989e-03
1.63108841e-01
-2.12626114e-01
-1.09426074e-01
-6.29543290e-02
-1.32584617e-01
-1.13433413e-01
-8.18379745e-02
8.65793228e-02
-4.30725850e-02
-3.76808606e-02
6.85578659e-02
1.81972742e-01
-7.24796345e-03
5.56713808e-03
-1.22526810e-02
2.45111086e-03
9.03956220e-02
1.23043470e-02
-6.74197376e-02
6.18899763e-02
-2.10786853e-02
-1.40631184e-01
7.81676248e-02
1.76033378e-02
-2.28906013e-02
-1.30716011e-01
-2.21396372e-01
-1.59097780e-02
-2.87630782e-02
1.05865300e-01
1.24737620e-01
2.08580457e-02
4.03207764e-02
6.16888292e-02
4.33517545e-02
4.39091623e-02
-8.52898657e-02
-1.38348773e-01
1.09063489e-02
-1.13776274e-01
4.48607914e-02
-8.76265988e-02
7.51029551e-02
-4.94518615e-02
1.01275340e-01
-9.97419730e-02
1.50104910e-01
-4.97964472e-02
-6.54594004e-02
5.49254194e-02
-4.09548059e-02
-1.99170448e-02
-2.69245934e-02
-5.19591384e-02
2.56309528e-02
-7.67459497e-02
-1.20076083e-03
-1.83988988e-01
8.36838782e-02
-1.09227598e-01
5.46548329e-02
-3.13772708e-02
-3.65870856e-02
1.29947206e-02
-4.71595675e-02
3.58135812e-02
-7.77596161e-02
-1.43768996e-01
1.52954474e-01
-4.08233814e-02
4.60615344e-02
1.37139121e-02
-3.20629142e-02
-5.59479482e-02
1.00766927e-01
-7.64570981e-02
6.17336817e-02
-8.97888914e-02
-1.54080857e-02
-1.40446290e-01
1.33484583e-02
-5.03029227e-02
1.08418614e-01
2.48934366e-02
-1.43710569e-01
-5.10916635e-02
5.24143241e-02
-3.46066393e-02
5.17446361e-02
8.60474259e-03
8.51968154e-02
4.45097089e-02
6.13154657e-02
-9.18840170e-02
-4.39015664e-02
-7.21038580e-02
1.03198749e-03
7.30537549e-02
1.21001966e-01
9.65536162e-02
9.51816095e-04
-1.74668375e-02
7.62379030e-03
6.11714050e-02
1.52692329e-02
-9.41407122e-03
-3.99326384e-02
-1.67787895e-02
-2.51178503e-01
5.69514073e-02
-2.92966305e-03
-1.25570908e-01
4.62442674e-02
2.38078032e-02
-1.33983403e-01
-1.47814332e-02
5.98086081e-02
1.08059123e-01
1.75312966e-01
-6.33172914e-02
3.26024629e-02
3.50569934e-02
4.62657586e-02
9.00157690e-02
-1.13560192e-01
3.07016876e-02
-7.41647258e-02
4.63375747e-02
2.30660662e-02
1.83608253e-02
2.13863868e-02
6.98180199e-02
-1.44456113e-02
3.21869878e-03
1.64315421e-02
-4.48817872e-02
1.56462006e-02
6.82817101e-02
9.24145579e-02
-5.43689802e-02
-1.66063346e-02
-3.02778427e-02
5.03203049e-02
-2.25369278e-02
1.04641564e-01
1.04531713e-01
-4.72595021e-02
-1.13633662e-01
1.73502583e-02
-4.50233035e-02
-2.54211072e-02
-2.30583381e-02
5.18028922e-02
1.34769976e-02
-2.98370365e-02
1.49952918e-01
7.60371536e-02
3.19328718e-02
5.59368283e-02
5.29935071e-03
9.37350616e-02
2.68122517e-02
-3.05245202e-02
8.02962705e-02
-9.46466625e-02
-8.65470916e-02
6.48504794e-02
-1.09597566e-02
2.09185198e-01
1.17101662e-01
4.01090235e-02
1.50424931e-02
9.20121931e-03
-1.16102463e-02
-2.93964166e-02
4.46875766e-02
-2.86855400e-02
4.85335663e-02
4.34125960e-02
-1.00776523e-01
1.48159370e-01
-3.10506970e-02
-4.87525627e-04
-5.08448221e-02
1.49659412e-02
4.46187193e-03
-6.64137490e-03
5.24648912e-02
2.75653377e-02
-8.02761465e-02
7.59798065e-02
3.61627303e-02
1.04488134e-01
-1.94507297e-02
1.74104795e-02
-6.33339062e-02
7.79511547e-03
3.18940878e-02
-1.43864557e-01
-9.25707072e-02
9.07481760e-02
2.57753562e-02
5.40737435e-02
-2.14423500e-02
-4.12244275e-02
-1.13060415e-01
7.00683668e-02
-2.25078017e-02
8.30590576e-02
7.56781101e-02
-5.58521003e-02
8.82470757e-02
-6.54736236e-02
-1.06917605e-01
-3.12186703e-02
2.36082617e-02
9.28816013e-03
-5.26562221e-02
-5.56784905e-02
-1.33692414e-01
-6.57188054e-03
1.17712304e-01
5.22173755e-02
-2.43383441e-02
-7.73327723e-02
-4.20692787e-02
4.95371856e-02
-9.93611291e-02
-9.88109186e-02
1.57133818e-01
-2.39768438e-03
1.32016554e-01
-2.78635584e-02
6.66409880e-02
-3.46103236e-02
1.61604375e-01
1.40481159e-01
6.44913241e-02
2.69513503e-02
2.00000349e-02
-7.63870552e-02
-8.72824416e-02
-3.21752951e-02
3.51270735e-02
4.70822081e-02
-6.04594685e-02
-1.29499119e-02
-2.68247705e-02
1.81909408e-02
1.43610523e-04
6.50060270e-03
1.13795146e-01
1.80307068e-02
1.11904263e-01
8.18894990e-03
-3.55653837e-02
-8.88839811e-02
-1.02088444e-01
-8.51970389e-02
1.65993832e-02
-1.36142864e-03
-3.92043591e-02
-1.19942531e-01
-3.25131975e-02
-1.07966281e-01
9.70539078e-03
-1.20027065e-02
2.52592424e-03
1.73745573e-01
-1.13100901e-01
-7.23207416e-03
5.67306913e-02
1.53886810e-01
-5.85215501e-02
-8.40940550e-02
6.57411963e-02
4.96061370e-02
-6.79769740e-02
-1.33280024e-01
-4.52721538e-03
1.15483768e-01
-3.36206183e-02
6.45705964e-03
-8.26143101e-03
2.94655524e-02
-6.66414900e-03
6.13476522e-02
1.15191534e-01
4.98717427e-02
1.70982763e-01
-1.18788213e-01
-2.25608051e-02
4.84089814e-02
1.63657125e-02
7.94780552e-02
-2.11769268e-02
-3.93111929e-02
-7.46879801e-02
1.45892471e-01
9.89153888e-03
1.53934807e-01
-1.14026166e-01
-1.13778941e-01
-1.29035577e-01
-1.20098121e-01
-2.26938844e-01
-1.16347380e-01
1.74251467e-01
-1.64887290e-02
-1.32610753e-01
4.51222360e-02
1.15453742e-01
-1.08375765e-01
-4.88677546e-02
1.54145677e-02
-2.77229655e-03
1.06938928e-01
-1.31459497e-02
-9.42235142e-02
-8.34399462e-02
1.32409751e-01
-6.37325943e-02
-3.02949175e-02
6.12887777e-02
7.23578855e-02
-7.32784942e-02
-1.20387718e-01
-6.14132322e-02
-5.05336076e-02
6.41398877e-02
-1.04528246e-02
-1.96142063e-01
9.61725190e-02
-3.38459411e-03
-2.43140124e-02
7.22312704e-02
6.20271638e-02
-1.28062561e-01
1.02974273e-01
-9.59076807e-02
-1.73142292e-02
-1.66516900e-02
1.29745483e-01
-3.97302508e-02
3.32424492e-02
-1.27614900e-01
1.62723824e-01
3.89586352e-02
-7.49278674e-03
6.01896830e-02
-8.48285258e-02
-6.15137480e-02
-3.78421023e-02
2.90053152e-02
-3.50665359e-05
-1.39250472e-01
1.32383332e-02
-1.54985204e-01
8.90725926e-02
-2.03521222e-01
5.33772521e-02
7.18771964e-02
-5.90631403e-02
1.19342394e-01
1.90891325e-02
4.02435549e-02
-4.91801091e-02
-9.21426937e-02
6.19130358e-02
-2.36272708e-01
8.24444517e-02
-1.08266369e-01
-7.25870878e-02
-9.57786944e-03
1.37495529e-02
1.34388581e-01
4.78040539e-02
6.25611618e-02
3.56624424e-02
-4.52465713e-02
-4.71346453e-02
-6.97364882e-02
1.24327000e-02
-1.93123259e-02
-1.32172123e-01
-1.40836397e-02
1.36551291e-01
-3.19940262e-02
1.02582559e-01
3.50476839e-02
8.76337588e-02
2.41236538e-02
1.05093531e-01
-2.18324307e-02
-3.92340533e-02
-5.30681461e-02
1.65984090e-02
9.66340378e-02
9.09551010e-02
2.59119552e-02
-2.22789533e-02
-2.28387676e-02
2.03581322e-02
8.32931101e-02
6.89795092e-02
8.58505219e-02
-2.84857117e-02
-3.82371768e-02
-1.09523252e-01
9.62627754e-02
8.86220299e-03
-7.69260302e-02
2.67637614e-02
7.76516600e-03
-8.45154822e-02
-3.54516692e-02
1.22863568e-01
1.00972280e-01
1.39948234e-01
-5.42648323e-03
-1.64392013e-02
4.89054844e-02
4.90321852e-02
4.94257547e-02
-1.17530420e-01
1.17722265e-01
-2.57916283e-02
4.12355317e-03
-2.66485605e-02
-3.06852181e-02
-2.90183071e-02
-7.66425207e-03
8.36300477e-03
-3.89714949e-02
-1.08989971e-02
-8.51372629e-02
2.13809051e-02
9.63935703e-02
1.37843996e-01
-1.50472997e-02
-8.51558670e-02
-7.54081905e-02
-4.15772051e-02
-5.88108646e-03
-2.24916581e-02
-6.46259636e-02
-4.68837172e-02
-1.04522094e-01
2.95942184e-02
6.82478249e-02
2.47056205e-02
-2.89062187e-02
-4.48142588e-02
-3.69240344e-02
1.59653738e-01
-1.36421324e-04
6.42173365e-02
3.69310379e-02
-1.57686491e-02
-5.72992340e-02
-1.64313734e-01
3.12691089e-03
-3.15907237e-05
-5.32656610e-02
2.00478360e-02
5.22707170e-03
-1.12744614e-01
-8.07731971e-03
-8.21736157e-02
4.82156640e-03
6.92474246e-02
1.39453277e-01
3.59955467e-02
1.94556429e-03
-2.04675980e-02
4.39452007e-02
8.90547410e-02
1.23055868e-01
-3.21402140e-02
1.72701124e-02
-1.65441576e-02
-3.09840832e-02
-6.90481067e-02
-2.49337982e-02
-7.68957287e-02
3.96589600e-02
-4.78282571e-02
8.81498381e-02
6.59686029e-02
2.15241611e-02
-5.10401018e-02
-1.00280151e-01
1.03261066e-03
-2.24741735e-02
4.23279405e-02
-1.05159283e-01
4.16768119e-02
-3.58617911e-03
9.22700316e-02
4.27531600e-02
9.87271499e-03
2.47897543e-02
-2.06260066e-02
4.26759236e-02
1.24426566e-01
-7.12397099e-02
-7.03426525e-02
-2.47941283e-03
1.01645358e-01
1.17626926e-02
5.28500825e-02
-7.98356459e-02
1.01275146e-01
-2.65588611e-02
4.94041331e-02
3.31324525e-02
-3.18168779e-04
-1.28123080e-02
7.45345429e-02
4.66292724e-03
3.61208320e-02
-9.02568027e-02
-1.05567142e-01
-1.41847029e-01
-5.47262281e-02
2.08929200e-02
-2.93309316e-02
-6.26035109e-02
3.99216563e-02
-2.30514426e-02
-4.32715379e-03
-5.40739000e-02
-3.62604558e-02
-1.93416905e-02
6.53803125e-02
-8.79747868e-02
-3.28496471e-02
-3.24963890e-02
1.55513408e-02
-6.61917788e-04
4.41254973e-02
2.66488101e-02
-5.49176196e-03
4.42984775e-02
1.87793169e-02
-2.77502947e-02
-5.30062430e-02
-1.45621998e-02
4.76458222e-02
-5.55786416e-02
1.09475039e-01
-1.97021496e-02
7.55399019e-02
-3.16993147e-02
-3.64069976e-02
-1.08620171e-02
-3.33459233e-03
1.05549596e-01
-2.92196497e-02
3.32798772e-02
2.90663578e-02
-7.99061805e-02
2.03299522e-01
1.40716517e-02
1.68141648e-02
2.06076484e-02
5.72486520e-02
-3.34326141e-02
3.43170017e-03
1.06585130e-01
-4.40680087e-02
-1.26500474e-02
2.78926194e-02
2.00664029e-02
-4.69094589e-02
2.85940114e-02
-7.00961053e-02
5.08824810e-02
-1.95706189e-02
1.46928262e-02
1.26942312e-02
1.34252474e-01
-5.29573932e-02
8.49773269e-03
-7.30786249e-02
-1.24306411e-01
-3.80961923e-03
-1.50970787e-01
-5.22507429e-02
-9.45079103e-02
4.98665422e-02
-1.21026170e-02
1.02566622e-01
3.65106277e-02
-4.16747704e-02
5.34289107e-02
4.60916571e-02
-1.59724616e-02
-1.01932660e-01
-3.84822302e-02
-1.35266334e-01
1.28191173e-01
3.29000615e-02
1.26483268e-03
6.19819993e-03
7.67798126e-02
3.98897268e-02
-1.73422605e-01
2.82457899e-02
1.83449283e-01
5.44128641e-02
-6.74904585e-02
1.38155306e-02
3.84236835e-02
6.64826110e-02
-1.56423170e-03
-1.24478921e-01
5.77724027e-03
-2.64031757e-02
3.31297554e-02
-4.51484546e-02
4.87392880e-02
1.76873058e-02
6.89690113e-02
-2.93202214e-02
1.24412782e-01
7.96672478e-02
-2.21056417e-02
3.81281264e-02
-1.59467950e-01
-7.40002468e-02
2.04942245e-02
-3.11547555e-02
-3.00085247e-02
6.10930882e-02
-5.74348643e-02
4.75107618e-02
9.17954892e-02
3.16137001e-02
2.85863644e-03
-9.40384939e-02
6.84018061e-02
-8.59798491e-02
-5.14611974e-02
-8.28234255e-02
6.85753301e-02
-9.73296165e-02
4.07761708e-02
1.44935679e-02
-2.34770570e-02
4.95246612e-02
-1.00221334e-03
-2.80339252e-02
1.53956180e-02
5.72820827e-02
1.52763158e-01
4.73579997e-03
1.26115054e-01
4.73564304e-02
6.34201616e-02
-1.11275442e-01
-2.74923854e-02
7.97436163e-02
-7.49232098e-02
2.40124241e-02
-2.01513469e-01
3.37967798e-02
2.07721181e-02
-2.42484678e-02
-4.31024209e-02
4.48756777e-02
-6.25863113e-03
-3.74869769e-03
2.32220255e-02
-6.70939982e-02
-1.23412162e-02
-1.46075562e-01
4.96192575e-02
-4.92634512e-02
3.30078341e-02
4.30533811e-02
-2.88238423e-03
-7.03543499e-02
-3.95698696e-02
1.07350737e-01
7.07887039e-02
-7.58356005e-02
2.18976140e-02
-2.49365554e-03
-1.10783927e-01
-7.07873255e-02
5.83418123e-02
-8.09035897e-02
3.35740596e-02
4.09181342e-02
8.16194713e-02
-3.55097167e-02
-3.07919700e-02
-1.58032835e-01
3.60843353e-02
1.51101932e-01
1.81039684e-02
-1.25598172e-02
-3.49345170e-02
4.68851477e-02
7.56016187e-03
-3.89569625e-02
-3.17432396e-02
1.35224894e-01
-7.98137784e-02
-4.76535298e-02
3.57559808e-02
-7.50857890e-02
-8.57643932e-02
-1.85398366e-02
-3.73337492e-02
-6.64794222e-02
-5.21673225e-02
-1.10622853e-01
-2.85893939e-02
2.79528499e-02
-4.48380485e-02
-2.39308719e-02
3.82860340e-02
1.11533711e-02
-3.07270568e-02
4.47903685e-02
-3.56717408e-02
-3.72215267e-03
-5.28559349e-02
4.81141657e-02
-1.27964154e-01
6.56611547e-02
7.67799988e-02
4.75965403e-02
1.76030591e-01
3.37190889e-02
3.48149873e-02
-8.58967528e-02
1.36725977e-02
1.04024507e-01
2.25466136e-02
-2.51924265e-02
1.36377215e-01
-1.23158783e-01
-1.55157939e-01
7.05893636e-02
1.18312826e-02
8.69699195e-02
3.09169013e-03
-2.01187469e-02
-6.83270693e-02
8.93544480e-02
1.68636087e-02
1.05635993e-01
-1.65917166e-02
1.56808309e-02
9.33592245e-02
2.56626382e-02
-8.37026350e-03
-4.32410315e-02
-4.40315530e-02
5.48626333e-02
-1.61375836e-01
-4.82157208e-02
1.07920937e-01
-8.21745209e-03
-2.71326154e-02
1.96040981e-03
3.25007737e-02
1.30032897e-01
9.38321725e-02
6.22962601e-02
8.87376145e-02
-1.87873957e-03
1.74452718e-02
4.81184162e-02
3.37104686e-02
1.21851778e-02
-6.33562775e-03
4.04292420e-02
9.57069919e-03
-4.96210754e-02
4.41419147e-02
-6.59223124e-02
6.93163946e-02
1.56955738e-02
2.95600407e-02
1.16567641e-01
7.71263763e-02
-6.84977248e-02
-9.07536745e-02
9.31410305e-03
-3.17015536e-02
9.28211212e-03
-6.83549866e-02
4.24943380e-02
7.28383735e-02
1.56315826e-02
5.21566607e-02
2.53277309e-02
3.18898447e-02
2.25470960e-02
3.21865752e-02
1.46748394e-01
-6.88376799e-02
7.15606287e-03
-3.87822906e-03
1.16906308e-01
-4.48821113e-02
5.98578602e-02
-4.18304838e-02
7.35962316e-02
6.30691722e-02
-4.46160920e-02
-2.27107015e-02
-8.77642930e-02
-1.13847274e-02
-2.72732694e-02
1.07695952e-01
-3.57477628e-02
-3.57031189e-02
-1.74035832e-01
-5.87489195e-02
-9.91849974e-02
-3.14250551e-02
3.66008468e-02
-2.31027510e-02
-2.83635855e-02
-5.43720927e-03
-3.15976702e-02
-6.51615858e-02
-5.10742329e-02
-1.38660893e-02
6.64334148e-02
-1.12402745e-01
4.22462262e-02
3.41671407e-02
3.99277918e-02
-8.64975620e-03
-4.29016128e-02
-2.74947472e-02
1.13219852e-02
-4.16941270e-02
1.26734553e-02
-3.22401673e-02
-1.11404192e-02
-5.63890301e-02
1.20473012e-01
-1.75295323e-02
1.23517156e-01
1.47321913e-02
1.00255989e-01
2.66030971e-02
7.37315565e-02
-2.89096180e-02
1.29154608e-01
4.98615988e-02
-2.98316516e-02
4.68237288e-02
9.04522315e-02
-1.17082253e-01
2.32928485e-01
-8.07360038e-02
5.91958966e-03
1.20763304e-02
-2.60174815e-02
-3.75232436e-02
7.85080940e-02
6.17618226e-02
-8.94376636e-02
3.88684496e-02
1.95176080e-02
2.60296445e-02
-3.69242299e-03
-3.01237870e-02
-8.73634592e-02
7.61603415e-02
-9.52566564e-02
6.95865899e-02
-2.64318064e-02
9.20808613e-02
-8.24265629e-02
4.09517623e-02
-1.54059231e-01
-6.40540347e-02
-1.31571457e-01
-1.78405911e-01
1.43853007e-02
-1.47139356e-01
1.84546374e-02
5.14623262e-02
1.04767568e-01
-5.14290296e-03
5.97727709e-02
1.79055538e-02
7.37153962e-02
-3.89058515e-02
5.27907796e-02
-2.93034948e-02
-8.51393715e-02
1.32615060e-01
-5.22072539e-02
9.12993997e-02
-7.31810033e-02
6.62011877e-02
5.46786115e-02
-6.96061105e-02
3.27942744e-02
1.34211943e-01
-9.18361067e-04
-6.06848672e-02
2.73802951e-02
-4.76992801e-02
9.60020274e-02
1.72494166e-02
-1.34476036e-01
2.18809117e-02
-2.65793838e-02
-9.59282666e-02
4.21562493e-02
-1.68421566e-02
6.77967966e-02
4.38170098e-02
8.41773767e-03
1.52238458e-01
2.52254065e-02
2.87599098e-02
6.95372298e-02
-9.07001868e-02
-4.20845412e-02
1.24445166e-02
-9.63313580e-02
-4.19711545e-02
-4.89748456e-02
-1.17419675e-01
8.10375512e-02
1.57745048e-01
5.01798950e-02
-4.66967486e-02
-1.77603558e-01
1.17635265e-01
-7.78180435e-02
-1.17957629e-01
-1.50067061e-01
3.95534970e-02
-1.28110468e-01
7.51987100e-02
-6.60603866e-04
-6.69318298e-03
4.05330397e-02
1.96478218e-02
-1.47903133e-02
7.80565217e-02
-1.45156272e-02
1.19037464e-01
2.66627315e-02
7.64469355e-02
-3.91990459e-03
7.28455037e-02
-7.52658099e-02
3.03308070e-02
-2.02346034e-02
-5.25823161e-02
-3.72939259e-02
-1.70993924e-01
4.53487560e-02
2.47588977e-02
-1.04115382e-01
-4.81988303e-02
1.33828729e-01
8.19643438e-02
3.04180067e-02
1.01418540e-01
-1.81361306e-02
-1.97993126e-02
-1.58135936e-01
-3.25366110e-02
-1.54148154e-02
-1.50575796e-02
4.83817980e-02
9.89794731e-02
-2.24672124e-01
-4.61727306e-02
1.03645949e-02
4.11178246e-02
-1.11852281e-01
1.53308278e-02
-9.98440315e-04
-1.29909709e-01
-7.18393102e-02
-1.41005795e-02
-8.10363814e-02
1.03295952e-01
-7.10615665e-02
1.10282354e-01
4.38656919e-02
-4.89027463e-02
-8.36121887e-02
1.01037055e-01
1.84633613e-01
4.95804995e-02
1.24171577e-01
-9.12307426e-02
7.77656510e-02
5.29193804e-02
-4.52194177e-02
2.20778026e-02
7.28632212e-02
-7.85726979e-02
-6.07734658e-02
8.96288678e-02
-6.65593147e-02
-1.19556352e-01
6.31349385e-02
9.74871740e-02
-9.75413397e-02
-3.53821670e-03
-8.46761316e-02
-1.09380543e-01
-9.09767207e-03
-5.62557280e-02
3.17018777e-02
-3.06423381e-02
9.91941337e-03
-6.95633665e-02
3.75293121e-02
-4.86619473e-02
1.47964573e-04
-1.32247880e-02
4.03188504e-02
-3.86415832e-02
2.53392123e-02
1.35604084e-01
8.66264105e-02
1.84355408e-01
4.91836071e-02
1.47384475e-03
-1.48259318e-02
-4.58237343e-03
1.42906755e-01
-6.81623518e-02
-7.94097781e-02
1.23928413e-01
-1.11709684e-01
-9.60983112e-02
4.57695499e-02
-6.73781931e-02
-1.51398673e-03
8.96272212e-02
-1.95949208e-02
-5.71196303e-02
8.08774605e-02
1.28647583e-02
1.59383401e-01
-8.85367841e-02
1.67435352e-02
2.58035567e-02
-4.51638512e-02
2.14359146e-02
-1.22514628e-01
-4.89644296e-02
1.43186394e-02
-1.15563877e-01
-5.79560781e-03
1.14739262e-01
-6.79714754e-02
-9.69680026e-02
-1.96673404e-02
1.29889287e-02
1.10601716e-01
1.20463289e-01
6.47786409e-02
1.11565962e-02
1.06608113e-02
-3.20613128e-03
5.60336187e-02
5.98493814e-02
4.82793245e-03
8.06224570e-02
-5.50387017e-02
-4.01655957e-02
-9.77835339e-03
3.60279009e-02
-9.26592667e-03
-1.52191147e-02
3.39116640e-02
7.25399926e-02
-1.50872683e-02
5.09578586e-02
-1.39364466e-01
-6.98982552e-02
5.24514504e-02
-3.57586481e-02
-1.21550635e-02
-1.98959671e-02
-1.36373155e-02
6.19986318e-02
1.63764238e-01
3.81934154e-03
7.35324807e-03
-6.01593591e-02
2.15505250e-02
3.48427966e-02
1.08616531e-01
-4.45303395e-02
-1.62458490e-03
8.09802040e-02
4.49239723e-02
-7.22228065e-02
-4.11528312e-02
-6.95467442e-02
6.09517619e-02
7.73035139e-02
-3.39001752e-02
-1.64736398e-02
3.71401981e-02
1.40898032e-02
1.89691912e-02
1.54634565e-02
3.54110114e-02
-3.77597171e-03
-1.45604402e-01
-3.01156342e-02
-8.05189684e-02
2.40081977e-02
5.64791374e-02
-1.07308917e-01
-2.74788514e-02
-4.43753265e-02
1.89221688e-02
-3.38195674e-02
-7.41031673e-03
1.77521296e-02
2.91193556e-02
-1.47442520e-01
-2.97601661e-03
-3.48921306e-03
5.02120480e-02
2.44713761e-02
1.17154615e-02
5.93047515e-02
7.47026131e-02
-6.24046102e-02
-4.75565763e-03
3.37545946e-02
2.78316680e-02
-2.45722644e-02
-1.71441454e-02
-3.11768837e-02
6.63360730e-02
1.44239292e-02
5.10467552e-02
-1.04544908e-02
-7.80996233e-02
-3.76015902e-02
9.64413658e-02
9.89753082e-02
3.37087782e-04
8.98793414e-02
9.52390023e-03
-1.14725783e-01
2.37632066e-01
-2.64301915e-02
4.43131961e-02
8.20444804e-03
-2.27214582e-02
-1.27736367e-02
-1.79358609e-02
1.36882275e-01
-5.19256070e-02
-6.16040863e-02
-4.72333794e-03
1.75651554e-02
-7.55770784e-03
-4.19898964e-02
6.97997259e-03
-1.33011090e-02
-8.74397978e-02
3.15960161e-02
-6.65892363e-02
1.25147268e-01
2.92516984e-02
1.01390943e-01
-2.91316379e-02
-9.06854495e-02
-7.65125379e-02
-1.51661634e-01
-3.85023244e-02
-1.63550660e-01
7.73054957e-02
2.28506271e-02
6.44868193e-03
-7.92413205e-02
-5.87239824e-02
-2.95999572e-02
5.26712015e-02
-2.51919380e-03
5.97409112e-03
-7.53883049e-02
-1.11753821e-01
3.73315364e-02
-1.30453045e-02
7.11437836e-02
-8.93492177e-02
1.19609468e-01
2.93708537e-02
-2.41396725e-02
8.60183537e-02
2.17669025e-01
7.47072846e-02
-1.08610995e-01
3.11670229e-02
2.54990850e-02
-3.18836272e-02
5.58133097e-03
-1.07703440e-01
3.53622288e-02
2.54969727e-02
-6.25041798e-02
5.40788705e-03
1.39941275e-02
3.85758057e-02
-3.52245271e-02
2.98928358e-02
2.29564384e-02
5.94876967e-02
1.62726995e-02
5.89688979e-02
-1.20920956e-01
3.38374898e-02
-1.12033365e-02
-9.00152624e-02
-1.25661060e-01
1.69173293e-02
-7.30547234e-02
1.22492328e-01
1.95385739e-01
8.83978009e-02
3.42438705e-02
-5.96660227e-02
1.35640338e-01
-1.20243818e-01
-6.52251914e-02
-1.40452176e-01
8.53617787e-02
-1.25318930e-01
5.87480292e-02
-1.90458652e-02
-6.44196197e-02
7.65698329e-02
4.00385587e-03
-2.81348135e-02
5.80793023e-02
8.74043629e-02
1.66059732e-01
-2.54273415e-02
1.30387306e-01
7.06040338e-02
1.02441289e-01
-6.47488460e-02
-3.55796814e-02
7.76861468e-03
-1.75381191e-02
-3.44023108e-02
-8.58224556e-02
7.35826716e-02
4.60139289e-02
-2.59086210e-02
3.31532434e-02
5.95658682e-02
9.09256861e-02
-3.01805325e-02
1.24064527e-01
-1.44323986e-02
-3.78003083e-02
-8.84863138e-02
-1.85313821e-02
-5.31776063e-02
-1.92705095e-02
-2.10808008e-03
8.27596933e-02
-1.81670740e-01
-8.71883631e-02
4.59746122e-02
4.06911895e-02
-4.67930883e-02
6.65575936e-02
6.53888984e-03
-8.41810405e-02
-1.04307637e-01
-3.82724106e-02
-1.11943252e-01
3.97233516e-02
-3.85916270e-02
7.07911104e-02
6.06131479e-02
-4.45786677e-02
-1.71326980e-01
-2.08592135e-02
1.41515732e-01
4.74326983e-02
4.58223410e-02
-6.67744726e-02
1.30141294e-02
4.18447293e-02
-3.02845761e-02
5.53398542e-02
1.54823884e-01
-8.64203051e-02
-1.45331919e-01
2.21804865e-02
1.87055357e-02
-8.65228698e-02
8.33455026e-02
-6.10696152e-02
-9.33592692e-02
-6.55499846e-02
-4.67749313e-02
-3.21640372e-02
1.82005968e-02
2.66178809e-02
-6.18301705e-02
8.12697411e-03
1.87417455e-02
-4.22901139e-02
4.16861102e-02
-9.25703198e-02
-4.91625778e-02
5.47917634e-02
-1.86526887e-02
-6.74670562e-02
-3.04597765e-02
6.40806034e-02
1.08930161e-02
1.51280552e-01
7.01911524e-02
7.29339803e-03
-4.39893082e-02
3.36473435e-02
1.57101840e-01
2.58725043e-02
-3.28432694e-02
4.53106984e-02
-1.24965087e-01
-7.23085180e-02
-3.82996015e-02
1.76575426e-02
-2.20681932e-02
1.05932340e-01
4.23444100e-02
-7.51970783e-02
9.04219877e-03
-4.54259664e-02
-1.25396013e-01
1.25826791e-01
-1.69441327e-02
4.57211323e-02
1.02184385e-01
8.64986107e-02
8.46101791e-02
2.44509801e-02
-1.79537348e-02
1.22688860e-01
-4.25719880e-02
-2.20396984e-02
8.99633393e-02
-6.78735375e-02
1.11552231e-01
6.17048703e-02
2.08928641e-02
-9.78076980e-02
-2.22819112e-03
-6.89265225e-03
-7.86802694e-02
-7.47379065e-02
-3.72071788e-02
-4.18558642e-02
1.50572378e-02
-1.05311826e-01
2.02733040e-01
-5.41454889e-02
-1.58355534e-02
-5.18723689e-02
4.29981351e-02
-5.74076734e-02
-1.75172724e-02
3.63967419e-02
6.70466898e-03
-1.23539697e-02
1.43151581e-01
1.17539987e-01
-2.22949069e-02
2.97208186e-02
2.77467445e-03
-1.19126514e-01
-6.47216067e-02
3.60740274e-02
-1.41919002e-01
-5.83727583e-02
-2.79813372e-02
-1.22140637e-02
1.47242472e-01
7.07536787e-02
1.80189721e-02
-7.31123686e-02
-4.67967689e-02
5.47150057e-03
-9.85477772e-03
1.05699925e-02
5.27293533e-02
8.82407054e-02
-3.42721045e-02
-1.43262714e-01
-2.57729273e-02
3.21822390e-02
-9.39647928e-02
4.41655181e-02
7.74294510e-02
-2.08598420e-01
7.58164525e-02
1.49353370e-01
1.21512763e-01
5.01781190e-03
7.63052003e-03
-5.14040962e-02
5.93147576e-02
6.56037172e-03
-4.46289107e-02
1.16413690e-01
3.67073156e-02
9.78105739e-02
6.12128899e-02
-3.63496430e-02
3.30647640e-02
2.31711656e-01
7.77654117e-03
-1.07083470e-02
1.52678993e-02
6.51752716e-03
-5.93782477e-02
-6.65882602e-02
-2.07485594e-02
2.07898226e-02
2.81506013e-02
-2.70095728e-02
1.08618490e-01
3.28465402e-02
1.77104939e-02
1.03044622e-01
1.23577341e-02
6.10686988e-02
-8.27816036e-03
7.23532215e-02
5.60807846e-02
-1.93411782e-02
1.19571807e-02
-3.30130123e-02
-1.41285092e-01
-6.65968806e-02
-3.02490336e-03
-7.75477737e-02
-1.98201209e-01
7.62047097e-02
-1.35537878e-01
-4.74891923e-02
-6.23224257e-03
-6.14837743e-03
2.12430805e-01
-1.18045963e-01
-5.27248578e-03
-9.80252214e-03
1.42050192e-01
1.80440545e-02
5.01492433e-02
4.48371284e-02
9.56836492e-02
-7.20314085e-02
-3.54346074e-02
-1.18474327e-02
9.27358344e-02
-5.89220077e-02
1.50241395e-02
-2.46787574e-02
8.71106014e-02
5.61821796e-02
6.02434613e-02
1.73185840e-01
4.82212752e-02
4.10842188e-02
-1.35797188e-01
9.60535184e-03
1.13953622e-02
-2.85247359e-02
-2.15956718e-02
-1.98548585e-02
-5.08420169e-03
7.25919306e-02
2.07081720e-01
6.88401386e-02
7.93781430e-02
-2.24508613e-01
-3.78759913e-02
-8.09096918e-02
-1.43011957e-01
-1.55880138e-01
-1.09269738e-01
1.22710817e-01
2.85146721e-02
-3.79850902e-02
4.35989238e-02
2.05715328e-01
-7.48989508e-02
-6.90222858e-03
2.40196083e-02
4.10401262e-02
1.28843606e-01
-4.50449139e-02
-1.61196291e-01
1.52795296e-02
3.34593132e-02
-1.97110742e-01
8.54968429e-02
4.02671695e-02
-2.83672288e-02
-1.52921185e-01
-1.79866716e-01
1.50627941e-02
-9.36351425e-04
8.16428587e-02
4.72213440e-02
-9.44989026e-02
9.14357007e-02
7.53814634e-03
2.76981872e-02
-1.29376156e-02
7.60031445e-03
-1.01260655e-01
1.72334954e-01
-1.21396936e-01
3.20944786e-02
-1.34911254e-01
4.80739474e-02
-1.29644394e-01
1.15594909e-01
-1.02455325e-01
1.57670662e-01
-6.23192787e-02
-3.32653262e-02
-4.38814014e-02
-6.30542859e-02
2.86603416e-03
-6.63735643e-02
-7.68565526e-03
-3.31490859e-02
-3.75290290e-02
-6.49160370e-02
-1.42820328e-01
1.33294120e-01
-2.30479106e-01
9.92234871e-02
5.49408682e-02
-1.02995321e-01
6.32166117e-02
-2.76044160e-02
1.08328976e-01
-9.25565138e-02
-1.19628362e-01
7.16095716e-02
-1.08502977e-01
6.44680858e-02
-7.25584617e-03
-1.65338084e-01
3.00125219e-02
-1.93369098e-03
-2.98224166e-02
-1.27253626e-02
-1.02017626e-01
8.15512314e-02
-1.03003256e-01
8.81731696e-03
-8.42681378e-02
5.84501922e-02
-1.33354999e-02
-1.04921289e-01
6.94233971e-03
7.08664060e-02
-3.54061201e-02
2.86540985e-02
1.17818108e-02
1.34883329e-01
-5.02670966e-02
5.59219383e-02
-9.28416401e-02
5.19012697e-02
-3.53706479e-02
-3.29077132e-02
3.27877961e-02
1.25945568e-01
4.62567620e-03
2.29732716e-03
-5.69380708e-02
4.95395139e-02
2.45547574e-02
-8.30560178e-03
-3.39376088e-03
-5.34466989e-02
-2.82757469e-02
-2.81198442e-01
4.64602821e-02
4.87790257e-02
-1.41013607e-01
1.27941757e-01
7.25574717e-02
-1.73535913e-01
-2.40957830e-03
-1.43942805e-02
7.61043578e-02
1.08359665e-01
-2.49505714e-02
1.79194305e-02
6.21631108e-02
-6.23163534e-04
-2.47488823e-03
7.49636767e-03
-2.09409315e-02
-1.54936299e-01
3.86774205e-02
-4.66296077e-02
4.12139148e-02
2.91629955e-02
5.12200966e-02
2.68716011e-02
-9.52545777e-02
2.00600345e-02
2.88447388e-03
7.02506397e-03
2.86413226e-02
9.40634906e-02
-7.85177201e-02
-4.79665473e-02
1.52765568e-02
1.11022912e-01
-5.01293093e-02
5.79615049e-02
9.61799026e-02
8.30503460e-03
-1.00922070e-01
2.73645483e-02
1.71192121e-02
-4.81096134e-02
-1.53011107e-03
5.70890829e-02
-1.06207497e-01
1.48068890e-01
-1.57091338e-02
1.01034887e-01
-8.37600529e-02
6.99079484e-02
-2.34170724e-02
5.58816679e-02
3.63031439e-02
2.56974827e-02
-8.22502375e-02
3.04348823e-02
7.01586576e-03
2.45023239e-02
9.56109986e-02
5.40295728e-02
1.58396307e-02
-5.20735793e-02
1.13620944e-02
-5.84465154e-02
-6.88290000e-02
-2.58905673e-03
2.27919314e-02
5.85476309e-02
7.75372013e-02
6.82630984e-04
-4.65348139e-02
-8.74026567e-02
-4.74657230e-02
7.19922110e-02
-1.00288324e-01
-1.24354810e-02
1.28418440e-02
4.49003242e-02
-2.76301019e-02
5.87425083e-02
1.89545620e-02
4.76586707e-02
2.22092532e-02
4.25593965e-02
3.06911059e-02
-3.20270807e-02
7.81253912e-03
-7.32796714e-02
2.40189787e-02
-1.30037919e-01
4.60350141e-02
7.53548145e-02
-3.29183526e-02
5.29683456e-02
-2.04823371e-02
-5.83997704e-02
5.05922735e-02
7.97303468e-02
-3.70030664e-02
-9.13938601e-03
-4.17896127e-03
-4.20445343e-03
-5.00277542e-02
2.13501658e-02
-8.65022242e-02
-1.04638049e-02
8.69370252e-02
-5.32199629e-02
-3.86500685e-03
-2.60715988e-02
-8.46039951e-02
-1.27213774e-02
2.40686964e-02
-4.62893583e-02
-8.42318311e-02
5.14430404e-02
-2.92579867e-02
-3.20238695e-02
-3.91428694e-02
3.94923799e-02
5.14410622e-02
2.14389190e-02
-8.00728947e-02
4.94377203e-02
5.11192754e-02
-3.26255560e-02
9.77598652e-02
-6.36712387e-02
6.15620427e-02
9.45916027e-02
6.09620325e-02
-4.19887602e-02
-1.13566548e-01
5.79194650e-02
6.04763776e-02
-3.81128676e-02
-2.39789598e-02
-2.98099983e-02
8.49787369e-02
8.03092122e-03
7.42973434e-03
-5.39700426e-02
-3.32950391e-02
-8.46277177e-02
7.66186044e-02
3.57669592e-02
-8.65385309e-03
2.87838210e-03
-7.03189671e-02
3.15999873e-02
-8.63291696e-02
2.84473617e-02
-7.52756465e-03
-6.88579530e-02
5.55994585e-02
9.55849215e-02
8.94552991e-02
-1.41113158e-03
6.62049232e-03
-5.43563180e-02
-4.70985807e-02
3.30865309e-02
3.80929485e-02
-3.01869381e-02
1.92895420e-02
2.95381360e-02
-1.12448214e-02
9.60972346e-03
-3.44503410e-02
4.17444389e-03
-4.55681458e-02
-7.23578706e-02
2.65206248e-02
6.22700937e-02
-1.12764537e-01
1.87561214e-02
-2.43139546e-02
-3.12175062e-02
3.55094783e-02
-1.60066579e-02
8.18684325e-02
-2.25325339e-02
4.01249379e-02
1.18093118e-02
-5.59752956e-02
6.71048239e-02
-7.80633092e-02
-1.99395735e-02
5.50279878e-02
-3.83077748e-02
8.10209736e-02
2.70461235e-02
4.77014035e-02
6.41781911e-02
-9.77422763e-03
3.97477299e-02
-1.08488515e-01
-3.93355414e-02
1.01744756e-01
-6.38705343e-02
-1.46568790e-01
-7.39549659e-03
5.02460524e-02
-1.87003203e-02
-9.05766785e-02
8.37472975e-02
1.44896181e-02
3.14835124e-02
1.02848774e-02
-2.23730374e-02
-9.96544957e-02
1.27048492e-01
3.00780754e-03
-1.04845442e-01
-5.39322533e-02
1.54593065e-02
-2.16311738e-02
3.40400413e-02
1.07078589e-01
1.28987627e-02
-4.92747948e-02
-5.32839494e-03
-5.22989258e-02
-1.09720193e-01
3.50291580e-02
4.75470945e-02
1.18940361e-02
-2.09284499e-02
1.36816641e-02
-7.12211281e-02
-1.12006546e-03
-5.30553870e-02
-6.44712150e-02
7.11865956e-03
4.34876084e-02
5.30463345e-02
3.44685540e-02
-5.07452339e-02
2.40977411e-03
1.13628536e-01
-1.27311274e-02
-2.58522909e-02
2.19775047e-02
4.11758833e-02
1.21487174e-02
-1.85362305e-02
-1.10779636e-01
3.46802287e-02
-6.85063675e-02
-2.00050697e-03
-1.01341996e-02
1.61607414e-01
-2.38963915e-03
1.23958580e-01
-3.04221222e-03
-5.07354476e-02
-4.48514335e-02
-3.52480672e-02
1.43189635e-02
-2.23658863e-03
8.31578597e-02
-2.33556163e-02
-5.09152859e-02
-3.51999253e-02
-2.36761086e-02
-1.73705257e-02
-3.55101787e-02
-2.53414810e-02
5.44567406e-02
-4.39646542e-02
-5.85780386e-03
9.01575685e-02
-4.57437895e-02
4.79627810e-02
8.73600692e-02
7.46365339e-02
-1.16093541e-02
-2.15978399e-02
-2.72786506e-02
-1.50164366e-02
3.70164551e-02
-1.60133392e-02
2.46023573e-02
-7.63998106e-02
1.95658021e-02
-8.26456398e-03
9.11367685e-03
3.21814716e-02
3.19881812e-02
-1.32266238e-01
-8.61359537e-02
-7.34304413e-02
2.40857434e-03
1.43722579e-01
1.26273826e-01
-5.72523586e-02
4.12918329e-02
-7.20632356e-03
2.57495791e-03
3.44175636e-03
-2.66629197e-02
4.71434742e-02
1.53579395e-02
-5.59071153e-02
1.40847517e-02
9.11155418e-02
1.28184520e-02
4.76185717e-02
-4.96452413e-02
4.14155051e-02
8.18554386e-02
-1.02518640e-01
6.13397844e-02
-1.18555874e-01
-3.73669900e-02
-5.34398444e-02
9.46735870e-03
-5.74471392e-02
-4.68852781e-02
2.39685122e-02
6.89587444e-02
2.64373012e-02
-1.07256304e-02
-2.30169459e-03
-6.03795312e-02
2.75652893e-02
-5.14461584e-02
4.63213287e-02
1.68888532e-02
-4.41747680e-02
-6.27982570e-03
-7.17463568e-02
-5.39614260e-02
7.77653456e-02
-9.48542133e-02
4.32167463e-02
2.73755961e-03
1.03057921e-03
-2.81090345e-02
-1.71006441e-01
5.65415807e-02
-7.78750926e-02
-6.94285613e-03
1.99180935e-02
-7.33568519e-03
1.77357838e-01
-9.67395604e-02
2.20900718e-02
8.83931760e-03
-6.91661462e-02
-6.35148585e-02
-9.86808017e-02
2.55421754e-02
8.59960169e-02
-1.29750725e-02
-3.71076278e-02
3.19688134e-02
-1.20585807e-01
-7.20789582e-02
4.05978262e-02
-9.35142711e-02
3.61795053e-02
1.05019182e-01
7.51829445e-02
5.21486215e-02
9.41001996e-03
5.78820966e-02
1.41652986e-01
1.95703208e-02
-9.25437734e-02
5.70926704e-02
-4.04742248e-02
-2.94953957e-02
-6.96471035e-02
7.45773837e-02
-7.33473897e-02
3.63634117e-02
7.24680861e-03
7.58453980e-02
4.86828461e-02
1.93524752e-02
-4.31094728e-02
-5.18510938e-02
-1.51612293e-02
2.66457405e-02
1.31474927e-01
-9.16359276e-02
7.21220002e-02
7.82795995e-02
1.09484844e-01
1.05519623e-01
3.70483845e-02
-5.34850620e-02
2.82473639e-02
-3.07931863e-02
8.23661834e-02
-1.06500477e-01
2.24713739e-02
4.99541089e-02
3.00084334e-02
-8.50915443e-03
1.61265265e-02
-6.50826842e-02
1.24438323e-01
-8.16381052e-02
1.01843793e-02
-1.50281768e-02
2.87385788e-02
5.92852533e-02
9.19227581e-03
1.30811572e-01
-5.62106855e-02
-2.49751732e-02
-7.41960853e-02
-4.67294529e-02
-4.24266309e-02
-9.23401676e-03
-4.61719558e-02
3.26449536e-02
1.66576114e-02
-4.43361625e-02
2.05911994e-02
1.69535950e-02
3.72560732e-02
8.70541409e-02
6.39551282e-02
-3.96838337e-02
-2.47293105e-03
5.50771318e-02
7.08036497e-02
-1.03811517e-01
-2.41421070e-02
-5.08180447e-03
-7.81993382e-04
-4.20132466e-03
8.36993456e-02
4.59676869e-02
1.03434769e-03
-4.90498841e-02
7.60904104e-02
-7.54899979e-02
6.34373873e-02
-3.83032858e-02
1.08317420e-01
1.71140935e-02
-4.12937738e-02
2.59182379e-02
1.68240890e-02
1.21056341e-01
4.77611311e-02
6.47883937e-02
5.31159453e-02
-1.68068528e-01
1.92208856e-01
4.05471213e-02
7.04704747e-02
-2.70456634e-02
5.11140153e-02
1.37350298e-02
4.20436338e-02
-1.71668944e-03
-6.49451511e-03
-3.36203910e-02
-1.40408659e-02
1.19409963e-01
-6.14649244e-02
-2.75223907e-02
-1.37083396e-01
4.57929671e-02
-3.97391580e-02
3.56567055e-02
-1.09136060e-01
1.09697871e-01
-1.97869428e-02
7.01350123e-02
2.80186953e-03
-1.21236779e-01
-8.33370164e-02
-6.73628598e-02
-9.74354148e-03
-1.12255916e-01
5.88294193e-02
4.04794328e-03
4.99183536e-02
1.20437583e-02
-1.03758872e-02
2.36724280e-02
1.06295258e-01
1.36494944e-02
-9.62108523e-02
-5.73269017e-02
-1.04940481e-01
1.31175697e-01
7.69600412e-03
1.06177554e-01
-7.62391910e-02
1.15985781e-01
1.91768655e-03
-4.93328571e-02
-3.22474795e-03
1.35940805e-01
3.90206389e-02
-1.16551623e-01
8.26898366e-02
3.86336707e-02
4.68672551e-02
3.02882660e-02
-9.21666175e-02
-6.08636141e-02
-3.01941112e-02
-4.72142687e-03
4.88608778e-02
1.86294951e-02
-7.81271327e-03
-3.25464532e-02
-7.03551173e-02
1.29157901e-01
4.34544198e-02
-2.26160567e-02
6.86669946e-02
-1.57143816e-01
-7.47892186e-02
3.84256132e-02
2.87470501e-02
-9.49463397e-02
4.62497510e-02
2.97760908e-02
8.60271007e-02
8.28853324e-02
-3.21965781e-03
-1.32572567e-02
-1.44912571e-01
2.98459381e-02
-1.41783953e-01
-8.76224637e-02
-1.49609298e-01
6.34036735e-02
-1.31701976e-01
3.74147855e-02
-8.88341665e-02
5.08820191e-02
3.31567936e-02
5.93077652e-02
1.85252610e-03
9.90176946e-02
-1.38352104e-02
9.96240750e-02
3.12388185e-02
2.63946448e-02
3.66445109e-02
4.38947156e-02
-9.43515897e-02
-3.35231498e-02
-3.95925455e-02
1.12938127e-02
-3.57194319e-02
-5.03091961e-02
4.53186221e-02
6.34664893e-02
-1.83302145e-02
-8.05564672e-02
1.20480664e-01
8.55641961e-02
7.05417618e-02
1.94410682e-02
-6.95627853e-02
-4.18238416e-02
-1.14377394e-01
1.66321523e-04
-1.69148631e-02
-5.29141687e-02
-6.05501942e-02
3.35775129e-02
-1.57223612e-01
-1.42135888e-01
4.52265702e-02
5.64588681e-02
-1.17240444e-01
2.06428003e-02
-7.73146600e-02
-1.03961468e-01
-7.13692904e-02
-2.43001170e-02
4.19165939e-03
1.54494839e-02
4.41672131e-02
8.22030008e-02
-8.57458171e-03
-7.04320222e-02
-1.23364180e-01
1.55403256e-01
4.44789119e-02
1.72075406e-02
5.62236346e-02
-7.92476311e-02
1.78374851e-03
-1.54097220e-02
1.18352454e-02
-9.78333782e-03
9.01504382e-02
-7.60297999e-02
-6.20149598e-02
1.21198408e-01
1.98643152e-02
-8.46024156e-02
8.70366842e-02
-6.54057488e-02
-6.52553737e-02
1.34966850e-01
-8.29566717e-02
-7.62615278e-02
7.82958120e-02
-7.99972937e-02
-1.16148749e-02
-2.90357936e-02
2.11932944e-04
-4.21296135e-02
9.22022536e-02
-5.61322048e-02
-8.13463982e-03
4.64298017e-03
-1.17116179e-02
-2.21301187e-02
1.23639870e-02
1.43183917e-01
7.70163909e-02
9.70629007e-02
-3.59979225e-03
7.55723054e-03
7.24343164e-03
-4.10043932e-02
1.91520900e-01
-1.15674427e-02
-3.17143984e-02
1.52269289e-01
-3.15040946e-02
-8.19521770e-02
-1.16845677e-02
1.78508069e-02
-9.56280529e-03
6.18541203e-02
6.16785744e-03
-7.90370628e-02
-7.73447705e-03
3.88791673e-02
-1.17909364e-01
1.59741715e-01
-1.74412020e-02
3.67990844e-02
1.32453352e-01
1.43351063e-01
3.78327668e-02
2.59338017e-03
-8.00044015e-02
1.03465080e-01
-9.15369689e-02
4.30020392e-02
1.34440020e-01
-9.88219753e-02
1.27778590e-01
-2.33560521e-02
4.88483757e-02
-4.40716520e-02
-8.42575952e-02
-5.69203123e-02
2.67216861e-02
-9.62297693e-02
-6.88426420e-02
-7.21487030e-02
8.48327652e-02
-4.59634848e-02
1.51747748e-01
-2.44129095e-02
-2.40138490e-02
-4.61064316e-02
5.58522940e-02
-7.03484342e-02
1.04679754e-02
1.71835199e-02
-4.16572951e-02
1.16442889e-02
1.79858536e-01
5.63371554e-02
-1.97920185e-02
-2.94862827e-03
-4.74499986e-02
-9.86294523e-02
-4.28012349e-02
-6.83730245e-02
-6.17417954e-02
-1.10549107e-01
5.51711395e-02
2.21442226e-02
1.52675286e-01
2.31413469e-02
3.48062664e-02
-1.29951502e-03
-9.71318316e-03
-3.61066312e-02
4.14618142e-02
6.57572672e-02
-7.49656837e-03
1.51150182e-01
-3.95166688e-02
-1.47194251e-01
-6.90834820e-02
4.87763882e-02
-6.72741085e-02
4.63205762e-02
1.60987880e-02
-1.61181793e-01
-4.75304835e-02
1.30068913e-01
1.50083572e-01
4.20215167e-02
3.92315276e-02
-5.96468747e-02
1.66974298e-03
-4.20121290e-02
3.66225764e-02
4.03235331e-02
1.88207831e-02
1.49166077e-01
3.81309278e-02
-6.54739067e-02
1.29112527e-02
1.87533885e-01
7.92672858e-02
1.89133547e-02
4.86380532e-02
3.92146111e-02
6.59733778e-03
2.38301121e-02
-4.13520113e-02
7.14251101e-02
8.70107301e-03
-2.65978239e-02
1.38226211e-01
7.13905394e-02
3.97039391e-03
1.36368662e-01
-2.81186644e-02
-9.23589710e-03
7.60875642e-02
8.56027678e-02
3.96170691e-02
4.50764485e-02
-8.83741602e-02
-4.26374329e-03
-8.70369300e-02
-6.76628724e-02
1.57559719e-02
-7.73801059e-02
-1.46007076e-01
1.82348564e-02
-1.03721969e-01
3.60811353e-02
-1.23370504e-02
-1.31533407e-02
1.24406822e-01
3.39722633e-03
4.61414270e-02
-3.86108495e-02
1.95842579e-01
-4.20968793e-02
3.37129161e-02
9.00750160e-02
4.32164744e-02
1.03597812e-01
-9.18299109e-02
-1.63993575e-02
8.60424191e-02
-1.65069588e-02
5.93993347e-03
-5.47550917e-02
1.56843085e-02
1.29890695e-01
-2.86075398e-02
1.56155109e-01
-3.10559832e-02
6.86809868e-02
-9.33021083e-02
-1.28659979e-02
1.24158524e-02
9.92419198e-02
4.06648926e-02
8.93184077e-03
1.17055746e-02
5.49006835e-02
1.21889509e-01
6.43267855e-02
1.33391157e-01
-6.18793815e-02
-9.49821621e-02
-5.42534664e-02
-1.03067406e-01
-7.51479939e-02
-5.41146845e-02
4.85559292e-02
4.85749282e-02
-7.14871287e-02
2.74955742e-02
1.55333653e-01
-5.50757013e-02
-3.71615812e-02
4.40257378e-02
2.38572694e-02
8.33924860e-02
2.07012612e-02
-5.65113388e-02
2.53423373e-03
-3.43970358e-02
-2.45697051e-01
2.26203185e-02
1.56714749e-02
-4.36344296e-02
-1.39508396e-01
-2.54446298e-01
-9.82699543e-03
4.85637486e-02
4.39919867e-02
4.98240776e-02
-8.05681273e-02
4.52552103e-02
-2.30644234e-02
-3.05190627e-02
3.56369503e-02
-2.37494446e-02
-1.72241211e-01
1.56181797e-01
-1.20131128e-01
4.89738882e-02
-7.57723302e-02
8.30183253e-02
-1.47414789e-01
1.07850701e-01
-1.49983168e-01
2.04440072e-01
-3.15226149e-04
2.89260712e-03
5.12835793e-02
-1.82731934e-02
1.54471293e-03
-6.34531602e-02
-2.03733873e-02
-1.78580591e-03
9.96065512e-03
-3.75329666e-02
-1.64129466e-01
1.23637185e-01
-8.51515457e-02
4.37446386e-02
4.30493169e-02
-1.11782946e-01
6.55251965e-02
-4.91542136e-03
5.36649674e-02
-1.03855301e-02
-1.01050310e-01
1.33737639e-01
-7.81584829e-02
5.60317524e-02
1.46459630e-02
-1.43223256e-01
-4.43294235e-02
4.22025705e-03
3.31375264e-02
3.43048722e-02
-9.25145596e-02
2.42578369e-02
-1.78682789e-01
-5.46782389e-02
-1.04614809e-01
7.11825565e-02
7.02790990e-02
-1.43036038e-01
-4.47455384e-02
1.58239529e-02
5.22057340e-03
6.61645904e-02
2.54434645e-02
1.07501335e-01
2.73691230e-02
3.60929780e-02
-5.15696146e-02
-1.53626353e-02
-6.14056885e-02
4.99790721e-03
5.01358956e-02
1.59146830e-01
1.05311170e-01
-1.77941918e-02
-4.47736494e-02
-5.96884750e-02
5.72549030e-02
-3.22098583e-02
-2.33410581e-04
-2.64697447e-02
-1.32424934e-02
-2.91072816e-01
9.85950157e-02
2.44473834e-02
-4.31131795e-02
8.03584605e-02
2.23423354e-02
-2.35519588e-01
3.04555614e-03
-1.52309714e-02
1.33710623e-01
1.24611855e-01
-4.10360731e-02
4.63258214e-02
3.56887169e-02
9.40947160e-02
4.25537899e-02
-7.29069412e-02
-3.38887759e-02
-7.46396333e-02
1.80522427e-02
-3.36615592e-02
-3.52649763e-02
-2.43261848e-02
3.05756717e-03
3.06474064e-02
-1.03410341e-01
7.83291608e-02
4.99676839e-02
-2.90419348e-02
4.38274145e-02
1.94252104e-01
-5.83673976e-02
-8.97843093e-02
5.83457761e-03
-1.28104798e-02
1.56056564e-02
2.01208033e-02
5.34696057e-02
4.49707583e-02
-8.35466161e-02
5.07661607e-03
-1.05875209e-01
1.28499363e-02
7.87184015e-02
-3.01670954e-02
3.13208029e-02
-6.02477938e-02
1.35499462e-01
-6.99494109e-02
1.56842936e-02
9.87750366e-02
1.26600146e-01
1.26769664e-02
2.60320529e-02
-4.33978550e-02
1.65869027e-01
-9.29799601e-02
3.35258320e-02
5.48368692e-02
-1.60937309e-01
3.16142514e-02
-2.10408773e-02
-4.46934961e-02
-6.43685684e-02
-7.67184496e-02
-5.09807207e-02
-5.41881733e-02
-8.92862976e-02
-2.59678513e-02
-5.93741424e-02
4.41569351e-02
-3.46425064e-02
1.56295657e-01
4.89278957e-02
-8.88285600e-03
5.13813123e-02
2.02669688e-02
-1.71145685e-02
5.41431680e-02
1.85636785e-02
1.70747042e-02
-4.07726644e-03
1.09686039e-01
1.07658401e-01
-8.97867791e-03
6.95923716e-02
-3.08070276e-02
-1.17927685e-01
-1.88508499e-02
-3.00682485e-02
-4.89581823e-02
-9.28335711e-02
7.03244656e-03
3.36535275e-02
1.25585139e-01
-5.21724597e-02
-3.31733860e-02
4.63899598e-02
7.31731672e-03
3.40353921e-02
-3.02689616e-02
2.37017963e-03
-4.76714112e-02
5.86972907e-02
-8.06567967e-02
-5.04024178e-02
-4.71714186e-03
-1.75938364e-02
-3.85911250e-03
1.66469496e-02
7.36570209e-02
-1.37901574e-01
3.49981412e-02
9.47760567e-02
1.53291717e-01
3.74629050e-02
1.44345716e-01
-3.41920257e-02
4.92905751e-02
-6.24856651e-02
-1.01684779e-02
6.04464523e-02
-3.08699179e-02
9.16434526e-02
-6.51861029e-03
-1.96242966e-02
5.49706593e-02
1.68026000e-01
1.03999920e-01
5.84978936e-03
2.73215212e-03
6.45550992e-03
-1.33250039e-02
6.20035175e-03
9.24334582e-03
5.53589836e-02
-4.43376862e-02
-4.16006409e-02
1.27864599e-01
4.12933268e-02
2.70124469e-02
1.84183717e-01
2.90921796e-03
2.41435207e-02
3.40408720e-02
3.94872352e-02
1.84920449e-02
1.23809233e-01
-7.16658905e-02
-6.04459420e-02
-1.37791649e-01
-5.00741191e-02
-1.36301611e-02
-6.25673607e-02
-1.11734256e-01
-3.65416706e-02
-1.07593901e-01
2.92304587e-02
7.35715181e-02
-2.66412133e-03
1.03567742e-01
-1.02312043e-01
1.34170623e-02
-2.19079368e-02
2.06222504e-01
-7.80404657e-02
2.57702712e-02
6.39098436e-02
8.24689716e-02
1.09028153e-01
-3.12321503e-02
-2.42375070e-03
4.61939089e-02
-7.14417920e-02
-1.31643389e-03
6.57356307e-02
3.26648876e-02
8.36603418e-02
-7.66085684e-02
1.37362331e-01
7.70404413e-02
1.36919796e-01
-1.03231892e-01
2.45064311e-02
-4.17307802e-02
6.56837001e-02
3.40292901e-02
-5.93321919e-02
5.96942089e-04
4.57947925e-02
1.17276356e-01
8.73892903e-02
2.44434625e-01
-6.68541044e-02
-7.91919678e-02
-1.07360333e-01
-1.43210590e-01
-4.52228412e-02
-7.34042376e-02
1.33669734e-01
4.23573777e-02
-6.63543940e-02
-2.55468837e-03
2.01801687e-01
2.44874451e-02
-2.95535568e-02
-3.00485343e-02
-6.51944568e-03
7.69654810e-02
4.98412526e-04
-2.86752786e-02
2.50209402e-02
-1.01037584e-02
-2.35849798e-01
4.14154641e-02
7.53933862e-02
3.94009054e-02
-1.09320402e-01
-2.20258698e-01
-1.59254093e-02
8.46221372e-02
9.30269361e-02
2.67768428e-02
-8.06907564e-03
1.19361983e-04
-9.19128489e-03
-3.38876471e-02
7.45703746e-03
-5.27471825e-02
-1.61323026e-01
1.39825106e-01
-5.79996295e-02
2.78686825e-02
-5.71671985e-02
2.92919409e-02
-4.26492803e-02
1.11667834e-01
-6.55724853e-02
1.61572695e-01
-4.19996716e-02
2.68168841e-02
-5.71797453e-02
-2.04628073e-02
-1.49259465e-02
2.46711839e-02
-5.74285397e-03
4.92736697e-02
-2.07545757e-02
1.85969751e-02
-1.82467297e-01
1.32313937e-01
-8.50470439e-02
5.09538800e-02
-3.26027274e-02
-1.22952824e-02
7.36031085e-02
-6.97991848e-02
9.49446186e-02
-1.45447209e-01
-1.06001221e-01
1.18104398e-01
1.97248589e-02
6.20055161e-02
2.89927777e-02
-2.99250986e-02
6.03239238e-03
1.14640892e-02
6.78892341e-03
4.97250743e-02
-6.01874888e-02
3.15183252e-02
-7.91687518e-02
6.58489903e-03
-8.82867873e-02
7.75896013e-02
1.00953087e-01
-1.23873726e-01
1.67488679e-02
1.10876430e-02
-4.44282927e-02
1.05259374e-01
1.57578811e-02
9.90511402e-02
-2.04592030e-02
9.55545902e-02
-6.26179129e-02
-2.23799446e-03
-1.18338779e-01
-4.93247397e-02
1.68736819e-02
1.00931115e-01
5.79718798e-02
-1.98896267e-02
-7.32953427e-03
8.39832239e-03
8.24989602e-02
-2.26376504e-02
5.14807738e-02
5.61684333e-02
-5.55171669e-02
-2.41624966e-01
9.30258855e-02
-1.48962196e-02
-1.16710655e-01
7.71524385e-02
1.02442391e-02
-1.69492885e-01
-5.46711031e-03
4.54302058e-02
1.00787953e-01
1.03028968e-01
-5.45044057e-02
2.37190183e-02
5.31440154e-02
5.82952052e-03
2.42573321e-02
-1.25078917e-01
2.89409682e-02
-4.84123789e-02
-8.08097050e-03
1.31525071e-02
1.35556166e-03
-2.22365223e-02
4.41657864e-02
6.43403381e-02
-1.65653341e-02
3.39370035e-02
-3.93169113e-02
-3.93278748e-02
4.35522478e-03
1.65719032e-01
-1.62630603e-02
-2.33574603e-02
-5.85873164e-02
3.45620606e-03
-4.94157262e-02
6.45616204e-02
8.95563513e-02
-3.48513871e-02
-8.70013759e-02
-1.62918530e-02
-1.10668600e-01
-2.50872429e-02
4.86046933e-02
4.90449779e-02
1.13199838e-01
1.12540154e-02
3.52454595e-02
1.08465753e-01
1.30920380e-01
2.41344329e-03
7.10217506e-02
1.44104855e-02
3.94879952e-02
-1.05180163e-02
9.41925868e-02
-1.30824298e-01
4.43406887e-02
-3.59863006e-02
-1.20453455e-01
8.04531947e-02
-6.45073205e-02
1.15404367e-01
7.03668818e-02
-1.28629152e-02
9.51108038e-02
-5.52321672e-02
5.11421598e-02
5.90025634e-02
5.74348727e-03
-5.54511026e-02
-8.82125553e-03
6.99517056e-02
-2.87503507e-02
-1.02224194e-01
6.73011839e-02
-4.59015928e-02
-2.81605348e-02
3.48010026e-02
1.17833503e-01
7.70388693e-02
1.39456123e-01
-6.03028350e-02
-5.59125692e-02
1.02452107e-01
-1.07813831e-02
8.33342597e-02
-1.91513613e-01
8.15949365e-02
9.37102959e-02
4.21770010e-03
2.89685316e-02
2.71639638e-02
-6.33523986e-02
4.76560406e-02
8.27476084e-02
1.58778727e-01
-1.31253213e-01
-4.17908765e-02
6.26320317e-02
7.26776347e-02
-3.37690376e-02
2.72360612e-02
3.59569900e-02
-2.37287953e-02
-6.71623200e-02
2.06101891e-02
-6.46543354e-02
4.66610072e-03
4.22407463e-02
2.18631968e-01
-6.77639544e-02
-6.18134476e-02
8.88042599e-02
-7.80014023e-02
7.55839748e-03
-2.07947679e-02
-3.74498591e-02
-5.47533333e-02
-9.29686949e-02
-2.86844000e-02
9.89032984e-02
3.10866646e-02
7.95032755e-02
2.08866340e-03
-7.35234353e-04
7.44310990e-02
-1.15667535e-02
1.60200652e-02
3.27075794e-02
9.63383466e-02
-7.55388290e-02
6.38407320e-02
-3.84766310e-02
5.66285998e-02
7.54794255e-02
4.53858599e-02
-9.05932635e-02
9.89076048e-02
-1.76101588e-02
1.30627379e-01
6.25085533e-02
5.10266982e-02
-1.90361515e-02
5.13321832e-02
-2.66300943e-02
1.06433779e-01
7.07133561e-02
4.46498506e-02
-2.36897497e-03
-3.75580452e-02
6.02247147e-03
-2.92766225e-02
-9.91988331e-02
7.41086081e-02
4.49743792e-02
6.76639676e-02
-5.19931130e-03
3.78773473e-02
-1.09992094e-01
6.75168112e-02
2.98571624e-02
1.26477601e-02
-3.02449763e-02
-1.15502393e-04
-6.46271929e-02
-3.50009203e-02
3.00425310e-02
-1.78824347e-02
2.38400511e-03
-1.30928680e-01
1.35557726e-01
-5.15385158e-02
4.77968454e-02
-3.98779996e-02
6.07504249e-02
-1.22748025e-01
-3.69918300e-03
-1.80994898e-01
-7.66505897e-02
5.11292443e-02
1.31189357e-02
-6.49415702e-02
3.95948126e-04
4.09928113e-02
7.60764331e-02
-2.14536749e-02
5.20297419e-03
1.05468303e-01
-1.15551138e-02
1.24668211e-01
-5.02516665e-02
-4.59404066e-02
5.72827645e-02
-5.02647720e-02
-3.89756151e-02
-1.77552581e-01
6.15583127e-03
1.04946559e-02
-3.80083211e-02
8.89736637e-02
1.18832923e-01
6.40412048e-02
1.91289447e-02
3.86627428e-02
-3.21284011e-02
8.18585083e-02
-1.30034890e-02
-8.41692463e-03
1.01706740e-02
-1.35205939e-01
3.52969617e-02
-9.03021358e-03
-1.29728779e-01
-2.99231354e-02
2.34344676e-02
-2.49516368e-02
-1.67044043e-03
-1.47444382e-01
5.57401069e-02
1.33109182e-01
-5.13001718e-02
-6.47167936e-02
-1.96230952e-02
-4.97966669e-02
-3.25253457e-02
-3.80993672e-02
-7.60337338e-02
-2.09528767e-02
3.02229170e-02
1.32702306e-01
-1.53274059e-01
-9.23105329e-02
2.99382750e-02
-1.12652317e-01
-1.38413027e-01
6.48535192e-02
8.06519855e-03
-6.20520301e-02
9.63878259e-02
-1.61853597e-01
1.27033005e-02
-5.39708287e-02
2.74924655e-02
6.05013296e-02
4.32280712e-02
8.22953805e-02
8.54261220e-03
9.36967209e-02
-6.87535340e-03
1.54230520e-01
8.01229328e-02
-1.34782314e-01
-8.11033100e-02
-3.18703651e-02
-1.57163367e-02
-6.18859939e-02
-8.71372037e-03
3.93480174e-02
8.83825682e-03
7.68671483e-02
-1.82337672e-01
1.20153092e-01
8.99984911e-02
-6.05306327e-02
9.66942310e-02
-8.97040367e-02
1.85666303e-03
-8.45980048e-02
-3.36280791e-03
6.51218891e-02
-1.29892677e-01
1.95025012e-03
7.31716007e-02
-1.54220581e-01
8.41500461e-02
2.40309089e-02
-9.50342640e-02
-7.35423416e-02
1.15587480e-01
-5.10195829e-02
-2.82467175e-02
-8.51064771e-02
6.69739721e-03
1.64596771e-04
7.46630281e-02
-6.10089749e-02
9.03054103e-02
-1.06657147e-02
3.93047258e-02
-3.41968797e-02
2.01421753e-01
2.05104098e-01
-9.96310040e-02
1.19401187e-01
-1.48654205e-03
1.33485988e-01
3.07687428e-02
-3.03339418e-02
-2.60799062e-02
-1.78049377e-03
-4.39652018e-02
-7.88094103e-02
-3.28554809e-02
-6.23024628e-02
-4.62516509e-02
-1.11686729e-01
4.82938588e-02
-4.81454879e-02
1.29040077e-01
-3.75150926e-02
-1.66348845e-01
1.19438469e-01
-3.20166796e-02
8.33306760e-02
-5.99910803e-02
1.00664869e-02
4.27470244e-02
8.49653035e-02
-2.21808907e-02
4.72183563e-02
3.45919728e-02
3.81089002e-02
-8.11246410e-02
-9.80009418e-03
8.24299082e-02
1.76537968e-02
1.32995263e-01
1.59335092e-01
-5.12307473e-02
-7.38821775e-02
3.78693901e-02
2.88582444e-02
-1.13058507e-01
-2.61168741e-02
1.48733243e-01
-3.76822762e-02
5.14906868e-02
6.47557229e-02
-6.36572018e-02
7.36839622e-02
1.95716619e-02
1.12001449e-01
-1.09048285e-01
9.54498351e-03
2.68074032e-02
-8.31943601e-02
1.60434768e-01
5.51547743e-02
5.07424809e-02
1.24038905e-01
1.23768449e-01
5.62892482e-02
1.33622214e-02
-3.91038619e-02
2.14962900e-01
-3.87260243e-02
-1.79782361e-02
1.09571852e-01
-3.11611909e-02
1.05421238e-01
6.70396760e-02
-9.03012305e-02
-6.44650385e-02
-4.61679511e-02
-6.80642426e-02
-6.47963285e-02
-6.49684444e-02
2.27704588e-02
5.66120585e-03
2.50827838e-02
-1.32031478e-02
1.00652739e-01
3.72600593e-02
6.62006531e-03
-5.36631495e-02
3.81934904e-02
-1.30390733e-01
6.52088672e-02
1.18041877e-02
1.60846245e-02
6.89847693e-02
1.90724418e-01
1.29149809e-01
1.03656789e-02
-1.23512158e-02
4.03074883e-02
-4.34332341e-02
-5.11675030e-02
-2.60702074e-02
-3.91180813e-02
-2.40387563e-02
6.81176111e-02
2.01968923e-02
1.41138107e-01
-1.76242143e-02
-1.88688990e-02
-1.14588197e-02
-4.27806471e-03
3.17434631e-02
-6.72871200e-03
1.87318325e-02
3.32743526e-02
8.52615237e-02
-4.72053587e-02
-1.23387299e-01
-2.53017005e-02
-1.21351574e-02
-1.20560899e-02
5.40356375e-02
-2.53478822e-04
-1.69575378e-01
3.98217067e-02
1.10784553e-01
1.22219719e-01
6.47015721e-02
5.84937446e-02
-6.16941005e-02
6.15801476e-02
1.22647081e-02
5.34714870e-02
6.29991442e-02
3.31359580e-02
7.98716843e-02
2.31763981e-02
-8.50900915e-03
5.09056933e-02
1.34618849e-01
2.07109619e-02
-2.96110585e-02
-1.41153773e-02
1.82032958e-02
-2.74158400e-02
8.75113439e-03
-2.50380840e-02
2.67988946e-02
6.90397981e-04
2.75488738e-02
1.07255057e-01
1.00674689e-01
3.55623886e-02
1.54642612e-01
-1.65439285e-02
6.64669052e-02
-1.73876844e-02
1.07234970e-01
9.49206874e-02
3.37542556e-02
-2.91316793e-03
-1.30553186e-01
-9.77535099e-02
-7.69491196e-02
-5.48615307e-02
-1.71863083e-02
-8.14680606e-02
1.62776150e-02
6.43756241e-03
-4.41742912e-02
3.93305384e-02
3.25173065e-02
1.71289101e-01
-7.25086108e-02
-1.86425727e-02
-9.39845107e-03
1.11793682e-01
-3.08025517e-02
5.84837906e-02
-1.04890065e-03
3.29472795e-02
5.75338565e-02
-3.96472141e-02
-2.65968814e-02
1.06716722e-01
-2.03079470e-02
-5.34810051e-02
2.81857532e-02
4.02559014e-03
3.93424593e-02
-2.48592459e-02
1.61816522e-01
5.00205792e-02
9.59434956e-02
-7.75259882e-02
-2.44878065e-02
2.14613508e-02
1.39829610e-03
1.00523271e-02
-7.82437436e-03
-5.79771288e-02
-2.50266399e-02
1.92584530e-01
6.57013133e-02
9.58707929e-02
-8.86192545e-02
-2.70248819e-02
-3.25433798e-02
-5.02888113e-02
-5.19307069e-02
-2.64741993e-03
9.97792706e-02
-2.93429638e-03
-7.96686932e-02
-1.35864886e-02
7.88097829e-02
4.41496596e-02
-4.85209599e-02
-1.46304583e-02
-5.08293100e-02
4.91931848e-02
1.94436554e-02
-1.50243612e-02
-4.41058464e-02
2.44902465e-02
-1.79468542e-01
2.25952771e-02
2.96061467e-02
-1.10410126e-02
-1.12426326e-01
-1.37976348e-01
-4.15084027e-02
2.67593358e-02
2.15999484e-02
1.40324920e-01
-8.55478179e-03
9.95923299e-03
5.53397276e-02
4.37828712e-02
2.47965548e-02
-1.10425420e-01
-1.37533724e-01
1.32246256e-01
-7.33337849e-02
1.67540684e-02
-3.02787386e-02
1.61586218e-02
-2.98604574e-02
1.26614064e-01
-5.81256300e-02
1.29471704e-01
8.00500624e-04
-3.10740853e-03
4.79408391e-02
-1.29916659e-02
-2.60380283e-02
-2.24302020e-02
-1.98488832e-02
-3.16775590e-02
-7.47111812e-02
-4.81663784e-03
-9.65187401e-02
8.24399889e-02
-5.40399924e-02
7.58260563e-02
1.56191038e-02
-4.71332967e-02
2.36900542e-02
-3.12892310e-02
4.87130284e-02
-2.55231988e-02
-1.30541503e-01
6.07811548e-02
-6.26797527e-02
6.67315274e-02
4.72833961e-02
-5.61445532e-03
-1.07576758e-01
2.38611866e-02
-4.09847545e-03
2.83836089e-02
-4.55980189e-03
1.73191335e-02
-1.63605317e-01
2.79753339e-02
-6.51684403e-02
8.97891521e-02
-2.60778349e-02
-8.04512054e-02
-3.60037573e-02
5.56797571e-02
-5.79468273e-02
1.16205439e-02
8.39742050e-02
1.04532577e-01
-6.13304600e-03
3.79392207e-02
-8.59306827e-02
-3.56001519e-02
-4.41035889e-02
-2.89890589e-03
1.01178803e-01
1.46893024e-01
3.27239744e-02
5.75034209e-02
-1.78604815e-02
-1.02232508e-02
-3.42904404e-02
-4.96886559e-02
4.48024459e-02
3.96266617e-02
2.79768258e-02
-2.46351376e-01
2.02913117e-02
-5.63842710e-03
-1.18655853e-01
4.19701561e-02
4.79005203e-02
-1.39416397e-01
-2.18012948e-02
3.48501503e-02
1.84997559e-01
4.63289954e-02
-5.90151027e-02
-1.33155445e-02
3.77945006e-02
1.04902685e-01
5.11728004e-02
-4.10610717e-03
3.39451246e-02
-2.34038085e-02
-4.30049561e-03
-3.44190486e-02
1.49869258e-02
-6.62964256e-03
2.47462783e-02
8.09826106e-02
5.45772389e-02
1.55609017e-02
-3.11892200e-02
6.87969429e-03
1.98499374e-02
1.51008919e-01
1.14400052e-02
-1.30996192e-02
1.79268643e-02
6.67190328e-02
2.36999374e-02
9.34935957e-02
8.17510579e-03
4.20028940e-02
-8.95998329e-02
-7.62970075e-02
-4.89759929e-02
1.96489617e-02
-7.75254238e-03
2.88609192e-02
3.39460894e-02
-6.62886426e-02
1.92236692e-01
-8.18997175e-02
-5.12612844e-03
1.36688992e-01
1.12044655e-01
2.20348500e-02
5.48804440e-02
-4.24584784e-02
1.29696980e-01
-6.94255382e-02
9.51546710e-03
1.16762526e-01
-1.20431103e-01
8.39375779e-02
-4.81763408e-02
-9.16338433e-03
-7.40196109e-02
-4.76717157e-03
-4.68399264e-02
1.63325798e-02
-1.14825793e-01
-8.43593478e-02
-8.78820866e-02
9.97931045e-03
-8.89259800e-02
1.21558234e-01
1.11566670e-02
-3.45307700e-02
2.01698150e-02
1.37011167e-02
-8.26498419e-02
-3.60682490e-03
-9.94652393e-04
2.25185100e-02
6.86313808e-02
8.82102549e-02
1.11311302e-02
-1.14589967e-02
2.34073158e-02
-4.27428223e-02
-1.36284471e-01
5.56420013e-02
-2.79427115e-02
-1.08022459e-01
-1.30362883e-01
8.64991918e-02
9.77331698e-02
1.06239498e-01
-1.49126984e-02
2.89502442e-02
-4.69067432e-02
-5.41391261e-02
4.27236035e-02
-8.02413560e-03
7.60626234e-03
4.26883735e-02
7.59643391e-02
-7.41854459e-02
-1.43368617e-01
-7.05006495e-02
4.40884680e-02
-4.40804176e-02
-4.14349176e-02
3.18296887e-02
-1.71963900e-01
-1.84661169e-02
9.98320207e-02
6.74472153e-02
8.55928585e-02
1.03296041e-01
1.25956163e-02
-7.92842242e-04
-7.10682198e-02
2.40401481e-03
9.72680002e-02
6.30049361e-03
1.09752342e-01
3.14105526e-02
-6.46696389e-02
4.14925590e-02
2.19061866e-01
1.68426540e-02
5.98587096e-02
7.86697771e-03
-1.87528133e-02
-1.90857537e-02
3.42735946e-02
-7.15075433e-02
5.73096313e-02
-3.54462489e-02
-1.84353516e-02
1.76469252e-01
6.72293007e-02
2.67110430e-02
2.07295761e-01
2.71191709e-02
-3.12941186e-02
3.17877233e-02
1.68417752e-01
5.69204427e-02
2.60733161e-02
-3.87816913e-02
-9.39861238e-02
-1.21726893e-01
-4.33931276e-02
4.14691940e-02
-5.29776327e-02
-1.42841518e-01
3.21906619e-02
-1.33175656e-01
3.42519060e-02
7.04162568e-02
1.34090632e-02
1.53980106e-01
-5.66490628e-02
6.97692037e-02
3.02662943e-02
1.49635121e-01
-8.25759619e-02
-4.74744998e-02
6.49612471e-02
1.09038530e-02
6.18096776e-02
-4.93260548e-02
1.61444563e-02
5.05875088e-02
-1.85486041e-02
-4.19057757e-02
3.14677623e-03
5.71827516e-02
1.38893247e-01
7.34074786e-03
1.81373224e-01
-3.12520973e-02
1.63463578e-01
-3.11703011e-02
1.43663762e-02
-5.34330681e-02
8.21607038e-02
-3.96416970e-02
3.80637571e-02
-2.48776656e-02
6.72630742e-02
2.07492858e-01
1.40144348e-01
2.57100344e-01
-1.99939206e-01
-4.46803235e-02
-1.19875923e-01
-1.70914873e-01
-1.06967345e-01
-7.48997480e-02
1.00684844e-01
-1.53121296e-02
-7.15874434e-02
5.37513196e-02
1.90316156e-01
-3.84745363e-04
-5.33069670e-03
1.18767552e-01
-6.81493357e-02
6.07380681e-02
5.17147072e-02
-1.47457913e-01
5.63244931e-02
-8.62448104e-03
-2.56632805e-01
1.09658346e-01
7.35025480e-02
4.80160192e-02
-2.63234321e-02
-2.65504450e-01
4.43857387e-02
2.57104859e-02
7.69037604e-02
7.61250928e-02
-1.06343143e-01
-7.59253465e-03
-2.44428329e-02
-3.34898345e-02
5.07759349e-03
2.65705623e-02
-1.77514225e-01
1.19938776e-01
-1.25360608e-01
8.18789378e-02
-1.29398242e-01
1.90646678e-01
-1.57419816e-01
1.02298029e-01
-8.38194638e-02
1.27058730e-01
-4.86152396e-02
-8.72584805e-02
-4.73083369e-02
1.32425660e-02
-1.80399399e-02
3.74006480e-02
-4.66809012e-02
5.65616181e-03
-1.62529219e-02
1.78723596e-02
-1.39540419e-01
1.21124350e-01
-2.05081090e-01
3.30582410e-02
4.40458432e-02
-1.13761291e-01
4.29291613e-02
-1.50322281e-02
1.55743137e-02
-6.47797808e-02
-9.01860595e-02
5.81910349e-02
-3.66519317e-02
1.23236321e-01
2.73796413e-02
-1.62428156e-01
3.08478419e-02
9.25702229e-02
1.65563207e-02
4.95818518e-02
-1.51413530e-01
4.29686718e-02
-7.88993314e-02
1.25132697e-02
-6.06597848e-02
1.23338677e-01
1.17076352e-01
-1.14893563e-01
-4.83321026e-02
1.78352371e-02
3.37361507e-02
3.97990309e-02
8.80722627e-02
5.69778718e-02
6.51179403e-02
2.98859216e-02
-1.90579891e-02
-6.29969081e-03
-1.32771969e-01
-3.89039405e-02
1.09785274e-01
2.08236426e-01
1.32198438e-01
4.17070137e-03
-5.70538752e-02
-9.46841296e-03
9.70217735e-02
1.56792235e-02
9.20457914e-02
-1.82392132e-02
5.05145304e-02
-1.70588553e-01
8.74909312e-02
1.74568966e-02
-1.43121555e-01
-6.79022772e-03
-1.83815323e-02
-1.95923582e-01
-4.07643057e-02
5.18364534e-02
1.66349754e-01
2.03303337e-01
-7.10150748e-02
6.50481954e-02
2.27490142e-02
3.29010524e-02
1.41761247e-02
-8.75421986e-02
4.35809009e-02
-9.46687013e-02
5.24571259e-03
3.24119069e-02
5.42355701e-02
-2.15281118e-02
5.68269705e-03
7.74806663e-02
-9.77747738e-02
4.56071422e-02
-1.74400322e-02
-2.32215170e-02
7.11204410e-02
1.20728768e-01
1.86938401e-02
-2.73660365e-02
-1.14573846e-02
1.23550510e-02
-4.44735698e-02
2.60001533e-02
-2.42429669e-03
1.33866072e-02
-4.00575101e-02
7.11300783e-03
4.91393171e-03
8.49479288e-02
1.92112532e-02
1.00737559e-02
6.81173801e-02
1.79020390e-01
2.19775047e-02
-4.57669646e-02
4.85013127e-02
-4.53708619e-02
-1.97822060e-02
-9.12092477e-02
-4.72023711e-02
2.61052493e-02
1.02396344e-03
-9.85179748e-03
1.85179207e-02
-2.91162841e-02
-1.99050140e-02
-5.87569289e-02
-1.38027482e-02
9.46357846e-02
7.62968436e-02
9.04829279e-02
7.52541125e-02
-9.80272666e-02
3.11770570e-02
4.49589305e-02
4.47010621e-02
4.08036150e-02
2.46763253e-03
-6.26125112e-02
-1.51778469e-02
-3.24364565e-02
-1.75771452e-02
-5.35117276e-02
9.50965937e-03
-2.47655883e-02
1.12070084e-01
3.97231132e-02
1.38597488e-01
-7.65690953e-02
-9.81617793e-02
3.20210420e-02
1.98123325e-02
4.40141931e-02
7.47383526e-03
1.66480467e-02
9.59775075e-02
4.47842553e-02
-4.25360985e-02
1.41372517e-01
7.00386390e-02
3.22583644e-03
4.18658257e-02
7.48583823e-02
-6.25275150e-02
-4.63571511e-02
9.91295930e-03
9.67705529e-03
-6.56019077e-02
2.32087038e-02
4.13338058e-02
8.60861242e-02
-4.02441621e-02
3.07706352e-02
-1.07171051e-01
-7.34198168e-02
8.17532018e-02
3.25499015e-04
5.68301126e-04
-2.32576318e-02
2.98200119e-02
-6.32956475e-02
-1.08695433e-01
3.14115128e-03
1.08790267e-02
-1.87188350e-02
-3.54781374e-02
2.96053886e-02
-2.64236517e-03
9.85830128e-02
-1.28099071e-02
-7.19824135e-02
-4.76280265e-02
9.12749965e-04
-1.96620643e-01
4.01402935e-02
-4.79176417e-02
3.71111482e-02
-1.23934507e-01
2.70965137e-02
-3.39155160e-02
1.78975537e-02
-2.94601009e-03
-3.35098431e-02
2.92178970e-02
-1.27955824e-02
-1.90695114e-02
1.02561526e-01
-8.05374160e-02
1.04054444e-01
-1.38459541e-02
4.42274995e-02
-2.68921442e-02
5.57407066e-02
-3.40976119e-02
4.34245691e-02
7.85137564e-02
-5.44306729e-03
7.65620917e-02
5.80266304e-02
-6.96664974e-02
2.61002600e-01
-8.27240795e-02
6.39307126e-02
-1.34584159e-02
2.40149405e-02
-5.82496561e-02
7.93802217e-02
4.30593006e-02
1.98032912e-02
6.53128773e-02
2.68423669e-02
1.11599371e-01
-4.26527970e-02
-7.22026378e-02
-5.18588908e-02
9.79472175e-02
-3.08100190e-02
3.90870795e-02
-9.25460309e-02
5.93013465e-02
-5.40249683e-02
4.13608849e-02
-5.77669740e-02
-9.76076722e-02
-1.35296568e-01
-1.46519691e-01
-6.92997351e-02
-1.15738310e-01
8.08078274e-02
-1.42417802e-02
-1.47593580e-02
-3.58081795e-02
-2.16974206e-02
-2.34601852e-02
2.30442081e-02
4.56773816e-03
-1.91830955e-02
-2.24559695e-01
-6.99886978e-02
9.86880884e-02
4.95707840e-02
1.10319734e-01
-6.71333373e-02
1.62499696e-01
-1.01148512e-03
-1.76278234e-01
-4.33840416e-02
7.75036290e-02
1.92361064e-02
-6.00720905e-02
-2.17877068e-02
-1.36842923e-02
-1.20316250e-02
-6.19559316e-03
-1.16510972e-01
-6.32924885e-02
-1.27784247e-02
2.41744444e-02
5.69519401e-02
1.47972582e-02
6.85079917e-02
1.20481076e-02
2.71673463e-02
1.07137829e-01
6.52000085e-02
8.48351270e-02
9.42348540e-02
-3.08461897e-02
-2.99549382e-02
-1.16980802e-02
4.56252769e-02
-6.39123991e-02
7.68932104e-02
4.53053266e-02
1.18642062e-01
1.63401067e-01
7.62192085e-02
-2.83759832e-03
-1.72926009e-01
1.50148690e-01
-7.22008571e-02
-6.46582805e-03
-7.89404809e-02
6.88669980e-02
-9.04976130e-02
-4.52176258e-02
-2.12037060e-02
5.48416339e-02
7.27831060e-03
7.82076567e-02
3.51714790e-02
7.49975964e-02
-7.68370135e-03
-2.17053499e-02
6.34082332e-02
5.65981679e-02
3.34206969e-02
7.26505443e-02
-4.64038029e-02
-2.66997684e-02
7.97293261e-02
-9.32567939e-02
1.76512431e-02
-6.27144948e-02
7.12835565e-02
-8.96241963e-02
-1.45346135e-01
-6.89049810e-02
5.23093864e-02
5.34667037e-02
1.17440693e-01
1.44764129e-02
-2.06959751e-02
-5.11127748e-02
-6.53967336e-02
2.39226911e-02
-1.92983449e-02
-6.02107346e-02
-1.24100139e-02
7.11774379e-02
-1.72821060e-01
7.26574473e-03
5.71552180e-02
3.11982650e-02
-2.68183630e-02
3.79840471e-02
-8.18433017e-02
-1.04390718e-01
-9.93606001e-02
6.71356395e-02
-4.37583663e-02
5.19414246e-02
8.21656024e-04
8.20610896e-02
-1.03884516e-02
-8.85615796e-02
-1.89432487e-01
-7.42010772e-04
9.96041968e-02
-1.52081503e-02
4.82813641e-02
-7.90822282e-02
3.97485830e-02
3.50646712e-02
2.63613872e-02
-1.79973505e-02
7.34195411e-02
-2.14937273e-02
-1.06612436e-01
1.54979423e-01
-1.75813586e-01
-2.73802299e-02
-2.25701202e-02
-4.41298336e-02
-1.29358351e-01
-7.25871250e-02
-1.36203617e-01
-8.52147024e-03
7.96766281e-02
-3.02937925e-02
-3.87021713e-03
-2.18519513e-02
-1.23361801e-03
4.31459490e-03
4.94778082e-02
-8.64736512e-02
6.51369542e-02
1.17319748e-02
3.19036730e-02
-6.87076896e-02
7.26648644e-02
1.15496911e-01
7.43779093e-02
1.59689456e-01
7.48565570e-02
-3.77099328e-02
-4.45036218e-02
-4.68162484e-02
1.29606768e-01
-7.88133293e-02
-3.70957702e-02
6.33349568e-02
-1.02802038e-01
-8.51894394e-02
7.88285397e-03
-4.14381437e-02
-2.03192960e-02
1.77649839e-03
-2.45648879e-03
-1.94550127e-01
-2.61566080e-02
8.01684521e-03
2.23890886e-01
-7.10928887e-02
-2.11862661e-02
3.11937407e-02
5.17039420e-03
-3.70936058e-02
-1.21267803e-01
2.09236778e-02
2.48470269e-02
-1.24801159e-01
2.99404021e-02
7.89812505e-02
-1.06881984e-01
-6.25666380e-02
-2.63009574e-02
-3.19496170e-02
9.02668387e-02
1.30362600e-01
1.15101233e-01
-8.45654495e-03
-1.57549456e-02
-1.52189741e-02
6.81780130e-02
-3.77776055e-03
-3.97179089e-02
2.96727158e-02
-6.33256063e-02
-2.41101477e-02
-6.53779134e-02
-1.16874920e-02
-3.77539620e-02
2.29352452e-02
-9.26452689e-03
3.74074802e-02
2.92669088e-02
2.82466272e-03
-9.21338722e-02
-1.15169659e-01
3.51076275e-02
-4.48500477e-02
4.27108444e-02
-2.94491481e-02
7.00436486e-03
3.36772278e-02
3.52813601e-02
2.28473656e-02
9.19793639e-03
3.48998904e-02
-9.94205824e-04
1.38292704e-02
1.33502543e-01
-8.64918381e-02
-5.20911328e-02
8.16743895e-02
1.03590146e-01
-5.80112636e-03
6.62429929e-02
-1.87267456e-02
1.30269125e-01
3.73188406e-02
-4.27732170e-02
-7.10285455e-02
-2.57365080e-03
5.70493042e-02
6.12350330e-02
6.03207722e-02
-5.28266989e-02
-7.79132769e-02
-8.92027989e-02
-2.84414981e-02
-6.18586242e-02
-2.42869258e-02
6.47595227e-02
4.41204384e-02
-2.55109221e-02
-8.87757093e-02
3.31441984e-02
-5.59279770e-02
2.63266098e-02
1.57221723e-02
2.67858915e-02
-1.18153021e-01
-5.16791642e-02
1.90747511e-02
-8.37460347e-03
-6.21358976e-02
6.51677772e-02
4.00747918e-02
1.66601781e-02
-8.13915506e-02
-1.96284037e-02
-2.57240757e-02
-3.28499489e-02
-7.04663843e-02
5.09576239e-02
-4.52142321e-02
1.27913833e-01
-7.11761340e-02
5.24374545e-02
-1.21342596e-02
-3.59118357e-02
7.10016990e-04
9.04505476e-02
9.33513865e-02
3.80927287e-02
6.37352690e-02
-2.97738481e-02
-5.68715930e-02
2.98654258e-01
2.01455634e-02
3.95335928e-02
-3.53721306e-02
2.98469849e-02
-4.16480638e-02
-1.07731856e-02
1.56300321e-01
-4.66491915e-02
-1.97976101e-02
-6.43097982e-02
7.62257399e-03
-1.81567352e-02
-8.19904730e-02
-3.10460068e-02
-3.09655201e-02
-7.22253621e-02
4.46366109e-02
-1.22227840e-01
9.51091498e-02
-7.29761347e-02
-5.75159257e-03
-2.40908340e-02
-9.77605432e-02
-1.18604958e-01
-1.84056580e-01
-8.07198808e-02
-1.00701436e-01
-2.60907132e-02
1.51908016e-02
9.43669826e-02
-5.30446135e-02
-3.91943865e-02
1.50302565e-03
-1.46345142e-02
7.75657734e-03
-8.25161859e-02
-5.07716928e-03
-1.38868988e-01
1.57044590e-01
1.98959745e-03
5.07768244e-02
-6.96025789e-02
1.41018659e-01
-1.14582339e-02
-4.32842039e-02
5.54768629e-02
2.05550775e-01
8.15965235e-02
-9.19822231e-02
2.30774414e-02
-1.16976490e-02
-2.85912976e-02
3.25151756e-02
-5.51690385e-02
2.84145791e-02
-3.24636362e-02
-8.17835927e-02
-6.23277426e-02
3.65631282e-02
-8.10838491e-03
7.69462511e-02
-3.00291907e-02
9.69160870e-02
1.33901998e-01
2.02142056e-02
5.76774031e-03
-7.09554926e-02
1.83860231e-02
4.61614095e-02
-8.25187266e-02
-5.59036173e-02
-2.06664428e-02
-5.30377850e-02
5.78130446e-02
1.82366222e-01
9.29493606e-02
7.56859034e-03
-1.32236019e-01
6.88049197e-02
-1.04502842e-01
-2.73409374e-02
-1.69561297e-01
1.27835358e-02
-1.84184596e-01
2.66512223e-02
-4.24910598e-02
-7.00062364e-02
3.86470370e-02
2.51196492e-02
4.40377854e-02
9.57010835e-02
2.75120661e-02
1.12233788e-01
-1.23791536e-02
1.06844455e-01
-1.59158483e-02
7.22453073e-02
-1.39934242e-01
-5.55653200e-02
-4.43213135e-02
-9.92478728e-02
-3.72784771e-02
-1.32375643e-01
4.16988097e-02
-4.00313772e-02
-2.20463928e-02
-1.78285670e-02
1.01683009e-03
5.47798816e-03
-1.85474642e-02
9.52605307e-02
2.71710139e-02
-5.40770707e-04
-4.90322076e-02
-5.63618261e-03
-1.55684501e-02
-6.26352895e-03
-4.51013185e-02
4.68541235e-02
-1.11125968e-01
-5.90304136e-02
1.73546318e-02
-3.11695822e-02
-3.80073115e-02
5.59388772e-02
-3.23954262e-02
-1.58497408e-01
-3.58152054e-02
-5.47275916e-02
-1.12817839e-01
5.13419285e-02
-2.42494177e-02
5.00506945e-02
-5.18324971e-02
-4.16104123e-03
-1.46960318e-01
1.14088565e-01
8.44218880e-02
3.65673006e-02
1.36342430e-02
-7.59892259e-03
-3.65261128e-03
4.67418600e-03
3.82803977e-02
-3.35654654e-02
1.45114005e-01
-8.35115090e-02
-6.27545640e-02
5.01805507e-02
-1.73378587e-02
-1.00037493e-01
6.81739300e-02
-8.16407949e-02
-5.94024435e-02
-1.97117180e-02
-9.82824191e-02
-7.56053701e-02
-1.82355307e-02
-1.61213055e-03
3.22895646e-02
-9.48655047e-03
3.20017450e-02
2.55301856e-02
1.52696714e-01
-1.32319061e-02
-4.70664911e-03
-1.83808040e-02
1.09720975e-02
-1.04515061e-01
-6.36264458e-02
7.45651349e-02
5.42244762e-02
1.90422684e-01
8.96667838e-02
9.87041276e-04
-3.03932056e-02
3.78793827e-03
1.64091110e-01
-3.28130946e-02
-7.94414356e-02
5.06665558e-02
-1.61611676e-01
-1.42751828e-01
1.17509998e-02
2.88712066e-02
6.15746304e-02
4.09621820e-02
1.05096363e-02
-4.59169559e-02
1.20469313e-02
2.39279158e-02
1.73650414e-01
-9.85386372e-02
7.11414637e-03
9.88325477e-02
-6.73461556e-02
1.22321397e-02
-1.20943494e-01
2.84691546e-02
3.83806340e-02
-5.41387387e-02
-4.04171832e-03
7.99344555e-02
-8.91127363e-02
-7.26054311e-02
-9.27166194e-02
-1.10273637e-01
1.30965501e-01
1.18235983e-01
9.03747231e-02
1.43002430e-02
-5.34725748e-02
4.82462384e-02
6.12324886e-02
1.81853268e-02
-1.21514695e-02
1.41761797e-02
-4.50678580e-02
-3.45695205e-02
-3.37779410e-02
8.32852628e-03
-6.06101118e-02
3.41034867e-02
1.84486564e-02
1.09625615e-01
1.07011333e-01
5.43902852e-02
-8.31747502e-02
2.46882010e-02
1.20032132e-02
-2.77828407e-02
2.55416632e-02
-3.69810797e-02
4.58542220e-02
4.62403633e-02
3.51406522e-02
3.61269228e-02
1.09319948e-03
4.06328356e-03
1.71656683e-02
-2.47207023e-02
2.86646746e-02
-1.73671767e-01
-3.87666337e-02
4.15250324e-02
1.51592558e-02
-1.11861350e-02
-1.09081957e-02
-4.08067517e-02
5.45886606e-02
-2.41738427e-02
-5.09762987e-02
-8.57761428e-02
-2.06538439e-02
3.69815193e-02
8.12471211e-02
2.25054827e-02
3.93119715e-02
2.15770621e-02
-1.42038882e-01
-9.80895907e-02
-5.09939678e-02
-3.98450121e-02
2.72496231e-02
-8.64026323e-03
-3.85986269e-02
-5.29832616e-02
-6.05639853e-02
2.57638134e-02
3.96940950e-03
2.16040853e-02
7.81935304e-02
-1.74631402e-01
3.10959760e-02
-1.64030492e-02
2.65704840e-02
2.91042347e-02
3.81129049e-02
4.61945869e-02
7.67591316e-03
1.12450561e-02
7.21441060e-02
-5.79577647e-02
-6.45413175e-02
-3.47186998e-02
1.29809147e-02
-9.66777280e-02
8.28003511e-02
1.99310016e-02
5.51578775e-02
-6.49569631e-02
1.69851780e-02
-3.11790649e-02
1.21636428e-01
1.19838826e-01
1.48870340e-02
7.18132555e-02
1.33454159e-03
-1.01312570e-01
2.43459031e-01
-6.84560314e-02
1.29379764e-01
-4.74940948e-02
1.32840425e-02
-2.03972142e-02
-1.42757567e-02
6.09972253e-02
-1.16975427e-01
7.42103718e-03
-8.92672688e-02
1.17700376e-01
-2.17333548e-02
-1.26125976e-01
-7.60030281e-03
2.11416576e-02
1.53630106e-02
5.08569255e-02
-9.84099358e-02
5.37414998e-02
-9.34896618e-02
9.05928910e-02
-1.27431989e-01
-4.27295454e-02
-9.73924175e-02
-7.22520873e-02
4.26538810e-02
-1.39781058e-01
-1.63140092e-02
-2.09294781e-02
8.72343779e-02
6.47164956e-02
-7.09047541e-02
-2.02480722e-02
2.75796130e-02
-3.51909548e-02
-1.65618435e-02
-1.93344995e-01
-1.40912652e-01
1.22005947e-01
-5.95985539e-02
7.92068690e-02
-5.17853945e-02
5.43142259e-02
8.73233974e-02
-1.23713382e-01
